encog,BasicNetwork,java,3.2.0,1,1449318038822
[BASIC]
[BASIC:PARAMS]
[BASIC:NETWORK]
beginTraining=0
connectionLimit=0
contextTargetOffset=0,0,0
contextTargetSize=0,0,0
endTraining=2
hasContext=f
inputCount=140
layerCounts=140,841,141
layerFeedCounts=140,840,140
layerContextCount=0,0,0
layerIndex=0,140,981
output=0,0,1,0,0,0,0,1,0.9999952926,0.9999943679,0,0,0,0,0.0000000104,0,0.9999994106,0,0,0,0,0.0000372899,0.9997642013,0.0007375363,0.9999772365,0,0,0,0.0010097826,0.0000376064,0.0000451466,0.0000521088,0.999990305,0.0013998248,0,1,0.9999935596,0.9997049143,0,0.9999833024,0.9999755369,0,1,0.9999992404,0.9999939531,0.9999963246,0.9999957084,0.000001927,0,0.0000310935,0,0.999997672,0,0,0,0,1,0.0000437111,0.0000023806,0,0.0000125473,0.0000011571,0,1,0,0,0,0,0,0,1,0,0,0,0,0,0,1,0,0,0,0,0,0,1,0,0,0,0,0,0,1,0,0,0,0,0,0,1,0,0,0,0,0,0,1,0,0,0,0,0,0,1,0,0,0,0,0,0,1,0,0,0,0,0,0,1,0,0,0,0,0,0,1,0,0,0,0,0,0,0,0,0,0,0,0.0000000376,0.8818730308,0.0311312905,0.5036286614,0.0095946723,0,0.9996258708,0,0,0,0,0,0,0,0.0036759409,0.0000014573,0.0002046046,0.0178965321,0,0.7504079504,0.0000003695,0,0.000000094,0.0899253552,0,0.0000002181,0.0000011234,0.0000001597,0.0087228243,0,0,0,0.3481457699,0.0032004787,0,0,0,0.2418662938,0,0,0,0.0006298047,0.03783869,0.000112836,0,0.0000022399,0,0.1696836594,0,0.0000000043,0,0,0,0.4234039748,0,0,0,0.9999994627,0,0.241407438,0,0.031138183,0,0.0031539574,0.0000003573,0.9401294167,0,0,0,0.0000000002,0.0000068609,0.0042154737,0,0,0,0,0.0003344507,0,0.0000000308,0.7688935812,0.0002650385,0.0000001106,0,0.0001627901,0,0.0000171883,0.0003105535,0.000000029,0,0,0,0.0727898667,0.9926069022,0,0.0384582748,0.0000004582,0,0,0,0.3878841072,0,0,0,0.0005570841,0.0000080799,0,0,0.9999791232,0.9977799632,0.000000003,0,0.0019500672,0,0,0.000035498,0,0.945613841,0,0.0000000055,0,0.0007385269,0.000003065,0.0000000309,0.1749455649,0,0,0.0001384328,0.0000048542,0,0.8798929343,0.0000000003,0.0000165165,0,0,0,0.0000000387,0.0010055688,0.0000006346,0.0534086748,0,0.000433485,0.9578889104,0,0,0.0000001355,0.0000346246,0.0010342383,0,0.0290574046,0.9996453113,0,0,0.0015512284,0.3366414758,0,0,0,0,0,0,0.0000000627,0.0002414336,0,0.013016949,0,0.9937449263,0,0,0,0,0,0.0000457222,0,0.9989078163,0.007435797,0.9911342645,0.0000002845,0,0,0.0001515627,0.0000029658,0.9838505,0.0016051843,0,0.0000000008,0.0000550305,0,0,0.0109300362,0.0000005684,0,0.0025574675,0.0000000001,0,0.0001742364,0,0.5804639261,0,0,0.0000256953,0,0.0027162498,0,0,0.0000000018,0.0000000003,0,0.000009436,0,0.0227878254,0.9743899633,0.2610888731,0,0,0,0.9603302297,0.0000005529,0.9187366189,0,0.1885850108,0.0001152593,0,0.0000006452,0.0002072902,0,0.596405568,0.0649761297,0,0.0771711586,0,0.0000000003,0.000019782,0.0005566317,0.0411972106,0.0000005297,0,0.3677685875,0.6588043245,0,0.2087194805,0,0,0.0001001882,0,0.0000000006,0,0.0000185045,0,0.6187560718,0.9998391311,0,0,0,0,0,0.0000001754,0.0000041356,0,0.0078703669,0,0.0041535529,0,0,0.0003095167,0,0.0006112355,0,0,0,0,0.3912911344,0,0.9986322321,0,0.0167178563,0,0.0000880242,0,0.0001396532,0.3816237957,0.0519483522,0.3054032716,0,0,0.0000000059,0.0000000769,0,0,0,0,0,0.0000001059,0,0,0.00000014,0,0.5837153334,0.00005607,0,0.0000007907,0,0.0000073586,0,0,0.0095591048,0,0,0.7896938397,0.0030291947,0.0000000055,0,0.0000000098,0.0163340636,0.0002681739,0.0778260808,0,0.0003650208,0,0.0000060769,0.00008754,0.0970135555,0,0,0.0000115944,0.7570556646,0.0000000263,0.0041277275,0,0.9999998315,0,0,0.7654010073,0,0,0,0,0.0032176542,0.8360885124,0,0,0.0006511432,0,0,0.0000000176,0.0000078341,0,0.0002139669,0.0000000006,0,0.0000000001,0.9725854397,0.9880274165,0,0,0.8747934493,0.1071188,0.0016346028,0,0,0.000000173,0.000557526,0,0.0031510381,0.0199572002,0,0.0000000002,0,0,0,0.0000000291,0,0.0020308041,0.0000000136,0,0.0306243091,0,0,0,0,0,0.0000000096,0.0000000036,0.0000000007,0.0000003936,0.0001414525,0.000810796,0,0,0,0,0.2423878445,0,0,0,0.2965983338,0.0000003287,0.0000001645,0.0007150131,0.000005524,0,0.9995675282,0,0.000011531,0.0000093333,0,0.1641334658,0,0.0003609755,0.010371965,0.0000000008,0,0.0920244985,0.5623284609,0,0.0000000004,0.0000006452,0,0,0,0.0055429787,0.945414174,0.5011881585,0.181022623,0,0,0,0,0,0.0001411969,0.7947493516,0.0145242077,0.0000000015,0.0000000187,0,0,0.000008142,0.0137063689,0,0.0000858206,0,0,0.0005475859,0.0003012096,0.000000004,0,0.9854470433,0,0.0015207281,0.1175042391,0.7148215804,0.6650824644,0,0.0000226121,0,0,0,0,0,0,0.0000000001,0,0.0375108632,0,0,0.0000103612,0,0,0.0064346075,0,0,0,0,0.034687067,0,0.0000004638,0,0.0000000349,0.0004648614,0.0011667184,0.0045667453,0,0.0001827385,0.0178924419,0,0,0.00123317,0.7892765483,0,0.000000057,0.0000000003,0,0.9954654926,0.0000000124,0,0,0,0.0005980275,0.8844451046,0,0.9868810554,0.0000022316,0.0000000001,0.0255102684,0,0.0000001699,0,0,0.1860701242,0.0000296878,0.0007576036,0,0,0,0,0.0000432259,0.0000000044,0.3415420857,0.0003139192,0.3591304069,0.0000000184,0,0,0,0.0000062457,0.0000012787,0,0,0.0000000011,0.0000231819,0,0.0032171657,0.603631506,0,0,0,0.2782979177,0,0,0,0,0,0,0,0.0059854498,0.4082362626,0,0,0.0000000001,0,0,0.0439851905,0.9553625814,0.6854017942,0.0004599088,0,0.0004825624,0,0.0000000009,0,0.9970615035,0.0000831755,0,0,0,0.1040636676,0,0.000000002,0.0165483181,0.0000000043,0.000044958,0.0000000003,0,0.9529925461,0,0.999483374,0.0046419541,0,0,0.0000000845,0,0.0000000488,0,0,0,0,0,0,0.00065294,0.0000000015,0,0.0344170248,0,0,0.0545871756,0,0,0.5569346442,0,0.3171684671,0.0072045589,0,0.0000000003,0,0,0,0,0.0000004774,0.0000019814,0.0907721212,0.0030018713,0,0,0,0.3050917882,0,0,0.000022899,0,0,0,0.0000003433,0.3036057537,0,0.0000000006,0.0000000245,0.0002389559,0.0035886285,0.1629553197,0.002215493,0.0053615342,0,0.0000000158,0,0,0.5624223877,0.0000000001,0.0065771469,0.0000000089,0.9992850787,0,0.999169817,0.324234416,0,0.0004643066,0.0954807598,0,0.0000289293,0,0.9908994075,0,0.0052433079,0,0,0,0,0.029012874,0,0,0.0000019221,0,0.0000097578,0,0,0,0.0000000122,0.0000188465,0.0002099101,0,0,0,0.0000065896,0.0009336929,0.0000186931,0,0,0.000000018,0,0,0.0002507161,0.0062757624,0,0,0,0.9881492099,0,0,0.0199149864,0,0,0.0000000209,0.0000085326,0.0019607394,0.0000000778,0,0.0000000189,0.0003922385,0,0,0.0000116641,0.0000006551,0.0000129321,0.0000046975,0,0,0.6831267968,0,0,0,0,0,0,0.0052329893,0.9999854985,0,0,0.00000001,0.0000000001,0.0000002494,0.0127164236,0,0.000000022,0,0.000130718,0.1517130375,0.0000000002,0.987921616,0,0.0001428042,0.0000000003,0.0000049699,0,0,0,0.0209168221,0.217515933,0.9998361056,0.0000044461,0.0000000002,0,0,0.0172846565,0.0000000001,0,0.7610789778,0,0.403173772,0.9957551704,0.988062264,0,0.0914088164,0.0000000099,0.0000000006,0,0.0629922087,0.0071964999,0,0,0.0003116632,0.1315619453,0,0,0,0,0.0000827231,0,0.000064123,0.8049333776,0,0,0.999820757,0,0.0000031006,0,0,0.0132822429,0.0000000104,0.0852027995,0,0.9976188526,0.0000000492,0.4180934295,0.4277776698,0.0000000004,0.0010745693,0,0,0,0.0000000636,0.0000300943,0.0923282795,0,0,0.0093665462,0.0000000001,0.0000401336,0,0,0,0,0.0000049649,0.006744548,0,0.2079374231,0,0,0,0.7940733583,0.9244662598,0.0002075552,0,0.0030184887,0,0,0.0073059694,0,0.0000001798,0,0.273648029,0.4994155375,0.0007218298,0,0.0000000002,0.0061186828,0,0,0,0.0000710205,0.9960363371,0,0,0,0,0.2147672703,0.0009652369,0,1,0,0,1,0,0,0,0,1,1,1,0,0,0,0,0,0,1,0,0,0,0,0,1,0,1,0,0,0,0,0,0,0,1,0,0,1,1,1,0,1,1,0,1,1,1,1,1,0,0,0,0,1,0,0,0,0,1,0,0,0,0,0,0,1,0,0,0,0,0,0,1,0,0,0,0,0,0,1,0,0,0,0,0,0,1,0,0,0,0,0,0,1,0,0,0,0,0,0,1,0,0,0,0,0,0,1,0,0,0,0,0,0,1,0,0,0,0,0,0,1,0,0,0,0,0,0,1,0,0,0,0,0,0,1,0,0,0,0,0,0,1
outputCount=140
weightIndex=0,117740,236180
weights=##0
##double#236180
   0.3642398268,-0.3731904638,-0.3287953446,-0.8364960514,-0.1560802482,-0.4229846326,-1.1995456227,-0.1875535214,-0.9279848305,-0.8515785946,-0.9838465167,-0.4055063405,-0.9627055676,-0.5265159961,-0.9138578873,0.2316130015,0.2136678565,-0.641226114,-0.500384493,0.3994456145,0.0628055964,-0.0220539579,-0.22752506,-0.1445527513,-0.1578049985,-0.5622895654,0.1125564363,-0.3678048272,0.1569139128,-0.511255148,0.1784316903,-1.0742915201,-0.1054495724,0.3325831819,-0.7457124391,-0.6598600128,0.3249944704,-0.1904257902,0.152818915,0.2588808177,-0.90774238,0.346974374,-0.988782414,0.0064351573,-0.1975750322,-0.5834779415,-0.6996153486,0.0485586416,0.3146527846,-0.4486453867,-0.0289718357,-0.8343629864,-1.2199660147,-0.0158848377,-0.0642568717,-0.7999413255,-0.8212743481,-0.2207792669,0.1009741377,-0.0181365746,0.0708920477,-0.4642730197,-0.7425541712,0.3968150742,-0.6320159625,-0.1493463735,-0.9917215331,-0.1017688161,-0.4012093419,-0.7991629532,-0.0437019816,-0.0417612274,-0.3823431114,0.1739092993,-0.7907188157,-0.0174200713,-0.0695463272,0.2163226987,-0.6461584062,-0.5343437446,-0.3332379479,-0.5798690721,-0.3737526614,-0.3483315637,0.0693288174,-1.1060753043,-0.4104295419,-0.3043117302,-0.7867507706,-0.1322508335,-0.3415630437,0.1291620617,-0.8310771967,-0.5234281144,0.3980631227,0.0588573281,0.1073136459,0.0933433605,-0.8484836912,-0.4207475176,-0.5970509921,-0.9559153844,0.3813087681,0.3363312123,0.0234292242,-0.3154728165,-0.5284533262,-0.3234275501,-0.9440742312,0.2275750889,-0.4042997363,-1.2055786653,-0.6758913882,-0.0118886812,0.0873164252,-0.6988847406,-0.6196420372,0.2970257149,-0.669795118,-0.0016984578,0.0327831018,-0.4729837646,-0.6120968009,-0.2858301687,0.0891460966,-0.5048084499,-0.5342082304,-0.6489411087,-1.0391059652,0.1078836201,-0.8578509473,-0.6500652886,-0.2977805728,-0.7300989868,-0.0499627395,-0.5172206295,-0.1662127431,0.3400922612,-0.4903738813,-0.0258692995,-0.0729711819,-0.1605065106,-0.9791712042,-0.7965932944,-0.8009510844,-0.7304121367,-1.0447535761,-0.8535377497,-0.6528281425,-0.2263846457,-0.8503005284,-0.8254453316,0.3396010044,-0.117583194,-0.2261379504,0.3102345175,-0.0794956557,-0.6473137153,0.1297031916,-0.5683422081,-0.2639193676,-0.480434052,-0.1842361925,-0.0818898995,0.3319298613,-0.2584257934,-0.160375298,-0.2672082989,-1.2345369533,0.1694973541,-1.0859345506,-1.1472518434,-0.2607744551,-0.3702188517,-0.3720431732,-0.7139867586,-0.0220879939,-0.0499988206,-0.7556508569,0.0079897658,-0.9872694027,-0.2926597763,-0.553809672,0.2348226006,0.4079406035,0.0269186895,0.0633616745,-0.8568132017,-0.6473353735,0.0261628144,-0.9907987442,-0.2570575217,-0.0357722608,0.2622971446,-0.6739185121,0.0929243198,-0.4954908235,0.2454692267,0.091837917,-0.1386903396,-0.8806848085,-0.1080150837,-0.6438734547,-1.053388756,-0.7876230042,-0.6370400395,-0.3849935611,0.2658270107,-0.2442473831,0.1058137828,0.114754895,0.3736168439,-0.6907080168,0.0861809703,-0.3509126673,-0.3131430118,-0.7379291633,0.2598263531,-0.1874037722,0.061743352,-0.9092687248,-0.5898255093,-0.9901374688,-0.0009319585,-1.1865437202,-0.9531342137,-0.6197296184,-0.934507028,-0.7775611452,-0.5747938063,-0.4209161383,0.1394615653,-0.3492192346,-0.3811578564,-0.8949953974,-0.8585093712,-0.8185128819,-0.7479471132,-0.3144369245,-0.1249934137,-0.5272690948,-0.5608884067,-0.0304259649,-0.0750758785,-0.8028573249,0.3498146287,-0.0665178438,0.058406,-0.6675423406,-0.3790898268,-0.9509032129,-0.488711144,-0.725556794,-0.1202213861,0.1509756917,0.2864499483,0.1333777595,0.0663821976,0.3114103056,-0.4660755809,-1.1441352755,-0.5478873362,-0.6175206736,-0.3782798968,-0.9214551723,-0.7840169364,0.158521475,-1.2168919616,0.1919331298,-0.6671569356,0.3418901911,-0.0791570487,0.2529957343,-0.0229656453,-0.1752449478,-0.4706126941,0.2767559826,-1.2328413615,-0.694690788,-0.9250570806,-0.7180471212,-0.0025994517,-0.2186846814,-0.6321625072,-0.2582621854,-0.7728342682,0.0152096298,-0.7232653651,-0.9678722351,0.132045389,-0.9292895832,-0.0009436084,-0.148581507,-0.1336098428,-0.4345847754,-0.6612024837,0.1887442023,-0.2295453372,0.070919679,-0.9071529089,0.1225409694,-0.4816008818,0.03303573,-1.2071107707,-0.3126277159,-0.2462314939,-0.3492208889,-0.9036441351,-0.5931280197,-0.8720871412,-0.9847882558,-0.2583052911,-0.7980102618,-0.6036667111,-0.2610873294,-0.9151137511,-0.0120216226,-0.8223208974,-0.5523820694,0.08733186,0.1261187108,0.2615204808,0.3308668052,-0.4110630234,0.0139595347,-0.6960518032,0.2751354876,-0.870495113,0.0445326035,0.0194356777,0.2006184293,-1.2005392331,-0.0461133494,-1.063668578,-0.1349219451,0.400778022,-0.5146342208,-0.8939838498,-0.1210403423,-0.8213499415,-0.0973411422,-0.4418491328,-0.4733594946,-0.7698273163,-0.3881571163,0.0644956354,-0.939914372,-0.298115034,-0.2792844231,0.0111953567,-0.5153436964,0.1719208312,-0.8118377495,-0.1957023289,0.2685795136,-1.1535108265,0.0789549919,-0.5134087266,0.3798599424,0.1295173915,-0.1495768174,0.3420655509,0.0633304732,-0.2628027784,-0.8851188445,-0.744863762,-0.6173530062,-0.899980294,-0.7674736252,-0.5520005158,-0.7215051581,-0.7955308352,-0.5262860335,-0.0840076542,-0.5862592366,0.0772637913,-0.7624071836,-0.2668872236,-0.875133576,-0.8164603457,-0.064022466,-0.4037491669,-0.7769765452,-0.9608217772,0.2747964664,-0.7954221099,-0.3837997279,0.0380129683,0.191343746,0.2834805095,-0.7255067989,-0.4244253703,0.2548650867,0.305505791,0.2379744196,-0.0478155083,-0.2842862168,-0.0815944647,0.2468388141,-0.6441273985,-0.4735261119,-0.582090543,0.3116186195,-0.6298137128,-0.5260651387,-0.2391134554,-0.9204452006,-0.5523095352,0.0203567719,-0.9663363161,-0.3241747566,0.3618657382,0.3653128275,0.1457356277,0.0018093473,-0.214703617,0.1539261395,-0.1132292347,-0.7496379734,-0.7999099306,-0.526382311,-0.0735251922,-0.9616014851,0.3725502829,-0.3426943982,-0.1173858371,-0.2572213874,-0.1594139158,-0.3820538912,-0.5564879723,-0.508585602,-0.527289946,-0.3321539955,-0.4228505639,-1.1477110525,-0.0954125693,0.1720198859,-0.5031554044,-0.054892995,-0.0428272141,0.2945424783,-0.9202607873,-0.4003400409,0.1024202592,-0.5649820428,-0.4944119535,-1.0011738273,-0.0440470045,-1.1538535361,-0.8117832217,-1.2149061595,-0.7504735506,-0.2421834134,0.0565124818,-0.3448968552,0.1428767075,-0.5043134261,0.1904560829,-0.5187767856,-0.3984986966,-0.0607255241,-0.439320445,0.1149186328,0.1929111065,-0.4848398832,-0.9879178683,-0.3096408651,-0.8871851463,-0.809445294,-0.3771139637,0.2580740897,-0.5250820121,0.0872770207,-0.1861026576,-0.446157523,0.2747049808,-0.7054881394,0.0228790549,-0.7423726516,-0.1710665783,-0.3350185372,-0.6016227096,-0.4223184442,-0.0821334054,0.3887983318,-0.975251907,0.0530096474,-0.487548174,-0.7183125082,-0.4751273736,-0.5089534356,-1.2108827398,0.2360141258,0.2592281541,-0.756133141,0.068239934,-0.7118480678,-0.9196890029,-0.9181331358,-0.6940217749,0.1549861969,-0.6490516635,-0.4610181487,-0.4144400549,0.0567994283,-0.965215486,-0.9365428487,-0.3128096512,0.0154246726,-0.9543549396,-0.0727121854,0.026204056,-0.6615672373,-0.9931942856,0.1293325116,-0.2830120959,0.2567757724,0.2053900067,0.0752051076,0.0595608348,-0.8912956991,-0.1408691635,-0.1351354627,-0.8871843154,-0.3293096175,-0.2611339529,-0.8198375572,0.1251530486,0.1361116832,-0.8558034162,-0.6150250899,-0.2479134574,-0.8375040445,-0.7871163031,0.3988464229,0.0717281003,-0.212409395,-0.6793497369,-0.3968544358,-0.3634935054,-0.7218714226,-0.5889382279,0.3651837959,0.2299100762,-0.5576016364,0.2917112311,-0.3689338309,-0.747911842,-0.0669135386,-0.2091066755,-0.1792856952,0.302369406,0.2831310545,0.1890685791,-0.465465406,-0.1984531858,-0.3088773356,-0.8079772359,-0.9150657787,-0.8909186553,-1.2365206066,0.1900405946,-0.8084081317,0.3291684389,-0.4806862733,-0.2846284901,-0.0649014664,-0.5335453354,0.3341485482,0.0575328837,-0.4184457743,-0.472781715,-0.4636325158,-0.0177201872,-0.7977351745,0.1509995142,-0.952455821,-1.1315283046,-0.4625500374,-1.1592357074,-0.0667533871,-0.5433240321,-0.8262823121,-0.4279151583,0.2510069164,-0.7431010081,0.0452986575,-0.0513619962,0.1050039205,0.0657180417,-0.3112176732,0.0980276971,-1.0215709869,-0.3066283719,-0.6133467912,-0.0178520374,0.1578812036,-0.0660365778,-1.1182759145,-0.7335314551,0.4037276687,-0.4020368937,-0.4643300363,-0.9355341591,-0.8728715339,-0.1158413258,-0.7706678948,-0.4736163538,0.2284835903,0.1036891011,-0.0559093966,-0.0375585943,-0.9167619135,-0.0095438388,-0.5787044824,-0.4936069455,-0.2694301582,-0.869892924,-0.7528642492,-0.3636935362,0.2236270564,-0.5639925012,-0.344305006,-0.839154869,-0.8499354884,0.0029401027,-0.7960187796,-0.492265748,0.3892455279,-0.1472531774,-0.9858406309,-0.8572412265,-0.1469238083,-0.4918054485,-0.7723419331,-0.2813897399,-0.2735309565,-0.3979449945,-0.4518935297,-0.6212410133,-0.4064135607,0.087042885,0.2931395088,0.097933819,0.3638937985,-0.1626376737,-0.4891731132,0.0130873888,-0.7410067995,-0.4819418098,-0.166284382,-1.076082636,-0.2987248847,0.0712922754,-0.5749361214,-0.2837335078,-0.7589749631,0.2623858818,-0.2397566809,-1.190496656,-0.1224964634,0.0754524307,0.0750238409,0.1215377327,-0.3593416307,-0.8544238161,-0.6814532381,0.0776753162,-0.7564213501,-0.9555146678,-0.082523026,-0.7603871721,-0.1175017735,-0.0670451562,-0.9773969806,-0.2250876419,-0.9565671777,-0.7087770717,-0.0557753507,-0.1894564551,-0.5152593214,-0.3485637293,0.3389653685,-0.074541224,-0.0298545209,0.0519887828,0.2650239119,-0.9212078885,-0.093306555,-0.2987783833,-0.0162856697,-0.0260144192,-0.4566561508,0.2315347374,0.37146548,0.2447398205,-0.8496792499,0.2817119035,-0.8308042096,-1.1526487497,-0.5222910154,-0.9821563078,-0.5941594112,-0.4738922603,-0.8652733819,-0.6949490734,-1.0480729984,-0.3160435032,0.1638580065,-0.6744885492,-0.922299553,0.1367803252,-0.5015070505,-0.6510437908,0.240103652,-0.3752714185,-1.0933310607,0.0543205043,0.2049364549,-0.7029314806,-0.4571185913,-0.1303790565,-0.9688275829,0.0097685475,-0.8280943799,-0.8574223702,-0.3748673661,-0.4648255911,-0.7487672708,-0.0196249734,-1.0307212456,0.1883563108,-0.7759352887,0.3213954352,-0.45908032,-0.1188504058,-0.2381623945,0.3199741126,-0.9782252672,0.1426900346,-0.9078404001,0.1145918676,0.2084496956,0.3610231963,0.2332209775,-0.4690922655,0.1078996348,-0.7146911507,0.2606978232,-0.8569410388,-0.7381994211,-0.2118843086,-0.4418908163,0.1839698804,-0.6149395056,-0.7345719609,0.1005104859,-0.4344535879,-0.5575780139,-0.0758285769,0.0768510847,-0.8457489493,-0.7622899774,0.0184195873,-0.0175563713,0.128983236,-0.9768444752,-0.8903190664,0.2413650096,-0.627612084,-0.6963178647,-0.4169094746,-0.040324928,-0.8394664391,-0.3740422602,-0.4196253241,-0.1485054943,-0.5629839589,-0.8716242802,-0.7859570104,-0.6677669867,-0.4700074215,-0.529580641,0.0173416613,-1.1040320705,-0.791307012,-0.55043734,-0.0712301735,0.3011982988,-0.7944988601,-0.3368214392,0.0677140087,-0.8440506458,-0.0411690354,-0.4049233885,0.0110337658,0.1801897912,-0.0111190458,-0.7632518136,0.0200207739,-0.3269722524,-0.2204508946,0.1570668769,-0.3143304818,-0.0172244944,-0.2908180517,-0.7052765287,-0.0231902435,-0.9061543951,0.4064415968,-0.2309547107,-0.6544813039,-0.1821565847,-0.4922186656,-0.6162415514,0.042301826,-0.8196981862,-0.8086034335,0.0043161148,-0.093140875,-0.4909496051,0.38775992,-0.9625901689,-1.0411645893,-0.495297057,-0.6864116124,-0.7829729348,0.3987097832,-0.1514970243,0.0931093506,-1.158684242,-0.952962495,-0.5424407999,-0.0784399023,-0.09361608,-0.8132973973,0.0720618777,0.1415764859,-0.4143554472,-0.7398460601,-2.4522777255,-0.7532106001,0.1228722095,0.0145157409,-0.8038048606,-0.4256801196,-0.0573798989,-0.3279373757,-0.0582992735,0.1762955584,0.157038037,0.0606591495,0.0648642616,0.3664820829,-0.8446828632,-0.6795888831,-0.1518137481,-0.3256537964,-0.6238136246,-0.4020714685,0.1025034759,-0.4681419992,0.1511645128,0.1624492457,0.3563246781,-0.1230292148,-0.6600217769,-0.8604929193,-0.777296967,0.028798851,-0.5938675362,0.3622503464,0.3847680249,-0.6533918215,-0.721361202,-0.6519610973,-0.3497683107,0.1314031872,-0.4839687746,-0.2001769629,-0.3350012396,-0.5536546045,-0.30580892,-0.6284135577,0.2373640243,0.2927012789,-0.636128848,-0.3397248353,-0.2311604597,-0.9661971509,-0.7845343969,0.0626678116,-0.0919904066,-0.5323388024,-0.7890305354,0.4003130792,0.2312045448,-0.2032171032,-0.2368300481,-1.0018370332,-0.3083062383,-0.4970521381,-0.4218178586,0.3592868354,-0.5446165611,-0.3074789202,0.2268578994,-0.0379950865,-0.6230576408,-0.3851741337,-0.356179918,0.0269200714,-0.8258689938,0.2593019311,0.0472530551,-0.7621056814,0.4077188415,-1.2052724779,-0.1713873081,0.1893351141,0.3258183861,-0.4184917262,-0.757061081,-0.916137313,-0.00715052,-0.2949313091,-0.4924560268,-0.7486532332,-0.3191288205,-0.8771795791,0.0798757772,-0.2335998036,0.3558619637,-0.9404522431,-0.5521640343,-0.5381670672,-0.2776936309,-0.768378847,-0.9648531794,-0.3120968828,-0.2599403224,-0.0615204904,-0.7912260838,-0.7880484645,-0.4280862418,-0.1033267933,0.3062109537,0.3353233039,-0.4157964887,0.0779496543,-0.1932214393,-0.5226010139,-0.3631640233,-0.1832190132,-0.8671877987,-0.5922567325,0.1536684035,0.3294637725,-0.2309706079,-0.6119162555,0.0718700005,-0.2734549738,-0.6383271487,-0.6228107247,-0.636196081,-0.3673468721,-0.4408767822,-1.1579727795,0.3358292094,0.0135711523,-0.2756475516,0.127678082,-0.1483534504,-0.3891906921,-0.6890150201,-0.2398461863,0.2830576021,0.3480695036,-0.9459389692,-0.5831153452,-0.1127413372,0.3368384251,-1.075087228,-0.0046393841,-0.0012156523,-0.3119670014,-0.3096949216,-1.1664992248,0.2236225755,0.2250241565,-0.8999947399,-0.4639996543,-0.8100234119,0.0344148831,-0.1463403424,-0.7224521709,0.0411368048,-0.8745613566,0.3759147605,0.3058216083,0.2599456763,-0.0042814881,-0.0767257079,-0.8354199876,0.0400424641,-0.6939912201,0.1294314235,0.2629922884,0.2657665345,-0.61685804,-0.8789372061,0.3832118596,-0.0435671642,-0.7887007263,0.0527027764,-0.3219848637,0.1977579285,-0.957141594,0.1125897729,-0.2854370311,-0.9213555256,-0.9952620759,-0.5966878737,-0.9524778316,-0.3308701282,-0.5521371072,-0.4414001896,-0.2288715969,-0.0001393458,0.3948360002,0.1910515197,-0.2317096565,-0.956131452,0.1187783213,-0.5923819795,-0.1907549256,-0.8791260224,0.32231995,-0.7049485037,-0.9165909006,-0.6734300364,0.3677021168,0.0167147966,-0.723768581,-0.2733594688,-0.5869516126,0.346838757,-0.6701971841,-0.7268757042,-0.7532924526,-0.3375246104,-0.3266773888,0.2058472627,-0.538052423,-0.2956227257,-0.2372566925,-0.7837860042,0.0499870472,0.0075938382,-0.316542288,0.3154296611,-0.6250725608,-0.2275615981,0.1402471148,-0.646127349,0.0555665465,-1.115640298,-0.2330722066,-0.1867089592,-0.2446240659,-0.9345550524,-0.8702733826,-0.3768805219,0.3920424357,-0.8366421175,-0.8810026561,-0.0765561073,-0.2525164447,0.2979211983,-0.8834643046,-0.9387006076,-0.4794148977,-0.4699429024,-0.597045206,-0.1063575131,-0.648654245,-0.7228325219,-0.227351787,-0.4199786136,0.2147441918,-0.615747157,0.2758210951,-0.4349748761,0.3940823409,-0.8448898352,-0.2894576031,-0.000619326,-0.8016565543,-0.7870931045,-0.5846491278,-0.490294505,-0.9738474696,-0.2309640298,-0.8575182132,-0.6023105231,-0.7811748076,-0.8851155015,0.0023734124,-1.1549532098,-0.4951289226,-0.460869073,-0.3660300507,-0.7809413923,-0.7361457176,-0.0095783059,-0.6088837644,0.217375732,-0.2352414531,-0.2860531382,0.2087419487,-0.7833740826,-0.1657088066,0.1682727686,-0.759542566,-0.5160238276,-0.0535279741,-1.0692250459,-0.727457981,-0.8310636209,-0.5141488268,0.0623653968,0.2767977123,-0.2102889789,-0.7445858954,-0.7656571987,-0.4993396136,-0.3422828461,-0.782484329,-0.3633503928,-0.1153699582,-0.5610919806,0.387076804,-0.1158342531,-0.8963373158,-0.5238858419,-0.6791537903,-0.8424217827,0.3892630035,0.3371628688,0.2686916508,0.0569657296,-0.2895976615,-0.1822453223,0.2653501372,-0.0168827273,-0.2925446225,-0.2918371685,-0.2672842693,-0.598897382,-0.5039839008,-0.5734968146,-0.6876471462,-0.3272699584,-0.3825109446,-1.1107201189,0.3097722223,-0.3873860102,-0.3183974324,0.2705254654,0.1025701415,-0.0047309429,-0.8633404758,0.0747645976,0.3368004934,-0.1452520976,-0.6295444629,-0.8255951084,-0.874079045,0.291183801,-0.1548479425,-0.5013941955,0.1117145329,-0.5917519036,-1.1467123233,0.0932235796,0.4028574136,-0.3051100533,-0.2760308428,-0.0902143119,-0.5790127927,-0.0810218763,0.0593537504,0.3854849966,0.0394213396,-0.3147772276,-0.518371966,-0.1512117431,-0.9649819801,-0.9383340956,0.2977542849,-1.101568642,-0.8409332752,0.1922225545,0.3832477283,-0.8193462312,0.3932181719,-0.2537807515,-0.4223195446,-0.0240281278,-0.3304649855,-0.2603103685,-0.2953414253,0.1367412389,-0.46492226,0.3837452156,-0.618500275,-0.8084092744,0.1469796818,-0.8110712816,0.1440523271,-0.5313196623,-0.2972592469,-0.1740203946,-1.1149892485,0.1843737455,-0.3862196377,-0.8566554502,-0.8216137554,-0.1255055769,-0.7229341005,-0.72735067,-0.1475574109,-0.8515866297,0.3546949239,-0.2669989212,-0.6583846351,-0.1926581374,-0.7746535349,-0.0754682048,0.0522529363,-1.1837552077,0.3521045731,-0.8240219613,-0.9252055053,0.0659719476,0.0271348968,-0.6600220884,0.0593319463,-0.6919164025,-0.0025860879,-0.8684936767,0.1962133493,0.3122172763,-0.1813713393,0.0701227365,0.2613159476,0.1309832223,-0.5449771323,-0.385588827,-0.6129621865,-0.3963732412,-0.0337345375,-0.7337224761,0.2972779708,-0.3135998669,0.3556853213,-0.6839917114,-0.9635090301,-0.1094549614,-0.7164451,-0.1964967656,-0.4994713223,-0.3984906857,0.2506147566,-0.1223199449,-0.08686464,-1.1441656736,-0.7032114783,0.0619418448,-0.7400170968,0.2797607582,-0.4085080135,0.2670754938,-0.9639225409,0.0006125986,-0.3387348721,-0.7855724808,-0.3806139734,-0.4079068152,-0.8942169815,-0.518196907,-0.6759755669,-0.1169069897,-0.2034982713,-0.6010582478,0.0184468661,-0.3024851177,-0.4129107072,0.1417375657,-0.8967056686,0.0078083489,-0.779460311,-0.3375416448,-0.4024730834,0.402054528,-0.4268066205,0.1760787972,0.3949691488,-0.989478485,-0.7266561351,0.2149039843,-0.1931035409,-0.083051809,-0.8379605638,0.2510584464,-0.940625615,-0.6683610716,-0.5864656603,-0.0164261692,-0.9278368448,-0.2305475717,-0.5652967081,0.0988321879,-0.0201410777,-0.5227122681,-0.0678595229,0.0878507714,-0.3146882868,-0.4423554075,0.0548214862,-0.1584654293,-0.7228433799,0.0572666259,-0.6612941085,0.412346472,0.0703964903,0.056629026,-1.0225698173,0.049547596,-0.1014071931,-0.4567894623,0.3758246045,-0.2248036749,0.1692949064,0.3197820219,-0.2250618381,-0.7157365369,-0.2908317108,-0.47638047,-0.4610363585,-1.1494347921,0.3496940254,-0.1294140012,-0.8498350744,-0.9513395048,-0.2491673234,0.0051658379,0.1104687163,-0.5200252792,-0.8297133903,-0.8747148717,-0.8691142577,-0.880726006,-1.2396077172,0.3491514439,0.3483127573,-0.1826558759,-0.233011529,-0.0117786303,-0.8386080505,-0.8875166362,0.1178930055,-0.896124537,0.3591344158,-0.9607074232,-0.1564509303,-0.9440473895,0.2710061318,-0.9419350739,0.0847152002,-0.9059136143,-0.53293052,-0.1634850724,0.3313247059,0.0165675887,0.1156456896,0.2317502449,-0.3757908207,-0.2855331716,-0.9278507621,-0.3262155337,0.2897191159,0.3614006657,-0.9825701994,-0.5356882602,0.2515490528,-0.6831171855,-0.5876684649,-0.8194599869,-0.5152458688,-0.5846639996,-0.3580881583,-0.326613218,-0.514309836,-0.0485332706,-1.1035068453,-0.1137973145,-0.5464284434,0.4061583625,0.0288832043,-0.7648723076,-0.9141354037,0.0323662949,-0.4679790307,-0.090468139,-0.1522268623,-0.6388830465,0.3427994183,-0.455548696,-0.6500387723,0.2823468057,-0.4314786013,-0.7048160247,-0.125085858,-0.9647347174,0.1560418727,0.3852745662,-0.6720399759,-0.6266130435,-0.697556852,-0.3073651183,-0.4813334815,-0.8839360497,0.0450628454,-0.3692158931,-0.7847696809,-0.311455775,-0.2178508576,0.1017985795,-0.2049846997,0.204678302,-0.9006390331,-0.0847619995,0.134307324,0.0775282359,-0.4691118723,-0.6514126817,-0.0031771638,0.2795351999,0.0109439024,-0.596938922,-0.3176534863,-0.1145275046,-0.3616365958,-0.4078478131,-0.7368804282,-0.6854646611,-0.0342476722,0.3154625363,0.280906086,-0.4708235051,0.0920175385,-0.2902605333,0.3777280408,-0.0888224376,-0.5755231382,0.2961182296,-0.1640802,-0.0017325789,-0.1041460993,-0.6787123021,-0.1767234643,-1.0516154416,-0.7311897712,0.2284182248,-0.6522357136,-0.7331009565,-0.2059250199,-0.8873862452,0.0552418112,-0.2623017437,-0.6109483632,0.2565565693,-0.9083254592,-0.9523087299,-0.2724165501,0.1183939142,-0.1061267271,-0.8660806184,-0.533296797,-0.2291223363,0.4051565843,-0.2866896286,0.4025790951,-0.3212661885,-0.371238079,0.091029642,-0.0075905903,-0.8374269493,-0.5106150164,-0.0062452098,0.395166445,-0.3092896416,-0.7816560592,-0.1483122926,-0.3224679272,0.0966278302,-0.5850734119,0.2876433838,0.2835976747,-0.6017409763,-0.948411386,-0.5947684346,-0.0736734828,-0.004279868,-0.7222990079,-0.1168037822,0.3031537538,-0.4291302109,-0.9914170525,-0.1436605867,-0.9254683151,-0.6879917352,0.0739928012,-0.4354546997,-0.5053620059,-0.4578373293,0.3583515823,0.2358197354,-0.2273137204,-0.3237453827,-0.3811006769,-0.3867693056,-0.9635215167,-0.1607996932,-0.1065474956,-0.7037137657,-0.4173563436,-0.4689918585,-0.1179653325,0.074445483,0.1281596004,0.2014353484,-0.1487977999,-0.2860735867,0.0618041245,-0.1603272933,-0.4798277112,-0.8572444068,-0.1808905088,0.3729444039,-0.464057273,-0.612967235,0.1310281228,-0.9828934641,0.2431216791,0.3910731106,-0.2046812086,-0.3600828049,0.271200219,-0.0616368796,0.1806200689,0.2355327114,-0.2552075584,-0.2805114605,-0.1680391492,-0.9388670855,-0.5937594547,-0.4912546966,0.0647686137,-0.3105469056,-1.1912263902,-0.8493191611,0.0779803454,-0.5008558765,0.0029549344,-0.7551380839,-0.4132527491,-0.6068789516,-0.0842710394,-0.9858414782,-0.1729175838,0.0300234666,-0.7097587771,-0.2776773512,-0.2544426087,-0.5330403914,0.3066541955,-0.9672389715,-0.3286008919,-0.2657804429,-0.5520599798,-1.145125807,-0.784013494,-0.9666891669,-0.6156060671,-0.4292016358,0.2775772744,-0.9661822002,0.2128354422,-0.4497240245,-0.9545089214,0.0614637297,-1.1630860961,0.1403024287,-0.3213520066,-0.0159041494,-0.0780735876,-0.8153263607,0.2190569712,0.2564001112,-0.1738661732,-1.1127183995,-0.7424510829,0.2286806868,-0.9274117794,-0.6404099004,0.0711486604,0.3499366211,-0.8783299576,0.3828415279,-0.7712430318,-0.8775570142,0.0054443758,-0.6480253271,-0.665861197,-0.748638429,0.1599422041,-0.1360116345,0.0570684565,0.2542150162,-0.4416402813,-0.5823456876,-0.6687823752,0.2298487909,-0.143385274,-0.6583423642,-0.978182121,-0.747728713,-0.0907727178,-0.4797747868,-0.0192516306,0.1297581564,0.2469448823,-0.6009323537,-0.5967339402,-0.5265422809,-0.7135459706,0.1419141568,-0.3747339876,-0.0885979805,-0.7986324184,-0.7200601352,-0.5774188722,-0.5684207571,-0.9320965887,-0.0238544434,0.3477862469,-0.8841368307,0.1371967579,-0.2499458833,-0.0086530548,0.2359766559,-0.8136849817,0.0225926666,0.1099803134,-0.832030044,0.3949856492,-0.2227240424,-0.5602838884,0.0581922531,0.0915772458,-0.3539743773,-0.0545672154,-0.0559500753,-0.020747456,-0.623664382,-0.1000223003,-0.3393316547,-0.7018638745,0.3721740511,-0.7883083195,0.7248258229,0.9871885571,0.3599272777,1.1043784875,1.0439713379,1.3903411097,0.0466892744,0.958600866,0.1971172992,0.6958218439,1.1560671524,1.0094202174,0.0928475591,0.9868909356,0.29138684,1.0593796063,0.1068249404,0.6779060699,0.2400273759,1.3199187796,0.7913443668,0.3824112522,0.8090045173,0.1488153539,1.0704042707,0.2725073244,1.0008487952,0.8539910706,1.4076486005,0.3871341878,0.5382909643,1.1474984542,0.0762173024,0.9576096497,0.904891738,0.8643466044,1.379783249,0.6122910681,1.372258686,0.6525690629,1.2385494882,0.6655136333,0.5476531689,0.4069803575,0.8761292974,1.3412009732,0.9177511721,0.4333719222,0.9314134079,0.9995811841,0.8502908995,0.1237572918,1.055349879,0.5471728695,0.4674707558,0.8288514624,0.7335174943,0.3808398358,1.0806984757,0.9338915311,0.8944539375,0.1023178693,0.2007939313,0.7407520192,0.5730978155,0.0189192065,0.8732177764,1.3805126642,0.888403207,0.3669243653,0.4543570697,1.1035467009,0.8594344036,0.6647438183,1.3235791778,0.5470980752,0.3363072159,0.7241431089,0.0902543073,0.614521679,0.4921292243,0.844461019,0.5877240159,1.1362708542,0.6300012999,0.03636894,0.2408776174,1.024713394,0.5234524936,0.5848447568,0.8891344006,0.6142275306,0.5559216846,1.2095926206,0.9375897591,0.212173442,1.0689643225,0.909878844,0.5352905855,0.9239344964,0.954983881,0.4636365336,1.014651375,0.9002115416,0.5375885306,1.0063698479,1.2263532841,0.0258008444,1.2307274585,1.4051862172,0.7658049653,1.2718775922,0.971339452,0.9415477082,0.7360405388,0.697877871,0.1215228299,1.4074134995,0.1416836003,0.2722449006,1.1048018914,1.2685516452,0.54366702,0.5584231313,0.8303566924,0.9550560061,1.1191385905,0.0447498282,1.3543400179,1.0655875429,0.6097047153,0.8552698848,1.2421343621,1.0620025734,0.6934826885,0.9742501727,0.2347447814,0.5313886887,0.3118814482,0.0972300112,1.0078734407,0.6930905344,0.7279976936,0.6523949212,0.0761242286,0.5290731972,0.970471078,0.9182796371,1.2968157136,0.8408439896,0.691927316,1.391660249,0.8346160155,0.2721188266,0.110454879,1.1786660132,0.1264948369,1.1360429198,0.2254351517,0.2847444295,0.5738567599,0.3312827479,0.3502853887,1.2143362351,0.6154663345,0.5717637871,0.7990435191,0.9380559612,0.4223021891,0.1859730961,1.2368957006,0.3512169182,0.566359962,0.1899935356,0.3119157248,0.4562118182,0.8974746124,1.0195516356,0.4373372433,1.2172714668,1.1437350993,0.2989438593,0.1740942312,1.3682330376,0.7807055851,0.8696834227,0.0677655364,1.3060365495,0.9420089983,0.6321199283,1.113803146,1.368224516,0.2201835192,0.578644325,0.2099559204,0.8865163883,1.2377260057,0.946181195,0.9177563868,1.4075334955,0.2343592408,1.3175315999,0.0406248708,0.3759650781,0.6916496246,1.3149573334,0.6231768936,1.2061681494,0.9976501022,0.1590748275,0.5939519554,0.0754414069,0.3660354107,0.3207858374,0.6836104627,0.8924351483,0.2341872053,0.3836312522,0.7132408313,0.0292228723,0.8432166176,0.9624874897,1.3726718577,1.0748731815,0.4387181346,0.0411224843,0.6318893418,0.9377501093,0.3406477139,0.653111384,0.9180192663,1.0439266584,0.1975936703,0.0980526111,1.2189564283,0.3645374082,0.2530944373,1.1795812737,0.700784006,0.7859103264,0.1569857242,0.6212758816,1.3592826653,1.3617148866,0.9642983497,0.2106415135,0.4507985137,0.1695368833,1.0236557877,0.2748374486,0.5149670646,0.2935610793,0.6959762448,0.9293648237,0.5182815094,0.2834283477,0.9091254865,0.6756736421,1.1927249485,1.2602889027,0.656257691,0.6724899388,0.4894954965,0.9890136385,1.0884262049,0.606898012,0.7606753492,0.6651480457,0.3860839916,0.0817621251,0.6650819301,0.3713628245,0.0232022919,0.6459735808,0.433200584,1.297319847,1.3524048196,1.3949770768,0.5975011882,0.7143138025,0.9153395388,1.0941079631,0.447651691,0.1777977271,0.5743061433,0.0630017918,0.5021521569,0.6296249199,0.6706800403,0.3856977326,0.0978499814,0.3870369026,0.0763372273,0.9880581407,0.4427288735,1.2028047783,0.3257285462,0.1004548677,0.5174956272,0.2752590548,0.5766965588,0.901957713,0.9929985136,0.8564424662,1.2962608794,0.5207456938,0.0090965782,1.1205030761,0.2756344663,1.2736916102,0.979688199,0.4565169518,0.039663012,0.6022070776,0.2313028688,0.0137808893,0.2458492065,1.0104953363,0.9375761508,1.1079413327,1.1161943784,1.0869042942,1.0700481209,1.2909978117,1.3795958735,0.2476749642,0.1360431384,1.3780867983,1.3899398565,1.3907990227,0.3939916409,1.3207833106,0.7314568868,0.4019531605,0.7370903742,1.0390979518,1.2652826381,0.9650051234,1.1642190802,0.3876666469,1.0808300182,0.0977634904,0.6069085216,0.4644907467,0.6285735514,0.6915120123,0.5550157092,0.0003941251,0.0094025675,1.0105886546,0.3112171723,0.6584529634,0.888450738,0.226119578,0.8745683568,0.6376630928,1.1870047798,0.0004755342,0.8875476385,0.7987713697,1.0620825122,0.227737297,0.7474165177,1.2130097096,0.7826380634,0.5913372079
   0.3214347522,0.3841958076,0.1470954133,0.4578810528,0.0103376215,0.4843921717,0.8477629919,1.1576602209,1.2303289278,0.7547733001,0.0636310835,0.5771292022,0.0197819659,0.9860761663,0.476252334,0.6196592601,0.3632949435,1.1057503638,0.9865199447,0.9595431613,1.136684509,0.9216306358,0.3931000812,0.8365324396,1.2896461839,1.366829991,0.9552690124,1.198121849,0.9148050819,0.6484570503,0.6456287439,0.7303988874,0.4648055252,0.7302106824,0.7355439414,1.3677269779,1.0955952958,0.0389678301,0.9964697173,0.0577307071,0.0167544567,0.6785430189,1.1752871323,0.1978979287,0.8829270514,1.3786245986,1.2953128382,0.1154290787,0.9620127448,0.5921002356,0.3663231953,0.1509042681,0.7956753967,0.4231230902,0.8667478459,0.2868424206,1.3251729753,1.1234709799,1.090889334,0.1789812824,0.9086622672,0.6947102502,0.5283653233,0.9511718554,0.0476536977,1.306679455,1.361563563,0.9428302306,0.1766988442,0.5458029403,1.3475281965,1.0996088698,0.8820986627,1.0683902393,0.3620634798,1.1529385839,1.0720085951,0.0401060334,0.2303310212,0.4775208579,0.9630912544,0.0370147438,0.3428208088,0.662108847,0.1769524976,0.4156951694,1.0957140451,0.9332007876,1.202552205,0.7967252004,0.8681652472,0.9409650864,0.648195911,0.2283217796,0.1845688342,0.5975025424,1.3724551236,1.145021734,0.4714013198,0.9615710705,1.1414222197,1.0748249513,0.1674415778,0.2194344026,0.8282328212,1.1041129739,0.0022215819,0.948964075,0.6333837466,0.9420917143,1.0387181206,0.4952984032,0.8296278439,0.0910631323,0.8947040661,0.0555259695,1.1914719155,0.0516633663,0.6328614482,0.5627561203,0.5430229384,0.8432738421,0.3857695543,1.1221256768,0.9508751528,0.7660797415,1.3355677719,1.1419644496,0.2852590489,0.4331654204,0.1486423667,0.8355224846,0.8931870734,0.3742430802,0.1991279308,0.6671263289,0.5723258467,1.1636189806,0.0935921632,0.2739995856,0.0832791894,1.2738341475,0.5785409497,1.2690737535,1.3792400794,1.2582695823,0.1376728716,0.7722445276,0.8459095101,0.0491623867,0.6696306602,0.9820148902,0.7364495013,0.2506023687,0.7072502435,1.0859309114,0.6512727432,0.3822583707,0.5863633692,1.0052753441,0.5897279359,0.8139767643,0.1304784334,0.92243776,1.3446552087,0.7336376578,0.9618718163,0.8725148277,0.0373856422,0.392851357,0.1032921242,0.7653449138,0.5191867576,1.0264138182,0.2080044146,1.2055569753,0.0667534366,0.1457947927,1.191080227,0.9467501591,0.5957651134,1.0982255476,0.7368051347,0.2837866868,0.6078953436,1.3242601805,0.2537386167,0.4569986816,1.1132743133,0.6522767247,1.0011447123,0.5856020821,0.6480354707,0.4027143678,0.6256040953,0.5582616884,0.6394804593,0.9330313913,1.26116319,0.9709226263,1.2361673651,0.2608208764,1.1695064976,0.313081276,1.2668034774,0.254608091,0.6378749909,1.2231934571,0.2932972056,0.1482861367,1.0892571958,1.064530969,0.5596678625,1.210669902,1.3903828006,0.9570586153,0.8858242684,0.7445825119,1.4065447934,0.641937952,1.2365300942,1.274079345,0.0904426743,0.5986286754,0.049474189,0.4226308014,1.2593965776,0.6659878305,0.2169899911,0.8101088926,0.6423411999,1.2312493766,0.2410637369,0.0171411804,0.2057736198,1.3899860904,0.6955573248,0.9156060643,1.3607499684,0.4517439282,1.3518208772,1.3603879345,1.1688082062,1.1139259732,1.1270483862,0.4633480083,0.2082109134,0.0415501215,0.5728042681,0.691121906,0.5626944258,0.6609531065,1.2645339409,0.6746233665,0.6825150577,0.7696895965,0.9980871099,0.9265566634,0.3711607977,1.0835394745,0.9628475841,0.546459627,1.1963030333,0.8361212069,0.6299659443,0.9511912555,1.2564594194,0.01786841,0.2027186581,0.6102264937,0.4323922273,0.733491592,1.3990184036,0.6991388914,0.9088473567,0.90655949,0.6930951769,0.4604236243,0.8130291372,0.7582380727,0.7095784668,0.6035000425,1.0746957202,0.3728152122,1.3117261325,1.1932117085,1.0228909924,0.2862283515,0.1945419452,1.0953308681,0.2964810857,1.0602365207,1.1200423713,0.3058861417,1.2677156213,1.2388861877,0.5272427545,1.1455203388,0.4473501718,0.4346552875,0.1000149705,0.7588044377,0.2381712523,0.2104315542,0.7793178031,0.8279970499,0.5728617526,0.7498402668,0.7870775227,1.3311916772,1.1236725758,0.5515212437,0.0416390036,0.5604074337,1.1936856678,1.2353775392,0.2426610338,0.5342880623,0.7168446525,0.0105815933,0.7857152632,1.2965560544,0.3272945621,0.1053272693,0.1849842348,0.2247771554,0.7813755457,0.0148527519,1.1206901374,0.4391406189,0.8617776389,0.5400761681,0.0770914306,1.0465390701,0.9372260133,1.3461288278,0.0678943527,1.1255451471,1.3861193499,1.0632657518,0.2866509868,0.4882236279,0.2657243274,0.6073548081,0.8956885022,0.7858871785,0.6720255055,0.3768545763,0.5362814765,0.4714209321,1.390892541,0.8200472092,0.7259157222,1.2706384728,1.2901126549,0.5968457267,0.3391433318,0.7545459692,1.2875921984,0.5554568882,0.0396820248,0.109843441,1.0118627994,0.2255778,0.0170366402,1.2622088916,1.2999949949,0.9922569742,1.2822695603,0.2723437554,0.4321004295,0.9385306725,1.2503106277,0.1871400761,0.201191734,0.2325863214,1.3255628946,0.099423316,0.676659779,0.5100298622,0.8279148816,0.4124889811,0.6650541645,0.8907572402,1.2058173629,0.0771527842,0.6184849413,0.8847116364,1.191453326,0.5396130926,0.726594991,0.9905889472,0.5762500942,0.0920599988,0.5609487608,0.1984819091,1.1639735883,0.6724308829,1.3060713466,0.5228466134,0.9964131212,0.5981099629,1.3918579927,1.2764822,1.0193059507,1.3558450345,0.6689460838,0.0359187153,0.2845627707,0.3511359844,1.2380197024,0.4828840874,0.0694174163,1.1747540466,0.5597811174,0.3749175279,1.3508545271,0.6180535689,0.4518715778,0.0119782074,0.5058205845,0.2804955253,1.2193486908,0.3621103205,0.1343232917,0.7715680665,0.7650573012,1.158207881,0.6014137655,0.5645056273,0.869342196,0.8297351971,0.7060342642,0.1066181736,0.2867570072,1.2348380633,0.1624845298,0.5923457736,0.1102686352,1.236157475,0.3333289624,1.3512187147,0.4592519545,0.2638916473,0.6331228561,0.6624369499,0.7640876997,0.7970711398,0.31298357,0.4303479396,0.595716804,1.3798847371,0.913740451,1.3159195239,0.3113095073,0.9246534226,0.1549377773,0.9074829364,1.0416296586,0.5080398464,0.1652800009,0.1000258861,0.3234534197,0.4866026033,0.6468138701,0.3435294069,1.146746081,0.6610113212,0.9153786034,0.188981129,1.171242954,1.0977418346,0.8419608093,0.3762224784,-1.3317818295,-0.346650902,-0.4912183846,0.169449319,-0.287683517,-0.4153462318,-0.1190540566,-0.3524379429,-0.7098425232,0.2811184546,-0.9131380453,-0.6607744275,-0.6150249396,-0.0523270365,-0.0903439925,-0.8618976876,-0.8778789124,-0.3079503463,-0.7748615852,-0.0228800466,0.2663475878,0.3133816065,0.0130114226,-0.7081413544,0.0559744217,-1.4301763163,-0.6546769304,-0.7916617651,0.073356303,0.3996920562,0.4090299049,-0.5160257163,-0.2669796353,-0.5047921955,0.3083889092,-0.8999737534,-0.4303313769,-0.2266033902,-0.1820549672,0.3650925003,-0.7042429882,-0.7177330783,-0.0577772757,0.3309224515,-0.7484620184,-0.4911348838,-0.1642078698,-0.6044840279,-0.6618582582,-0.0500791985,-0.1762426693,0.1436379365,-0.3194751187,-1.0737422554,-0.3234235743,-0.4729790376,-0.1358797691,-0.0757724953,-0.2672770227,-0.5148151982,-0.3914891286,-0.6775422677,0.3728380268,-0.4106950877,-0.7570067467,0.3523535068,0.2022939877,-0.1728510158,0.2316191087,0.0282201996,-0.3953672189,-0.0200066015,0.1766031302,-0.0541877922,0.1457235976,0.1564401698,-0.176370082,-0.3315700498,-0.4814367264,-0.298941055,0.0636592629,-0.2399999097,-0.5777094937,-0.8014348118,-0.0336865258,-0.330380546,-0.4468140548,0.2450224479,-0.1709994075,-0.2598280699,-0.3411789842,-0.681242548,-0.118163339,-0.7522249489,0.1530801879,-0.8707435536,-0.5505777631,0.197788266,-0.4371943131,0.3007870513,-0.6194641206,-0.7443744795,-0.0501422388,-0.7822809406,-0.5428695414,-0.7989313668,0.2049731559,-0.205446401,0.3076857867,-0.8912014602,0.3221847161,-0.3076883616,-0.1112510104,-0.2521861537,-0.9371771673,-0.1493595724,-0.4585203369,0.241818847,-0.7910346062,0.3244948621,-0.2340530403,0.1010768791,-0.7907781886,-0.6524034971,-0.6635101164,-0.650354761,0.0579725729,-0.722205028,-0.8624360364,-0.0815715903,0.0383330254,0.3506300171,-0.8045131892,-0.0879875911,0.18081906,-0.2672590185,-0.9761294756,-0.5903898589,-0.7251062324,-0.9462123246,-0.0072037815,-0.3889729164,-0.8167109258,-0.6875758734,-0.8195509527,0.1651684203,-0.2026492004,-0.5914078979,-0.6811927897,0.0761026188,-0.512644047,0.0846571601,-0.4157136993,-0.3964113355,0.0162113837,-0.1591001615,-0.384881946,-0.1614991926,-0.5215149582,-0.3335537642,-0.7776093334,0.3908689415,0.240102662,-0.5239460161,0.3245003474,-0.6736897811,-0.1204698368,-0.1645050992,0.1979158917,-0.1887220369,-0.242052812,0.08344136,-0.854180002,-0.79809509,-0.7597336535,0.2527578335,0.1721518614,-0.2856921791,0.1228931966,-0.4043842266,-0.3290888824,-1.4529862469,-0.1520024173,0.2482849019,0.168878852,-0.1912806577,-0.902867016,-0.5009659717,-0.9079606314,-0.4908726203,-0.7558482305,0.1670700182,0.1974933772,0.4015141377,-0.4258975098,-0.7870659101,-0.9745879373,0.174359338,-0.7857451252,-0.4921070017,-0.8405507595,-0.3269323619,-0.6667500789,-0.2782379584,-0.2391024061,-0.2642687501,-0.3092361986,-0.7019696543,0.3637590622,0.357177816,-0.0105327774,-0.4374023764,-0.844622998,-0.0916047859,0.2824580718,-0.4003478451,0.1401083091,0.2813049435,-0.7124489687,0.0696889381,-0.5681697244,-0.9751402454,0.1061657978,0.0460788595,-0.0639495398,-0.1045869335,0.1008703108,0.2194807683,0.1496397831,0.266184055,-0.3769911067,-0.4338099634,-0.3765382672,-0.5341382597,0.3216095221,-0.8199590568,-0.3802718134,-0.6627069611,0.0838545462,0.3309095625,0.3565049232,-0.1975880781,-0.1447113604,0.1912848027,-0.7749931215,-0.3116842227,-0.6427535177,0.0358404427,0.0919702748,-0.3854303714,-0.6051242865,-0.5270184507,-0.1743652372,0.413793685,-0.3333856667,0.1231421787,0.2934233485,-0.1553197165,0.3825173966,-0.2858589234,-0.5037034568,-0.6643771814,-0.7839152117,0.0111236118,-1.1382420933,0.3285656831,0.1792822469,-0.9197894699,-0.8705773679,-0.7204884511,-0.6687703584,-0.0682733325,-0.6344983126,-0.1647534772,-0.6524585829,-0.0282416559,-0.5676923772,-0.5521063623,-0.598639055,-0.7042305675,-0.775035296,-0.3767238951,0.2796481451,-0.9669720406,0.0291011827,0.3680623102,-0.561767162,0.1412149927,-0.020786431,-0.262807415,-0.7091925265,-0.8766123889,0.3166166858,-0.8592781345,-0.2032750729,0.2231109522,-0.4895565057,0.151828677,-0.0052212345,-0.1788525921,0.1475914446,-0.0529290432,-0.7047634909,0.0872003771,-0.4660878018,-0.4913631039,0.0870606949,-0.5726616669,0.0273462056,0.3446213097,-0.5437095402,-0.467843225,0.124214358,0.0311183052,-0.2260238247,-0.4586973529,-0.4723972859,0.1379001831,-0.7570454266,0.0570114882,-0.9525319656,-0.6067001143,0.1673008356,-0.5927707112,-0.8112804165,-0.3085873655,0.1512560712,-0.7393207731,-0.3103860405,-0.0436159453,-0.2525672762,-0.0271796372,-0.230074853,-0.0313668235,-0.2182437204,0.1273215772,-0.6668951546,-0.5451424978,0.166687191,-0.0696882975,-0.7253713169,0.033739807,0.3364653447,-0.6635813266,0.2993456265,-0.8567792128,-0.7818823974,0.1603827242,-0.1299559748,-0.6290507527,-0.4084144617,-0.6406759091,-0.4858318381,-0.2736593034,-0.1553003195,-0.4466920711,-0.0880188301,-0.4436282964,-0.4508886318,-0.6725184908,-0.5310013485,-0.8914603393,-0.3641928423,-0.6679837143,-0.6109659682,-0.0741016256,-0.5611811829,0.2803853232,-0.0107835505,-0.5715034212,0.2477691193,-0.4444589615,-0.4283937189,-0.71816355,-0.4724508238,0.1982389649,-0.3479697392,-0.9045157857,-0.9169540447,-0.0013859065,0.3134309062,0.2461842232,-0.889296338,-0.3593401965,-0.7145176796,-0.3695580449,-0.8558362585,-0.352159019,-0.2422727398,-0.4920704972,0.1866571132,-0.2664446422,-0.1868590979,-0.6627046029,0.1010740101,-0.7352214578,-0.4009088148,-0.6265709568,-0.5151230167,-0.0529531315,-0.6613944408,0.0873705296,0.1509069985,-0.856039803,-0.1633566831,-0.9253150448,-0.8942242975,-0.7653998131,-0.4028022658,0.1899130066,-0.8301375598,0.0368426549,-0.5474533347,-0.9632722437,0.0246893444,0.2308079971,-0.8875733859,0.2616853316,-0.6067443256,0.0738484155,-0.4112407142,-0.9459157546,0.1252623161,-0.3417914026,-0.3608449736,-0.7542962549,-1.1117262629,-1.0727028307,-0.8943480216,-0.1564193924,-0.0726572811,-0.8570366315,0.2027054972,0.0802204196,0.0235445015,0.0197415107,-0.4848674955,-0.5145885984,0.1809426854,-0.8299966585,-0.2802078062,-0.1932105701,-0.838727145,-0.2258308566,0.0182141365,-0.8513641369,-0.5057147429,-0.4333173291,0.03976818,-0.1864836344,-0.6193171251,-0.595647932,0.3437993304,-0.9489201671,-0.7442237714,-0.6409541751,-0.6373830312,-0.967882548,-0.1048138251,0.3731582421,-0.1359510456,-0.2460651128,-0.7220908481,0.2935005916,-0.108400975,-0.5522842048,-0.9568963141,-0.6722613014,0.1211553768,0.302985276,-0.1644991327,0.3613687573,-0.9916243585,-0.1303575353,-0.4748704486,-0.1411893978,-0.0549806017,-0.8369376456,-0.6342264135,-0.1845179362,-0.2012665583,-0.0896983443,0.1967075422,-0.2263262966,-0.5496580006,0.0196097079,-0.0179701417,-0.9139973904,-0.3452206192,-0.0695388997,-0.5825572468,-0.9859047794,-0.2685915943,-0.4753788547,-0.4935163629,-0.8855778441,-0.881098604,-0.6851572191,0.105226694,0.2978995102,0.0899051959,-0.8037448703,-0.222751313,-0.0325285703,0.2573166643,-1.2415141346,-0.0464820534,-0.5620146606,-0.7180357545,-0.4621272572,-0.6269056374,-0.3321284774,-0.5903964501,-0.3213925233,-0.0886023118,-0.9895042801,-0.9748824897,-0.4257114864,-0.1931598489,-0.6679530249,-0.771676604,-0.4710453699,-0.6507240889,-0.8749095824,-0.6107647746,0.0064005699,-0.3318294438,-0.2149305407,-0.9133335464,0.2836278909,-0.6267812234,-0.3268235293,-0.160001754,0.0878716543,-0.5704301245,0.0047352985,-0.6698194688,-0.2722505993,-0.4378315703,-0.5070954575,0.4138822824,-0.1964991485,-0.8584090979,-0.4988272585,0.2785528618,0.0283665066,0.3633272367,-0.6342904491,-0.1536478219,-0.434652598,-0.2390565907,0.1231429889,-0.2323549301,0.1999767912,-0.7264983728,-0.787885046,0.2525412424,-0.3962767497,-0.7575225263,-0.508120644,-0.992910627,-0.902823566,0.1199822414,-0.0777702504,0.146547741,-1.1495536402,-0.5989781358,-0.6517304601,0.1238707261,0.2888310535,0.2584538577,-0.5154728219,0.1853577481,0.3356514429,-0.8644401052,0.3456179304,0.2382918092,-0.1634527993,0.0536373413,0.185506229,-0.3459565748,-0.5102089265,-0.8986098729,0.23662131,-0.0548758625,0.0669102436,-0.5768458261,0.3488309898,-0.7418831882,0.2841442812,-0.9072022509,0.0809132568,-0.639515899,-0.1661631453,0.1650690133,-0.6432390048,-0.5419570594,-0.9022941976,-0.8237161772,-0.4888280898,0.3113681104,-0.5684031221,-0.804630295,-0.0155787231,-0.9729982258,0.2552871365,-0.8586538984,-0.9373807872,-0.2014024158,-0.4758099365,-0.0975944289,-0.5291743442,0.3365931625,0.1124420041,0.2198273484,-0.2424011915,-0.3527197089,-0.8424859666,0.0245995189,-0.8743369287,-0.011967724,0.3495023173,-0.9545222423,0.3468067107,-0.1277156361,-0.3189141635,-0.6205571246,-0.748795293,0.0148553395,-0.2611542192,-0.6160489052,0.0021155653,-0.0312991878,-0.7740216541,-0.1150365994,0.0246491633,-0.7475575538,-0.09453878,-0.0809773769,-0.8828648231,0.0505155557,-0.6475323034,-0.008441295,-0.2351800024,-1.4349806056,0.3977483986,-0.4285892636,-0.3267214136,0.3282136021,-0.6396393812,0.0767546332,-0.7416805773,0.2895100672,-0.4228949549,-1.1083347002,-0.0601334203,-0.749630078,-0.8286324863,-0.9072549283,0.0484016086,0.2372062746,-0.1204674655,0.1916133555,-0.2472260603,-0.7121035272,-0.3450361067,-0.2765967176,-0.9755015271,-0.0250998545,-0.5445655024,-0.4269050342,-0.8300629501,-0.4009027008,-0.5209298215,0.2282305041,0.3097787501,0.2327207647,-0.9815620047,0.1644185327,0.4110546418,0.0820685096,-0.8149718821,-0.6163756609,-0.3920479858,-0.2863248797,-0.4277606604,0.4029871092,-0.5995475389,-0.5007606118,-0.6508411139,-0.9638959609,-0.6744021443,0.1395429942,-0.5734707194,0.0529979663,0.0567390209,-0.5414798729,0.3432936342,0.4002778363,-0.9307214224,0.1689885029,-0.7348821108,0.1330925475,0.3293241045,-0.6181935912,0.3666555552,-0.9640353955,-0.5860587387,0.109440174,-0.9672422235,-0.4544546187,-0.6795785738,0.3336456332,-0.1083914495,-0.7181892836,-0.5474937478,0.2650682992,0.3326970716,-0.9951214749,-0.8628371848,-0.6798350974,-0.6251683343,0.2700516295,-0.0296687379,0.0556779298,0.2138515744,-0.9680404003,-0.5890573096,-0.3235036699,-0.1783016887,0.3525757402,-1.4060442383,-0.2396391484,-0.8066806014,0.4036219972,-0.3276989089,0.141286155,-0.6814154834,-0.4759838478,-0.0131048798,-0.198320034,-0.2582283279,0.013025438,-0.2269688573,0.2067358936,-0.7020621174,-0.5046933068,-0.1146455664,-0.9463370472,-0.2669450533,-0.2415068851,0.1653463606,-1.3681690555,-1.0511703622,0.0149425671,0.1521665196,-0.2840068569,-0.0579782558,-0.3379859422,-0.0247740057,0.1380375013,-0.6320156303,0.2450739502,-0.7373398477,-0.2561068136,-0.3336833776,-0.9756922322,-0.3913156819,-0.6657668254,0.0410629892,0.2690225737,-0.0638242358,0.1287377424,0.3342693145,-0.0415232582,-1.0067530285,-0.3059187756,0.0214948578,-0.4328642389,-0.0670469387,-0.393668772,0.4023207798,-0.950887684,-0.4353624603,-1.1099435049,-0.8920193522,-0.4922182614,-1.0267411953,-0.91502996,-0.8562681882,-0.291624758,0.3013698315,-0.2474036819,0.1588824432,0.3532289391,0.1022560697,-0.4114208087,0.2819737872,-0.7099417524,-0.710111632,-0.256849527,0.0251845425,-0.8769175476,-0.1849447322,0.1456124865,-0.7646993838,-0.2718542864,0.3506505714,0.3628802307,-0.2340199765,-0.7652037315,0.065866889,-0.4100507366,0.054521044,-0.7184707169,0.371160058,-0.7193938988,0.13369507,-0.463226104,0.2314944559,-0.4492155498,0.0520090801,-0.6353393853,-0.5685583017,-0.1590758208,-0.6342994344,-0.2936067561,-0.8752629044,-0.7807281898,0.1741841181,0.2407935617,-0.9558789326,-0.1160510214,-0.8438889909,0.1904205841,-0.4436864477,-0.4113081248,-0.4647254897,-1.1110091099,0.2322701766,-0.628943117,-0.6612876031,-0.8422290045,-0.9794435391,0.0104729121,-0.9295225051,-0.9342505144,-0.7103696381,-0.2716647469,-0.7594405428,-0.8555412798,-0.5275277961,-0.1660747907,-0.0614264169,0.3520995401,0.0246787081,-0.2643670541,-0.7236144267,-0.1921217357,-0.8971913074,-0.05777075,0.1376375789,-0.6306788015,-0.4693978298,0.25647827,0.3094876605,-0.2166196283,-0.2171442592,-0.6507153101,0.2648609143,-0.4353955328,-0.6972427098,-0.6735417844,-0.3072384008,-0.8194189745,-0.5772074005,-0.7267853155,-0.0179132834,-0.5849164849,0.1062121742,-0.2098493384,0.1265470472,0.3159526245,-0.6053436936,-0.7108205497,0.379856279,-0.2622343673,-0.3456062779,-0.2248764625,-0.1294746173,0.2575199598,-0.2156040689,0.0896847819,-0.5283875463,-0.0939424078,-0.1624133794,0.0892996698,-0.4738581641,-0.4278400299,-0.7543866598,-0.6814024616,-0.5424961286,-0.6505825561,-0.3896333782,0.1907325763,-0.5257389662,-0.2355746026,-0.3194673119,0.2695287759,0.2673633091,-0.0591814246,-0.7117705752,-0.7024298591,-0.9804007937,0.3449123846,-0.573319476,0.1514230189,-0.9400015274,-0.4042623095,0.1079295646,-0.9834620318,0.195978551,0.3593510582,-0.1806253043,-0.5339562163,0.2171336349,0.148430678,0.1572341496,0.0695658273,-0.177128903,-0.5449908193,-0.3451874063,-0.7628032186,-0.1171435486,-0.5905678158,-0.602056198,-0.0151648811,0.2283538715,-0.4538951422,0.0626334667,-0.4918231431,-0.4198486826,-0.3762638413,0.1011509896,-0.1402626917,0.4009071515,0.0424277716,-0.4247795472,0.2756531507,-0.4231002158,0.1212018402,-0.7764051347,0.3420784281,0.0975688442,-0.3269219898,-0.9616319951,-0.0786352856,-0.9281470948,0.0414712495,-0.8204974977,-0.2080756692,-0.9093488671,-0.0180874868,-0.6516071665,0.388836709,-0.3585828768,-0.6552822776,-0.9656030567,0.0713792084,-0.5640235854,0.2903124051,-0.643461898,-0.8690756415,0.2905992185,-0.6540448631,0.3206940219,-0.0846939458,-0.7179893518,-0.3763638427,0.1513181885,0.3116898928,-0.4395334968,0.13792018,0.0635209905,-0.98173274,-0.7675077705,0.3258834436,-0.3246530486,-1.0132285618,-0.6273608284,-0.3390923633,0.2876676962,-0.2157330183,-0.4464548224,-0.0104030492,0.0715648689,-0.3001822273,0.010355056,-0.4699967351,0.2569315277,-0.4770295419,-0.6676757315,-0.4803543416,-0.5883688757,-0.4354428872,-0.0718621498,-0.8582015383,0.0126372369,-0.4927259713,-0.9595298033,-0.8288169446,-0.9677491728,-0.0351400754,0.3515619788,-0.6339748692,-0.9341533301,-0.2275212321,-0.6609587609,-0.1815289538,-0.5072652064,-0.8113057292,-0.5101919765,-0.792246349,-0.2014749168,-0.3392365363,-0.9765374529,0.3063778623,-0.8901284362,0.0094741542,-0.4412026991,-0.6662758305,0.1323090722,-0.2995720683,-0.3421128036,0.3958088065,-0.4795653112,-0.4337353621,-0.5326128445,0.0255060735,-0.1931232066,-0.8956500168,0.034137101,-0.5492519745,-0.8667130927,0.2417865328,-0.1149341339,-0.3663816121,-0.1023460452,-0.9849721772,0.3083938217,-0.3259602951,-0.6588204809,-0.0151759212,-0.1191995219,-0.5603066809,-0.5049187691,-0.556519335,-0.8427261256,-0.8893240409,-0.5747032068,0.2305858146,-0.1187363092,-0.3349183076,-0.5472257553,-0.6747515531,-0.7888887633,-0.5792862187,0.0937329855,-0.5623906075,-0.7082149331,-0.8702887995,-0.4764526277,-0.3890236356,-0.1664283864,0.2621147504,-0.6676162716,0.4152036576,0.0076020319,-0.6008666737,-0.5052375984,-0.1966888978,0.1768468991,0.3567189374,-0.1946912554,-0.2541463383,-0.7701553269,0.1303111997,-0.2043339039,-0.1721932726,0.0681200469,0.3159424439,-0.4871648497,-0.4684734125,-0.9911761402,0.324858252,-0.0308675994,-0.2380421661,-0.8386139545,-0.161667131,-0.2688083046,0.3657799834,-0.2659376117,-0.7214149335,-0.0322711127,0.156365806,-0.5604328703,-0.8576936916,-0.1704470277,-0.4343841265,0.064727878,-0.1081548745,-0.1977253922,0.40106713,0.1871970367,-0.6414097087,-0.3901899487,-0.666555733,-0.610755977,-0.3677536402,0.0675800728,-0.0165805234,0.0058682179,-0.2245164487,-0.8152776873,0.2981168416,-0.745077497,-0.3911408595,-0.7558969906,-0.6135550485,-0.3272041604,0.0399301917,-0.5634876983,-0.1078716317,-0.8477378984,-0.8025980252,-0.5568229848,-0.8631452803,-0.0050825181,0.2786079271,-0.5912703764,-0.116716152,-0.7102488839,0.3383633577,0.1515418719,0.088825435,-0.9791648914,-0.5034038171,0.0106177688,-0.4340119825,-0.5933517627,-0.4905060509,-0.6224624208,-0.0678989183,0.3662726151,0.0045574241,-0.1751429187,-0.6497694891,-0.0775937032,-0.7599406322,-0.975617527,-0.4275565355,-0.3035440685,-0.7795175226,0.1433495393,0.4071153751,-0.6008744942,-0.4349667717,-0.9323190748,-0.413728905,-0.1517509463,-0.1667710463,0.0930075345,-0.9438080301,-0.455388556,-0.8257691029,-0.1529825613,-0.3066206185,-0.1925826816,-0.7458706284,-0.3196575191,0.2805955757,-0.2377883489,-0.2513191202,-0.5052626157,-0.9471633733,0.2784190752,-0.0941504537,-0.6377529082,-0.9379878891,0.2204381526,0.28729399,-0.7742328062,-0.2360042099,-0.0685648099,-0.8376163657,-0.8149660719,-0.3100632475,0.1286286524,-0.6881482896,-0.009076218,-0.5924963558,-0.9887801683,-0.214763176,-0.5224029127,-0.090794528,-0.0367348563,-0.1676308992,-0.3030854666,-0.3471964297,-0.8207836032,0.3738115736,-0.1964120502,-0.5016833299,-0.083485221,-0.2933840662,-0.8599656466,-0.8362410894,0.0785283083,0.33787714,0.2708627993,0.2779419514,-0.2830443358,-0.4792543754,-0.1960556379,-0.0587160588,-0.9035582749,-0.6700868625,-0.2092977562,0.1075988292,-0.8276430539,-0.6042649185,-0.4438517526,0.2635205152,-0.2569976311,-0.4076094282,0.3139718911,-0.7286126855,0.3966971079,-0.015536198,-0.3288516713,-0.1582035554,-0.7902959519,0.3114735053,-0.3334892158,-0.0172722312,-0.972928079,-0.5900949558,0.0967282389,-0.493403748,-0.7460494387,0.1776363475,-0.3858280891,-0.1942522756,-0.8568048507,-0.0467320871,0.2455588868,-0.7862554042,0.4113961144,-0.6429292974,-0.1904120004,-0.1413252942,-0.606712816,0.3811329361,-0.9200302563,-0.0786711616,-0.9627301208,-0.5288777953,-0.926656406,-0.2724543331,-0.4230436692,-0.5581989824,-0.2721362669,-0.2509118868,-0.0114470232,-0.8751966432,-0.360253101,-0.7485395801,-0.1665757235,-0.2016286539,-0.2397227358,-0.8755130608,0.3722672949,-0.2233838155,-0.8426160392,-0.4725361036,0.1420198299,-0.7983909317,-0.8374866044,0.3982902369,0.1236853944,-0.9290442806,-0.9052385888,0.059989303,-0.2556304565,-0.2862017153,-0.6900883104,-0.9693969832,-0.2313679757,-0.1961979026,0.2956195769,-0.8103190056,-0.733701946,-0.0413944864,-0.4162320519,0.4151735881,-0.4099937916,-0.3272413868,0.2886219918,-0.3445604341,0.2199552386,-0.9042408416,-0.2255902565,-0.408140914,-0.7201460779,-0.8641640652,0.3408960003,0.3716922997,-0.2647278331,-0.6763945499,-0.1286253168,-0.541268006,0.3269076786,0.2754720163,0.1976328996,-0.488973303,-0.1541811663,-0.3022929353,-0.9494735693,-0.1951842517,-0.3410300942,-0.5101907857,-0.6072611685,-0.8721173308,0.3088287509,-0.2455968107,0.2447884808,-0.3191905867,0.0263526491,-0.5313509721,-0.981093515,-0.9054577868,-0.7866258389,-0.6096743639,0.2802958274,-0.3531868018,-0.4070660055,-0.9993631506,-0.3941966211,-0.5455514338,-0.7742054375,0.1083159915,-0.574278797,-0.762306738,-0.4004833666,-0.9707247367,-0.443300893,-0.3317756311,-0.6338389871,-0.9903495018,-0.2253771715,-0.5786069642,0.3114812839,0.2817076766,0.1053480552,-0.9293126861,-0.9657837772,-0.3454686927,0.2557547253,-0.9463420081,-0.5291356237,-0.1308597349,-0.2510214262,0.3927055854,-0.8925159222,-0.5151062025,-0.7651333645,0.0333923675,-0.624508847,-0.4242506416,-0.4376604903,0.2464168147,-0.6310883119,-0.2404762445,-0.875539416,-0.3998375889,-0.513605295,-0.6003093471,0.1622591483,0.1135108479,0.3230336322,-0.1920757345,-0.6795240453,-0.7352020727,-0.3023332665,0.2074057486,-0.9096724856,-0.0929357812,-0.4956711333,-0.2751087422,-0.9053853719,-0.3390855395,0.3236627464,-0.7915001724,0.4018869198,-0.0988048184,-0.5095473839,-0.883778288,-0.7927684573,0.2463555543,-0.7068483087,0.0847267851,-0.6135245233,-0.8481565705,0.1207589591,0.1560832161,-0.1186512549,-0.8048064473,0.0664086629,-0.5965112147,-1.0243220143,0.0079491106,-0.370603333,-0.2977810173,0.0237056145,-0.9691844806,-0.921015978,0.0187229729,-0.3973787831,-0.9090963003,-0.6450069888,-0.9247126873,-0.4048126625,-0.037741148,-0.67773482,-0.2888903189,-0.943137109,0.3943638637,0.0737099408,-0.6136127444,0.1957254292,-0.1472031741,-0.1469508374,-0.5666971549,-0.3488118015,-0.8035574449,-0.6695842024,-0.2100101736,-0.6451657647,0.3861930423,0.0968113521,-0.1681079295,0.1341323512,-0.1025543836,0.3839250327,-0.4335603587,0.3020953251,-0.3675347775,-0.9855146536,0.134200029,-0.724787,0.2801742847,-0.0697585099,0.2396113568,-0.0518003364,-0.552085273,-0.8718979654,-0.2425181977,-0.9553625985,0.3770500556,-0.351869284,-0.186242253,-0.1616775298,0.1658298758,0.4040146524,-0.8746241336,-0.9397684885,0.1269407464,0.2336658845,-0.2691423079,-0.7122099033,-0.9575928174,0.3262291609,-0.6549569702,-0.5737439773,-0.3542568709,-0.1834911739,-0.9707532525,-0.9820118649,-0.5833235834,-0.0546998704,-0.657766078,-0.1326265129,-0.61228126,-0.1304967828,-0.1745107529,-0.7682426413,-0.127747771,-0.8588063214,-0.7385869932,0.3122197778,-0.7650950314,-0.3829376011,-0.6955952911,-0.3918435223,-0.7709642973,-0.1029076805,-0.4255122798,-0.0164652534,0.1287696947,-0.4168220857,0.0846398217,-0.8832925613,0.0311612564,0.1184127341,-0.2236403201,-0.5548240715,-0.46400064,-0.453685114,-0.6420353278,0.2774786038,-0.8174090505,0.3146625336,-0.5106802972,-0.8576802639,-0.8506776536,0.3129403352,-0.7683628756,-0.353866686,-0.2018454699,-0.6587645196,-0.482668174,-0.4106967221,-0.0797359604,-0.5681437117,-0.6238551536,0.095023706,-0.1726814162,-0.5936195855,-0.6649431125,0.2620623041,-0.6959160512,0.0711771044,-0.3790656962,-0.2092235714,-0.7360846326,0.0610944263,-0.8853866501,0.2372285137,0.3161702533,0.2773910649,-0.3467470274,-0.6416736228,-0.8976308355,-0.7352148612,-0.7457254741,-0.2527683312,0.1034203712,-0.8072320478,0.2264191561,-0.4290009803,-0.6487282634,0.2559670256,-0.8250707036,-0.6437018958,-0.6842594484,-0.5792344474,-0.6301842519,-0.5445287529,-0.457557314,-0.6311039673,0.3187176809,-0.5526574202,-0.7229367809,-0.8362439727
   -0.0228636021,-0.5065295856,-0.1073661974,-0.7061307396,0.3289349356,0.245295138,-0.6283223764,-0.9088131895,-1.219947356,-0.684738946,0.2188415899,-0.3142024739,-0.4593904059,0.1379493685,0.372432509,-0.0407576709,-0.5297903319,0.2368229651,-0.3067014496,-0.9431747341,-0.9845829895,0.2653052912,0.0737893212,-0.2548727672,0.2133466812,-0.7437476549,-0.5319817786,-0.0069743097,-0.7198787608,-0.2399802111,0.33475856,-0.5888443227,0.356833601,-0.4259825781,-0.7152481211,0.2294426983,-0.5780184773,0.1718911905,-0.0755153102,-0.2398812397,-0.8564111881,0.2644461629,-0.9949077696,0.3506671746,-0.6368553619,-0.0616609417,0.0209436773,-0.4651911322,0.288944962,-0.3496674157,0.0307961862,-0.1595657353,0.0385484323,-0.4538030007,0.2761700937,-0.2923906007,0.0883326223,-0.5962361424,-0.8060508519,-0.7974799713,-0.6295535444,0.3591698713,0.3282644285,-0.6055333174,-0.3784327459,-0.4351459692,0.2906341528,-0.4556598558,-0.8161461644,0.1530185533,-0.5396684433,-0.3577610508,0.0436574873,0.3708226211,-0.7400373275,-0.3317315221,-0.8720107497,0.0186823322,0.1329084428,-0.8475190693,-0.5489464772,0.3829750774,-0.7991393348,0.4064659012,-0.9148154045,-0.3774155847,0.3446000782,0.2290439844,0.3064955592,-0.9414093521,-0.8157521919,-0.6178838393,-0.4891895544,0.413242947,-0.4410031456,-0.8930006126,0.1429196468,-0.4075539567,0.330931857,-0.7626737036,-0.8911786337,0.1006041599,-0.3680588801,-0.2963973084,-0.8258624027,-0.244793797,-0.5007639024,-0.2114835468,-0.1294104761,0.1096101454,-0.5756002767,0.0554196906,-0.3548620239,-0.3524720141,-1.2317157505,-0.6533207136,0.3027888471,-0.0681056193,-0.9626110553,-0.3639768689,0.0232960866,-0.6896253216,-0.7178664172,0.3926211171,-0.3913921897,-0.2934493864,0.3839956186,0.0546771233,-0.66767678,0.3236536385,-0.8566098242,-0.5163269279,-0.1685526433,0.1481710781,-0.3848342363,0.153696693,-0.8083497007,-1.1284235708,-0.2418700886,-0.2065168348,-0.3636279294,-0.4153774154,-0.3420152048,-0.451420738,-0.2224437281,-0.4728488334,-0.4817879076,0.097835176,0.2060398056,-0.9599344652,-0.3440389495,-0.3416172297,-0.1620958698,-0.8365517505,0.3837172231,-0.020637472,-0.9153865212,-0.4021819789,0.1319895073,0.0754536988,-0.1696808323,-0.96061954,-0.1595814024,0.3757864932,-0.0424821393,0.1250464783,-0.3249783573,-0.5070780469,-0.7698485142,0.1376829968,-0.6196681414,-1.1504306223,0.3495123808,-0.245898262,0.1430836153,0.0767599789,-0.2953284298,0.1597157463,0.2014252724,-0.816678948,-0.1535436074,-0.9911294934,-0.2956809964,-0.8955913683,-0.8037662413,0.324093767,-0.5775512622,0.1657454772,-0.0230685766,0.1060202991,-0.1376093448,-0.2231215803,0.3322364775,-0.1059407207,-0.9473560185,0.2834184725,-0.3680634015,-0.1250644625,-0.5492533838,-0.2853536135,-0.8068999826,-0.8560642954,-0.5313857485,-0.2035269837,0.110762382,-0.6940118841,-0.6191381898,0.3473422896,-0.3158741593,0.4002316295,0.2000687208,-0.3314102581,-0.9732969189,-0.3989201913,-0.7920436265,-0.8458104664,-0.8773168924,-0.3344741624,0.1964939516,-0.0837288055,-0.8690741416,0.1648043645,-0.855081485,-0.5320960837,-0.5597210476,-0.7367517698,-0.0433062584,-0.4574162224,-0.6820560501,-0.7298409848,-0.8393879966,-0.5715513432,0.1729104754,-0.501616306,-0.1943603799,-0.5020796254,0.208183351,-1.1237157758,-0.0375586276,-0.5205713694,0.1781784493,-0.6723588912,0.221224187,0.1069147454,-0.683477552,0.3712932422,-0.4729866223,-0.852786163,0.1631993025,0.3523228262,-0.8005098548,-0.582296511,-1.2002300358,-0.3627633523,-0.2744175693,-0.989552396,-0.1323224892,0.1008000113,0.3063584076,-0.6441982397,-0.9868667189,-0.9297430259,-0.1647293213,-0.8954633016,-0.4105706638,0.3508540751,0.3516125489,-0.2368658425,-0.5873460785,0.2592138979,0.2288735778,0.0967904885,-0.8074107694,0.2637966892,-0.7975005786,0.2493968871,0.3794312013,0.3770474847,-0.2950231137,-0.4854996032,-0.6431205723,-0.6235022221,-0.0314266211,-0.920741041,-0.6255931803,0.274355063,0.1792081979,-0.7328215762,0.3205644184,-1.0140837183,-0.8767966671,-0.2791255718,0.3852206329,-0.5991313976,0.1706903634,-0.0428698923,-0.6451806454,-0.1552488291,0.2774759793,-0.5182455583,-0.2776929634,-0.7436549159,-0.2906203541,-0.9014631326,-0.1746110212,-0.1028903726,-0.2295878629,-0.6067560246,-0.531998223,-0.5985828219,-0.0380848442,-0.485514948,-0.0148520416,-0.6139401561,-0.3807355368,0.2931224488,-0.000821694,-0.0155152541,0.1154506006,0.2536202464,0.4062555616,-0.5520140287,-0.4855352234,0.279418294,-0.8467747637,-0.50472653,0.118052143,-0.3831086853,0.3079057443,-0.1684830753,0.1666933763,0.1133684941,-0.2153109804,-0.3265173869,-0.4779163547,-0.0942463804,-0.1396693423,-0.9483684656,-0.0317642117,0.1434871675,-0.5280608434,-0.4723189349,-0.0085319206,0.0380542296,-0.8591663723,-0.2582636954,-0.3271546105,-0.494273852,0.2913779639,0.1289616886,-0.652701451,-0.7706120616,0.2605566456,-0.5364250448,-0.8313322956,0.1092009947,-0.9706479131,-0.7190102692,-0.3150259328,-0.991427996,-0.1828920309,-0.2441944488,0.0954825756,-0.5574786471,-0.062933866,-0.0826488601,-0.9285070016,-0.288478874,0.0197901161,-0.0309328789,-0.5814862008,0.0958884849,-0.9044298974,0.0247513063,-0.4895363458,-0.9320596043,-0.4102627614,-0.8081581684,0.3366770788,-0.4597821906,0.0886492032,-0.9126817472,0.3976297278,0.3282026285,-1.1299580077,-0.4758475609,-0.7381385909,-0.7231966132,-0.2517062347,0.4024783135,-0.418208641,-0.4411981901,-0.4067409007,-0.1654137686,-0.6907248587,-0.904095546,-0.8507652856,-0.0118109356,0.3828147695,-0.3848369839,-0.1046113095,-0.93833069,0.2045975486,-0.552491346,-0.629437947,-0.374030074,-0.0875411782,-0.7514333852,-0.5479008367,0.3074735194,-0.8874690187,0.1470886623,-0.3668194268,0.2571370291,0.3352160692,0.2606196941,-0.1275680878,0.2821007976,-0.2819517961,-0.665913778,0.2830599491,-0.1017910618,-0.8454504705,-0.0752853428,-0.2281131004,-0.2928715533,-0.3552059959,-0.7496717313,-0.6403024768,-0.5303882146,-0.5424074525,-0.3823042269,-0.136277535,0.2251454181,-0.3453126407,0.2609462242,0.0064835726,-0.8400298616,-0.5244875409,0.4018239021,-0.8647441445,0.1871674196,-0.5492918527,0.172949486,-0.1408663575,-0.9667673347,-0.7944824677,0.3052664486,-0.1060484441,-0.7747381208,-0.4612405797,-0.30689091,0.0886525273,0.2129560855,0.3031035628,-0.0481585766,0.388861395,-0.6623859251,-0.7177266268,0.0615716012,0.3060832074,-0.8206381076,-0.402385236,-0.3976148784,-1.1194565781,-1.2339391656,0.3770627522,-0.96066026,-0.8465806985,0.0599896489,0.3575695899,-0.8126166129,0.168799661,-0.1789952741,-1.0394815684,0.0813716288,0.215615659,-0.2029022243,-0.5519807588,-0.8200306987,-0.8854808638,0.129059249,-0.355184297,0.0708872976,-0.625723365,-0.068753128,-0.9230606541,-0.897805685,0.391587384,0.3545457087,-0.640013402,0.0571052529,0.3406720146,-0.9679248858,-0.1830667751,-0.7408928785,-0.2469608554,-0.6845443124,-0.4765275614,-0.6309197753,-0.6808450219,-0.9148000371,-0.7117443692,0.3811564085,-0.0818096488,-0.2758205185,-0.9826382101,-0.8072483226,-0.5905940104,-0.0475334548,0.1173242649,-0.9759793204,0.0029571331,0.3285203075,-0.7276802075,-0.4462660565,-0.5212147165,0.1049058884,0.155225425,-0.5408025691,-0.1812178549,-0.956173433,0.251788952,-0.6508688626,0.414507352,0.2300602868,0.2562392222,-0.2309655977,-0.2343851629,-0.6196809281,-0.4715050961,-0.4340979256,-0.2007069834,-0.6227347081,-1.1685925475,0.0917807087,-0.5904931202,0.1474125576,-0.4407887691,0.3175430646,-0.5990004864,0.4134886927,-0.3429586764,0.2175963497,-0.5523015589,-0.5337314599,-0.0685206324,-0.4179533436,-0.6265922244,-0.3334177097,-0.9598896878,-0.7731401185,-0.4842019931,-0.5904501452,-0.5591143677,-1.189194953,-0.0359897137,-0.6434176325,-0.5002575596,-0.0404854888,-0.6912765095,-0.6523266811,-0.7635131365,0.1398522626,-0.1797175721,0.0886601343,-0.1389425564,0.3956311174,-0.6757782339,0.2311702321,-0.2111664292,-0.7493110385,0.3871944635,0.0381453024,-0.9742622041,-0.6302416495,-0.7018898332,0.143018686,0.1031416034,-0.6701014619,-0.4421551293,-0.6039280585,-0.1066752303,-0.7446427346,-0.2062507119,-0.1700931163,-0.6453448643,-0.5595760654,0.1909610252,-0.279665328,-0.7145832404,-0.0629535643,0.08597942,-0.9984106501,-0.4520678385,-0.9772869748,-0.2049738961,-0.4703037939,-0.8087036138,-0.5324901727,-0.3344115011,0.3284686323,-0.4437239073,-0.033193795,-0.2958756785,0.1074520837,-0.4580838527,0.3328662852,0.3587583873,-0.9376852635,-0.5111861263,-0.2778443527,-0.7328724282,-0.9666971658,-0.9893582433,0.0608556173,-0.5592953149,-0.2191948963,0.0606739594,-0.246541116,-0.755016807,-1.1372815455,-0.2905112817,-0.0684180009,-0.4667123791,0.1947714294,0.0523343608,0.3141337053,-0.7171954443,0.1606061261,-0.9215210231,-0.2856147847,0.1052945728,-0.9532981298,-0.4789425171,-0.8142928373,0.024218325,-0.865195471,-0.3272044965,0.2203674849,-0.4477414177,-0.3487619797,-0.1197305602,-0.8100025427,-0.5852499337,-0.4548008872,0.3819881146,-0.8025993006,-0.6902746355,-0.3785825591,-0.6438918436,-0.0884465477,-0.9758238804,-0.9659155074,-0.9922279613,0.2447513144,-0.576190509,0.2578536549,-0.4184460229,0.1912607828,0.0290728894,-0.395742935,-0.6548570958,-0.1456275519,-0.0643161957,-1.1577346641,-0.2395003598,-0.5448068029,-0.3174258403,-0.2142275897,-0.783540404,-0.2829220285,0.1085343623,-0.564337544,-0.5753515828,0.1286256188,0.3395583303,-0.0525315332,-0.2940657942,0.2469548657,-0.7823331552,-0.5917319187,0.2504716831,-0.3454136057,-0.3465309189,0.2069565499,-0.9267232758,-0.7740665364,-0.9147021222,-0.8130360195,-0.9842277984,-0.9885794181,-0.0081984406,0.3183138981,0.2908479889,0.1068539945,-0.6306286371,-0.6223675088,0.2231163671,0.0537479014,0.0056876234,0.0026938465,-0.3887109189,-0.341074807,-0.4260242635,0.3844717034,-0.3328654673,-0.4402272265,0.3970046258,-0.0526042046,-0.426123895,-0.3706664077,-0.8280052704,-0.0380554244,-0.9151950664,-0.5139483248,-0.0519180972,-0.1737797871,0.1445320451,0.1346863688,0.3203117952,-0.773908225,0.3014703584,-0.4798373469,-0.9293036287,-0.0961776639,-0.5831943797,-0.9637289188,-0.381436398,0.1723601478,-0.7901523572,-0.4886219035,0.3179047233,-0.9437609989,0.3726777496,-0.8758158464,-0.7034324257,0.3824978499,0.2713542949,0.3542222298,-0.1208928467,-0.957878633,-0.5065038073,-0.8871065139,-0.373863135,-0.5953071235,-0.6483953108,-0.8548489038,-0.6115209172,-0.9632809399,-0.8452035996,-0.2009750587,-1.1606384093,-0.7467889778,-0.3092308394,-0.3857729081,-0.6933894867,0.0732420212,0.0121250707,-0.8024575699,-0.3213055928,0.1332365194,-0.2483122815,-0.1092196519,0.3412400618,-0.1910102338,0.106594944,-0.4054482695,0.1804797777,-0.1100124647,-0.2751177033,0.35895896,0.1457345341,0.1143967715,-0.5690670064,0.3699005091,-0.2373189424,0.4002006805,-0.890127446,-0.7525273206,-0.8761395986,-0.5101746001,-0.9569863945,0.1579299159,-0.5851244972,-0.8725408929,-0.2750510206,0.0314811098,-0.2000200546,-0.9285796058,-0.8623169307,-0.94905546,0.3413280334,-0.6629442584,0.0172866932,0.1544897368,0.1307400861,-0.4326626984,-0.7165266926,0.1027644953,0.200982931,-0.4113882723,-0.7866676601,-0.0650619824,0.3761662262,-0.458728867,0.2320940813,-0.116036201,-0.3029826906,-0.4772068971,-0.1238664584,-0.9470472044,-0.4047636083,0.2532439519,-0.8065095154,-0.9679833464,-0.0181547523,0.1635994497,-0.4698291665,-0.9378237375,-0.9773740208,-0.0605046226,0.145953458,-0.6883394977,-0.1392669693,-0.1580710163,-0.1083182383,-0.2580839546,0.3619112615,-0.3224387632,-0.8606192845,-0.8828177985,-0.6872694461,-0.1274671997,-0.1947877138,-0.0109042379,-0.1919045503,-0.4693931593,-0.7447062689,-0.5484341995,-0.6994345415,-0.7379729623,0.3766561549,0.2189453275,-0.7375719638,-0.7023382838,0.3949746524,-0.4463464674,-0.5407068148,0.076675854,0.2997249633,-0.6293454007,0.298143301,-0.5847816715,-0.4521858667,-0.2064284815,-0.1696564333,-0.4394733002,0.0452900891,-0.3180754413,-0.0951397088,-1.1816814073,-0.4790031899,-0.1615740201,-0.9229346163,-0.9655560637,-0.0111566085,0.3584261959,0.4134288183,0.1780560709,-0.8849697292,0.2212654747,0.028487899,-0.7445547246,-0.8987005658,-0.3607274804,-0.1915260775,-0.4397561381,0.0451429567,0.2335004843,-1.122860659,-0.370453453,0.3545626079,-0.4858441659,-0.6730312832,-0.2824922161,0.0724064149,-0.5783657805,0.1452032117,-0.8402708467,-0.4769519077,-0.1672991617,-0.7805587855,0.1561316431,-0.100824563,-1.1304112991,-0.1751303392,0.253236089,-0.8056134303,-0.0456175145,-0.8476305556,0.410396289,-0.3701274404,0.3937880689,-0.1059343804,-0.8605214064,0.0259458893,-0.4655344876,-1.1423410148,-0.1306689341,0.3814981524,-0.5382838099,0.2080767323,0.2669617839,-0.9098133005,-0.2678074813,0.2287219987,-0.440837103,0.2233654547,-0.5871562991,-0.2993169966,-0.5454802088,0.1552479374,-0.7097990171,-1.202373972,0.121897965,-0.6736883146,-0.7416947586,-0.4202587301,-0.781914955,0.259673299,-0.1729674025,-0.6100235252,-0.9679013864,-0.0197660948,-0.3409196357,-0.8547374956,0.3441525306,0.3796150693,-0.4133146761,-0.2193677697,0.0549732397,0.165206452,0.3612302637,0.1619390402,0.037044762,-0.3814847794,-0.118102663,-0.4533762203,-0.5844833691,-0.5708527897,-0.2320400083,0.3445171993,-0.8460567319,0.2978252191,-0.0348117434,-0.9619991711,-0.5000385059,-0.6865371262,-0.1289071381,0.3745362957,0.0209785074,-0.4262416259,-0.3752902702,-0.6986034689,0.3487424713,-0.1900493557,0.2529510777,0.003912264,-0.4585347937,-0.1124527388,-0.7154686878,-0.1882750287,-0.545041718,-0.8574885878,-0.9060436062,-0.8334042157,0.2149612142,-0.9125333408,-0.0297133959,0.1774456424,-0.2320347921,-0.6793602932,0.0912485002,0.4071220838,0.0004308505,0.2755263293,-0.7537485757,-0.5230015374,-0.37814602,0.1029644369,-0.469438649,-0.8197188036,-0.9039482455,0.1047033417,-0.8771900996,-0.4864225094,-0.981409926,-0.7283343413,0.0009458191,0.2079694545,-0.5703140417,-0.8997304317,-0.7883456363,0.394098308,-0.9182721473,0.1264235649,0.2760172459,-0.3217008812,-0.3109574325,-0.9317447717,-0.7933299542,0.0560073967,-0.1648497618,-0.521034028,-0.5612428857,-0.806338483,-0.4131527323,-0.5212533363,-0.0859872704,-0.0554427559,0.4050931971,-0.8063278045,0.0170587047,0.3957866383,-0.4232428424,-0.5692611061,-0.5517465831,0.3359914664,-0.9455256023,-0.5757233322,-0.4519413334,-0.3350994266,-0.7618848942,-0.7658445348,-0.1290854535,0.0618722124,-0.7398245479,-0.7515665285,0.3550463677,-0.6194825349,-0.6920353965,-0.6043728078,-0.9397629776,-0.4161446928,0.2307833659,-0.9957070316,-0.4213522,-0.4960422282,0.0164667771,-0.5545245788,-0.7165043678,-0.9881449091,-0.0965249686,-0.8291409749,-0.1072394893,-0.3918396093,0.0000106476,-0.7526025884,-0.4847291782,-0.1642759425,-0.6204963048,-0.082902677,-0.1661455764,0.1670063782,-0.989889486,-0.3677395878,-0.5476564878,-0.974865716,-0.4819286341,-0.1536859479,-0.7440699062,-0.9390933301,-0.4613106176,-0.5985362043,-0.128124845,0.0444841185,-0.9321781698,-1.2350935253,-0.4176382444,-0.6768836777,0.0158901263,0.2540037331,-0.1775372205,-1.0041805313,-0.1575283204,-0.4339150805,-0.2201933759,-0.5610281873,-0.6544314647,-0.2641531454,-0.0607124012,-0.6093382035,-0.7983557855,-0.0726647241,0.0043875799,-0.423063913,-0.9025606755,0.2943045421,0.4027340114,-0.3665996893,0.3215443457,-0.9689177649,-0.2109967758,0.077290593,-0.11526706,-0.4995504008,-0.6889539142,0.3059625765,-0.6550949666,-0.3057987905,0.2020135582,-0.8937524061,0.0743695373,0.0842186122,0.4061742705,-0.6861498889,0.240612332,-0.7448447547,-0.7078908996,-0.770996245,-0.3043199048,-0.0836689645,0.0127399976,-0.511909346,-0.3996814736,-0.0580631891,0.3932683893,-1.1244908902,0.0914261611,-0.3712939082,-0.5518297773,0.1498383692,-0.7192447244,0.0394435737,-0.546951365,-0.3126132763,0.0647578733,0.3112847974,-0.6145436473,0.00096622,-0.3929972585,0.359676392,-0.4213810295,-0.4425685206,-0.5143630318,-0.6442572034,-0.8097061711,-0.624061394,0.01597026,-0.2040971634,-0.2965657401,-0.6728634629,-0.8598491059,-0.238064502,-0.7422629117,0.1001402078,0.3243285147,-0.9896861967,-0.4346486543,0.2808124232,0.0408136955,0.1750142301,-0.9074713055,0.1436406848,0.13314682,-0.9080483496,0.241345038,0.0667042052,0.1349711987,-0.9353896821,-0.2798101081,0.078254273,-0.9592678661,-1.2194232204,-0.8451532839,-0.2392533481,-0.6251614506,-0.414901315,-0.3476193498,-0.3999088874,-0.6470245123,0.2448148357,0.0109800304,0.3417246097,-0.8839251156,-0.1521023287,-0.6692120938,0.0030329979,-0.8980372092,-0.1172612683,-1.00274041,-0.3266106438,-0.9370097014,-0.4842559123,-0.2476008624,-0.8068411155,-0.3686756073,-0.5550890194,-0.4235638097,0.3664507688,-0.4446733999,-0.8779274025,-0.6103643236,-0.9315014973,0.1052192141,-0.7646878259,0.2514768343,-0.1118537876,-0.9637672534,-0.2215837448,0.0863222513,0.291496043,-0.3952284289,0.2036167606,-0.5236391456,-0.7288839261,-0.5747120129,-0.0552783959,-0.7617080749,-0.7350806521,0.2450324237,-0.9053274747,-0.1701247247,-0.9902308419,-0.1663305219,-0.9728406394,-0.9634596332,0.1658853722,-0.7842708333,-0.4703008582,-0.0109188194,0.2254868334,-0.5756873963,-0.7841508486,-0.8137878149,0.1370319111,0.2489425362,0.0334978458,-0.1688676466,0.0346174374,-0.3357451252,0.2175081933,0.3479565007,0.0425294955,-0.6771432697,-0.7633901058,-0.1377440893,-0.84711845,-0.7630713124,-0.6283814256,-0.8951752912,-0.7307433483,-0.2507226458,-0.313508905,0.2163646446,-0.966509155,0.0638040595,-0.1158811836,-0.0883052174,0.1761567192,-0.5161495226,-1.1536944874,-1.0640389299,-0.0134034174,-0.5672355117,-0.7170376358,-0.8995835062,0.0171778439,-0.7793263372,-0.9577888527,0.0402784151,-0.594593592,-0.0129149638,-0.4432919628,-0.9050636069,-0.7873665581,-0.9116480298,-0.4586740377,-0.1849701636,-0.5658049018,-0.1496763086,-0.889727347,-0.0953927449,0.2737332512,0.07147332,0.0860190389,-0.5928321278,-0.032748127,-0.0965300234,0.2535784094,-0.0028756339,-0.0465254844,-0.271414428,-0.8470739634,0.1780873822,-0.3075367646,-0.6054778277,0.1026572447,-0.2786817616,-0.7445508622,-0.2240872248,0.0566142103,0.2882028998,0.0800889524,-0.9552493167,-0.9357566162,-0.171778019,0.0277790706,-0.594799449,0.0240209211,-0.3732960752,-0.8802089846,-0.6396232919,0.0458906813,-0.1027078497,-0.67874295,-0.0900824521,0.326984228,-0.1371650508,-0.0159293547,-0.8164086546,0.1249293049,0.2704551044,-0.4349803896,-0.6783436967,-0.4566457246,-0.7533698251,-0.4068619963,-0.2791070674,-0.854204729,0.2566385438,-0.6967587108,-0.6301319403,-0.108271243,-0.3793837693,-0.137376222,-0.5959740727,0.2591038706,0.3865130349,0.0754253426,-0.9698357112,-0.7384725688,-0.4488400216,0.2719859113,0.3493655108,0.1520566611,-0.2987236525,-0.2309077142,-0.1721567374,-0.7459838955,-0.0541645552,-0.2517130027,-0.2731873265,-0.4641691342,-1.1218083531,-0.7926864908,-0.7997409802,-0.5792338629,-0.4138625358,-0.651518413,-0.5693414118,-0.7981757831,-0.1938535903,-0.2035093148,-0.1465168623,-0.4821305419,-1.0523478151,-0.433925736,-0.0483857826,-0.8325054163,-0.3081286325,-0.0146862313,-0.2197726418,-0.6925263753,-1.0245639683,-1.060409159,-0.3765805993,-0.9310467074,-0.8945831848,0.0461560423,-0.2206625275,-0.1271302181,-0.6100552912,-0.2303380117,-0.3543942279,-0.28220256,-0.449636003,-0.3064565993,-0.5190015703,-0.5006499598,-0.0313465205,-0.9243372618,0.145189027,-0.9495714489,0.1465486782,0.1633467694,-0.2935537724,0.0572791401,-0.5161153929,-0.8655195352,-0.3509224064,-0.0094024403,-0.7856336734,-0.0525861422,-0.2304190717,-0.6636570767,-0.6633594369,-0.9442145381,-0.5750328,0.2171276424,-0.9653750439,-0.3384959331,-0.1961557587,0.0541524608,-0.5113463163,-0.3974650899,-0.9903075493,0.3690691433,-0.5131969001,-0.4395275984,0.2424071829,-1.2308792302,-0.7562423084,-0.1672371611,-0.8304618888,-0.0238911377,-1.2382096106,0.1756489551,-0.6186609941,-0.8671715667,-0.7838105869,-0.165430783,-0.6843889192,0.0432326855,-0.844255474,-0.5168142711,0.1653170427,-0.0102773145,-0.4815974324,-0.9848483194,-0.9672267984,-0.8192814142,-0.521355364,-0.0681597176,-0.335527146,-1.0841216841,-0.589137246,-0.7023932979,0.2324910309,0.0960686326,-0.5287544509,-0.5953839193,-0.1569898512,-0.1505716627,-0.2164231177,-0.4267371368,-0.1752712361,-0.0395168701,-0.7907237533,-0.5557916091,-0.290282931,0.2431242395,0.3333530396,0.2505289215,-0.3771668041,-0.9302593685,-0.7900547605,-0.5305307665,-0.2944235789,-0.2902126755,-1.1051168207,-0.9297240934,-0.7757187211,-0.8003040761,0.3405840758,-0.5719501351,0.2466313974,-0.8307927764,-0.0900574863,-0.858873412,0.3600656755,0.0234433015,-0.661059308,-0.6349178653,-0.7755052781,-0.219299631,0.0137792571,-0.1972809565,-0.400062236,-0.7560960132,-0.2017073036,0.0826753578,-0.7480050267,-0.0424827004,-0.8073374356,-0.9842506999,-0.8071907682,0.2135373132,-0.573150757,-0.3667440731,-0.821248805,-0.3744233747,-0.1043751659,-0.2851047716,-0.7825056466,0.0083858195,-0.4278399164,-0.3683798188,-0.3243160084,-0.9575333305,0.3435577558,0.2384451526,-0.7969951723,-0.9422212044,-0.4859040977,0.2672969393,-0.4743552506,-0.6884656931,-0.029023295,-0.0021078162,-0.2193493709,-0.7174292011,0.2714779048,-0.1343505244,-0.9593019105,-0.5963990429,-0.9933737719,-0.2028119817,-0.1593905832,0.0726503342,0.1045637023,-0.2926523781,-0.7865483569,0.3417770251,0.2334155414,-0.9044200481,-0.5661397199,-0.2148636688,0.1953012469,-0.322956505,-0.3555043723,-0.6082985687,0.2703376501,-0.0986775896,-0.6291973879,-0.5540684621,-0.1659658497,0.2376145722,0.0483396339,-0.3005892679,-0.0779411927,-0.8295883808,-0.3108141138,-0.2665125895,-0.5271640895,-0.1785417053,-0.7737825398,-0.7923492227,0.1854929019,-0.1825903058,-0.4206791939,0.2312259148,-0.5392790835,-0.634280488,-0.1712021201,-0.9204317856,0.0698484899,0.1356395552,0.2243413837,-0.6453907112,-0.1392675007,-0.1041525179,-0.5813011897,0.3895062112,-0.0096492489,-0.1871875585,-0.3829965823,-0.9048760221,0.1336771548,-0.7964062137,-0.6078610569,-0.967755519,-0.5796768694,-0.809235138,-0.1884218866,-0.6401355946,-0.914411603,-0.4973419716,0.0505789504,-0.9880897106,-0.0263000677,-0.3962367753,-1.1050636661,-0.5725441593,-0.7150979441,-0.4937238221,0.336776866,-0.1561224688,0.1674254728,-0.2115591691,0.1163212212,-0.9555658584,-0.4309635888,0.0796489134,0.0518479726,0.0589158421,0.0293845226,-0.9466510666,-0.197505402,-0.9204326589,-0.2261670108,-0.3937092608,-0.2425469695,0.0039830113,0.0224927108,0.0147900215,0.1357857704,-0.8108519737,-0.9763020677,-0.3500989643,-0.9667721193,0.1604625724,0.2315467886,-0.992979197,-0.2396625495,0.1561732392,-0.6618830076,0.2379246749,-0.4033356367,0.0022740325,-0.9298033695,0.2589976743,-0.1184822796,-0.7972513389,-0.7617911826,-0.4964670166,-0.90518372,-0.2970021755,-0.4329702022,0.1532392482,-0.8304377723,-0.6828926999,0.3380698658,0.1744830088,0.334695825,-0.5139463865,-0.7481651709,-0.5129855464,-0.4061770169,-0.9334560488,0.2167576636,-0.4251731096,0.2672626866,0.2876047408,-0.8378894874,-0.7948766588,0.3529026438,0.1326493661,-1.1825501664,-0.9443880931,-0.5619670787,-0.251907295,0.2454557591,0.2055793244,-0.3341724383,-0.2557239752,-0.4154784823,0.1180185656,-0.2601388849,-0.0865803594,-0.5583886569,0.0063595422,-0.8072066818,0.3157079583,0.2320926101,-0.0912188691,-0.5049351175,-0.4252194564,-0.5117503733,-1.119732059,-0.8352216501,-0.0551843772,-0.7026157934,-0.8802001926,-0.5290937295,-0.4756295573,0.374082279,-0.5740505188,-0.8384983213,-0.6495124983,-0.7471703335,-0.9388503392,-0.0137375089,-0.7587188905,-0.138144132,-0.5399719418,-0.7122436802,-0.2003649868,-0.689832707,0.2352657928,-0.8071505115,-0.0089294753,-0.1258579065,-0.5567004003,-0.2592587856,-0.6098727042,-0.5069932591,-0.3987153762,0.1499071123,-0.7247772385,0.3960312527,-0.9857299777,-0.2184112169,-0.5151539902,-0.8684605462,-0.4385494164,-0.5431890399,0.0158154983,-0.4843286306,-0.344808611,-0.4750764472,-0.8732487027,0.3756377329,-0.4430795801,-0.4351024385,0.3260918129,0.268275985,-0.0399074627,0.2971740824,-0.8750245258,-0.7393864175,-0.1665681821,-0.319118012,-0.0364005821,-0.0473973437,-1.1748627483,-0.1855630519,-0.0949988794,-0.6823937347,-0.5174782231,-0.0287140448,-0.7885802656,-0.095575979,-0.2137275941,0.3410467342,-0.7256529947,-0.0147274912,-0.7667575992,-0.7187866004,0.1573275035,-0.5742189175,-0.5284857287,-0.3067296895,-0.8250611906,-0.2563410347,-0.4133768169,-0.825149916,0.1512779509,-0.1156727173,-0.2563073715,-0.3122579479,-0.3851527437,-0.6789504012,-0.8282103902,0.1810686323,-0.2851608694,0.2848069089,-0.2929490807,0.0462263629,-0.2539134528,-0.8737940192,-0.2118563389,0.0231659601,-0.3525995376,-0.2349750565,-0.5179036232,0.290653419,-0.2757090156,-0.5069111816,-0.6420759965,0.3954468732,-1.2080093795,0.2885637894,0.0503019036,-0.2723926424,0.0066613728,0.0028696422,-0.7449678265,0.2843659985,-1.4756093525,1.335040198,0.9625841836,0.5299917467,1.2035556431,1.126140831,0.1591646461,1.2527457935,0.295878073,1.3632831226,1.2979885808,0.9106227633,0.8522076813,0.6045719522,1.3471461,0.7397827069,1.2615101506,1.1881603488,0.6416107077,0.7440083811,0.5351804451,1.0126782648,1.3672177261,0.0599070678,0.8377394505,0.9908550502,0.4711573804,1.1310088778,0.1293790451,0.6798894061,0.3281515257,1.1475280141,0.9567114143,0.8900535771,0.6087859587,0.1764257209,0.6872250951,0.608578729,0.2929553999,0.3756154223,0.8667062139,0.1337808023,0.1006024133,0.5470456686,0.0517029101,0.0916556942,0.6412377155,0.8247206172,1.3078418663,0.0911487925,0.8818224458,0.9833042944,0.7752037728,0.4676238399,1.0168727038,1.2690283004,0.4865343671,0.0914944209,0.6785917325,1.0354803059,1.3903157493,0.6035702024,1.3045151233,1.1842066025,0.953747338,0.8591316324,1.3808141404,0.7665452478,0.1714463694,0.43860591,1.1049205383,0.8786915057,0.371536221,1.0705437358,0.3254696642,0.0480239471,0.0386795474,1.1071355617,0.1228328756,0.1425331225,0.0596531627,1.0781110201,1.2867233779,1.019025656,0.7908139047,0.3712200462,1.2332655135,0.5682567088,0.7860669996,0.0313290008,0.6420941717,0.7315468754,0.4131018858,0.750748026,0.0366829986,0.1511324403,0.6816494119,1.1437434262,0.2977185072,0.7885015266,0.8003286179,0.2113435462,1.3960693529,0.1100402031,0.6535207406,0.7746041064,0.7295868258,0.5778045129,0.9135912656,0.4019793094,0.9979288897,0.5661105319,0.4914487965,0.7180198774,1.0792324191,0.2048340523,0.1724936726,0.1898325052,1.2995422113,0.0914169647,0.1954861763,0.3571022726,1.2044303911,0.1463740567,0.0300288675,0.3306602368,0.6086539518,0.4094567283,0.2811921324,0.3304484565,0.9375285569,0.4920659536,0.4790477833,0.4007055539,0.01335865,0.9820975909,0.8038910525,0.4212669334,0.6056602615,0.1749446312,1.2656216504,0.4499368237,0.0024793127,0.9597219969,0.6037451031,0.0802012075,0.1778516765,1.1694784537,1.0375460266,0.4728449117,1.2166079969,0.9746781195,0.033744382,0.4871486679,0.3891431264,0.45543367,0.682642989,1.0029089293,0.181617169,0.4267334726,0.9269598952,0.3681362213,1.0943465583,0.7787997514,0.5644583276,0.0393447892,0.8019831686,0.3438952,0.7279913319,0.6675436405,0.9056889519,1.1800600697,0.0224010874,0.1742005919,0.7798724842,1.1301209775,0.5977713967,1.1380439886,1.1123956255,0.433435544,0.8141351299,0.7086376814,1.1984089579,0.354373491,1.1803626858,0.4279011738,0.3332089624,0.420202111,1.0392345036,0.5966745202,0.5474631499,0.3123177047,0.9119979038,0.3312484544,0.5031507228,1.036028723,0.2334273324,0.3837056083,1.010607147,0.2375158807,0.838597011,1.1364317897,0.0835708092,1.1165141885,0.060049273,0.1087351472,0.2617886056,0.4966744018,0.5444140938,0.7082548331,0.0257025386,0.5015202843,0.8682561005,0.3491523784,0.111018435,1.3912290967,1.1282610125,0.4342033499,0.4891565354,0.1192247602,0.3726521996,1.2645984598,0.3187148649,0.6635272812,0.534090718,0.3928883599,0.4671011721,0.1394034495,1.0610557431,0.4815794526,1.1725660413,1.1992304081,0.6930376782,0.2532597601,0.1475968079,0.8222963374,0.8991997679,0.8703693794,0.7498083148,1.3383378865,1.2217464279,0.2330415324,0.559576578,1.1836563198,1.4001665905,0.1865212131,1.3050902838,1.1144911236,1.2464758319,1.0216867317,1.0370723005,0.8064651427,1.2901830245,1.0896063764,0.1448669967,0.3556091992,0.2928038352,0.516954043
