encog,BasicNetwork,java,3.2.0,1,1449333173276
[BASIC]
[BASIC:PARAMS]
[BASIC:NETWORK]
beginTraining=0
connectionLimit=0
contextTargetOffset=0,0,0
contextTargetSize=0,0,0
endTraining=2
hasContext=f
inputCount=140
layerCounts=140,841,141
layerFeedCounts=140,840,140
layerContextCount=0,0,0
layerIndex=0,140,981
output=0,0,1,0,0,0,0,1,0.9999952926,0.9999943679,0,0,0,0,0.0000000104,0,0.9999994106,0,0,0,0,0.0000372899,0.9997642013,0.0007375363,0.9999772365,0,0,0,0.0010097826,0.0000376064,0.0000451466,0.0000521088,0.999990305,0.0013998248,0,1,0.9999935596,0.9997049143,0,0.9999833024,0.9999755369,0,1,0.9999992404,0.9999939531,0.9999963246,0.9999957084,0.000001927,0,0.0000310935,0,0.999997672,0,0,0,0,1,0.0000437111,0.0000023806,0,0.0000125473,0.0000011571,0,1,0,0,0,0,0,0,1,0,0,0,0,0,0,1,0,0,0,0,0,0,1,0,0,0,0,0,0,1,0,0,0,0,0,0,1,0,0,0,0,0,0,1,0,0,0,0,0,0,1,0,0,0,0,0,0,1,0,0,0,0,0,0,1,0,0,0,0,0,0,1,0,0,0,0,0,0,0,0,0,0,0,0.0000000376,0.8818730308,0.0311312905,0.5036286614,0.0095946723,0,0.9996258708,0,0,0,0,0,0,0,0.0036759409,0.0000014573,0.0002046046,0.0178965321,0,0.7504079504,0.0000003695,0,0.000000094,0.0899253552,0,0.0000002181,0.0000011234,0.0000001597,0.0087228243,0,0,0,0.3481457699,0.0032004787,0,0,0,0.2418662938,0,0,0,0.0006298047,0.03783869,0.000112836,0,0.0000022399,0,0.1696836594,0,0.0000000043,0,0,0,0.4234039748,0,0,0,0.9999994627,0,0.241407438,0,0.031138183,0,0.0031539574,0.0000003573,0.9401294167,0,0,0,0.0000000002,0.0000068609,0.0042154737,0,0,0,0,0.0003344507,0,0.0000000308,0.7688935812,0.0002650385,0.0000001106,0,0.0001627901,0,0.0000171883,0.0003105535,0.000000029,0,0,0,0.0727898667,0.9926069022,0,0.0384582748,0.0000004582,0,0,0,0.3878841072,0,0,0,0.0005570841,0.0000080799,0,0,0.9999791232,0.9977799632,0.000000003,0,0.0019500672,0,0,0.000035498,0,0.945613841,0,0.0000000055,0,0.0007385269,0.000003065,0.0000000309,0.1749455649,0,0,0.0001384328,0.0000048542,0,0.8798929343,0.0000000003,0.0000165165,0,0,0,0.0000000387,0.0010055688,0.0000006346,0.0534086748,0,0.000433485,0.9578889104,0,0,0.0000001355,0.0000346246,0.0010342383,0,0.0290574046,0.9996453113,0,0,0.0015512284,0.3366414758,0,0,0,0,0,0,0.0000000627,0.0002414336,0,0.013016949,0,0.9937449263,0,0,0,0,0,0.0000457222,0,0.9989078163,0.007435797,0.9911342645,0.0000002845,0,0,0.0001515627,0.0000029658,0.9838505,0.0016051843,0,0.0000000008,0.0000550305,0,0,0.0109300362,0.0000005684,0,0.0025574675,0.0000000001,0,0.0001742364,0,0.5804639261,0,0,0.0000256953,0,0.0027162498,0,0,0.0000000018,0.0000000003,0,0.000009436,0,0.0227878254,0.9743899633,0.2610888731,0,0,0,0.9603302297,0.0000005529,0.9187366189,0,0.1885850108,0.0001152593,0,0.0000006452,0.0002072902,0,0.596405568,0.0649761297,0,0.0771711586,0,0.0000000003,0.000019782,0.0005566317,0.0411972106,0.0000005297,0,0.3677685875,0.6588043245,0,0.2087194805,0,0,0.0001001882,0,0.0000000006,0,0.0000185045,0,0.6187560718,0.9998391311,0,0,0,0,0,0.0000001754,0.0000041356,0,0.0078703669,0,0.0041535529,0,0,0.0003095167,0,0.0006112355,0,0,0,0,0.3912911344,0,0.9986322321,0,0.0167178563,0,0.0000880242,0,0.0001396532,0.3816237957,0.0519483522,0.3054032716,0,0,0.0000000059,0.0000000769,0,0,0,0,0,0.0000001059,0,0,0.00000014,0,0.5837153334,0.00005607,0,0.0000007907,0,0.0000073586,0,0,0.0095591048,0,0,0.7896938397,0.0030291947,0.0000000055,0,0.0000000098,0.0163340636,0.0002681739,0.0778260808,0,0.0003650208,0,0.0000060769,0.00008754,0.0970135555,0,0,0.0000115944,0.7570556646,0.0000000263,0.0041277275,0,0.9999998315,0,0,0.7654010073,0,0,0,0,0.0032176542,0.8360885124,0,0,0.0006511432,0,0,0.0000000176,0.0000078341,0,0.0002139669,0.0000000006,0,0.0000000001,0.9725854397,0.9880274165,0,0,0.8747934493,0.1071188,0.0016346028,0,0,0.000000173,0.000557526,0,0.0031510381,0.0199572002,0,0.0000000002,0,0,0,0.0000000291,0,0.0020308041,0.0000000136,0,0.0306243091,0,0,0,0,0,0.0000000096,0.0000000036,0.0000000007,0.0000003936,0.0001414525,0.000810796,0,0,0,0,0.2423878445,0,0,0,0.2965983338,0.0000003287,0.0000001645,0.0007150131,0.000005524,0,0.9995675282,0,0.000011531,0.0000093333,0,0.1641334658,0,0.0003609755,0.010371965,0.0000000008,0,0.0920244985,0.5623284609,0,0.0000000004,0.0000006452,0,0,0,0.0055429787,0.945414174,0.5011881585,0.181022623,0,0,0,0,0,0.0001411969,0.7947493516,0.0145242077,0.0000000015,0.0000000187,0,0,0.000008142,0.0137063689,0,0.0000858206,0,0,0.0005475859,0.0003012096,0.000000004,0,0.9854470433,0,0.0015207281,0.1175042391,0.7148215804,0.6650824644,0,0.0000226121,0,0,0,0,0,0,0.0000000001,0,0.0375108632,0,0,0.0000103612,0,0,0.0064346075,0,0,0,0,0.034687067,0,0.0000004638,0,0.0000000349,0.0004648614,0.0011667184,0.0045667453,0,0.0001827385,0.0178924419,0,0,0.00123317,0.7892765483,0,0.000000057,0.0000000003,0,0.9954654926,0.0000000124,0,0,0,0.0005980275,0.8844451046,0,0.9868810554,0.0000022316,0.0000000001,0.0255102684,0,0.0000001699,0,0,0.1860701242,0.0000296878,0.0007576036,0,0,0,0,0.0000432259,0.0000000044,0.3415420857,0.0003139192,0.3591304069,0.0000000184,0,0,0,0.0000062457,0.0000012787,0,0,0.0000000011,0.0000231819,0,0.0032171657,0.603631506,0,0,0,0.2782979177,0,0,0,0,0,0,0,0.0059854498,0.4082362626,0,0,0.0000000001,0,0,0.0439851905,0.9553625814,0.6854017942,0.0004599088,0,0.0004825624,0,0.0000000009,0,0.9970615035,0.0000831755,0,0,0,0.1040636676,0,0.000000002,0.0165483181,0.0000000043,0.000044958,0.0000000003,0,0.9529925461,0,0.999483374,0.0046419541,0,0,0.0000000845,0,0.0000000488,0,0,0,0,0,0,0.00065294,0.0000000015,0,0.0344170248,0,0,0.0545871756,0,0,0.5569346442,0,0.3171684671,0.0072045589,0,0.0000000003,0,0,0,0,0.0000004774,0.0000019814,0.0907721212,0.0030018713,0,0,0,0.3050917882,0,0,0.000022899,0,0,0,0.0000003433,0.3036057537,0,0.0000000006,0.0000000245,0.0002389559,0.0035886285,0.1629553197,0.002215493,0.0053615342,0,0.0000000158,0,0,0.5624223877,0.0000000001,0.0065771469,0.0000000089,0.9992850787,0,0.999169817,0.324234416,0,0.0004643066,0.0954807598,0,0.0000289293,0,0.9908994075,0,0.0052433079,0,0,0,0,0.029012874,0,0,0.0000019221,0,0.0000097578,0,0,0,0.0000000122,0.0000188465,0.0002099101,0,0,0,0.0000065896,0.0009336929,0.0000186931,0,0,0.000000018,0,0,0.0002507161,0.0062757624,0,0,0,0.9881492099,0,0,0.0199149864,0,0,0.0000000209,0.0000085326,0.0019607394,0.0000000778,0,0.0000000189,0.0003922385,0,0,0.0000116641,0.0000006551,0.0000129321,0.0000046975,0,0,0.6831267968,0,0,0,0,0,0,0.0052329893,0.9999854985,0,0,0.00000001,0.0000000001,0.0000002494,0.0127164236,0,0.000000022,0,0.000130718,0.1517130375,0.0000000002,0.987921616,0,0.0001428042,0.0000000003,0.0000049699,0,0,0,0.0209168221,0.217515933,0.9998361056,0.0000044461,0.0000000002,0,0,0.0172846565,0.0000000001,0,0.7610789778,0,0.403173772,0.9957551704,0.988062264,0,0.0914088164,0.0000000099,0.0000000006,0,0.0629922087,0.0071964999,0,0,0.0003116632,0.1315619453,0,0,0,0,0.0000827231,0,0.000064123,0.8049333776,0,0,0.999820757,0,0.0000031006,0,0,0.0132822429,0.0000000104,0.0852027995,0,0.9976188526,0.0000000492,0.4180934295,0.4277776698,0.0000000004,0.0010745693,0,0,0,0.0000000636,0.0000300943,0.0923282795,0,0,0.0093665462,0.0000000001,0.0000401336,0,0,0,0,0.0000049649,0.006744548,0,0.2079374231,0,0,0,0.7940733583,0.9244662598,0.0002075552,0,0.0030184887,0,0,0.0073059694,0,0.0000001798,0,0.273648029,0.4994155375,0.0007218298,0,0.0000000002,0.0061186828,0,0,0,0.0000710205,0.9960363371,0,0,0,0,0.2147672703,0.0009652369,0,1,0,0,1,0,0,0,0,1,1,1,0,0,0,0,0,0,1,0,0,0,0,0,1,0,1,0,0,0,0,0,0,0,1,0,0,1,1,1,0,1,1,0,1,1,1,1,1,0,0,0,0,1,0,0,0,0,1,0,0,0,0,0,0,1,0,0,0,0,0,0,1,0,0,0,0,0,0,1,0,0,0,0,0,0,1,0,0,0,0,0,0,1,0,0,0,0,0,0,1,0,0,0,0,0,0,1,0,0,0,0,0,0,1,0,0,0,0,0,0,1,0,0,0,0,0,0,1,0,0,0,0,0,0,1,0,0,0,0,0,0,1
outputCount=140
weightIndex=0,117740,236180
weights=##0
##double#236180
   0.2242398268,-1.0131904638,-0.1807953446,-0.7604960514,-0.0080802482,-0.3469846326,-0.9927936227,0.4356464786,-1.2069390705,-0.7467785946,-1.5038465167,0.2729896595,-0.9359535676,-0.5945159961,-1.1938578873,-0.4083869985,0.3136678565,-1.581226114,-1.220384493,1.0779416145,-0.1491944036,0.7739460421,0.05007494,0.0394472487,0.1785470015,0.0609104346,0.1885564363,-0.1478048272,0.6073139128,-1.131255148,0.5251516903,-0.9694915201,-0.0006495724,0.4373831819,-1.0815524391,-1.1798600128,1.3319487104,0.2228222098,0.689618915,-0.2611191823,-0.83174238,0.422974374,0.018171826,-0.7135648427,-0.8375750322,-0.9193179415,-0.0211193486,0.1360786416,0.7650527846,-0.0630453867,0.1777801643,-1.3543629864,-1.0132140147,-0.6598848377,-0.0375048717,-1.3199413255,-0.8892743481,0.4577167331,0.3077261377,0.4322634254,0.0976440477,-0.8400682197,-0.4062021712,-0.5778089258,-0.4252639625,0.2535336265,-0.7849695331,-0.8897688161,0.2772866581,-0.7231629532,0.2926500184,0.9651930126,-0.3063431114,0.1339092993,-0.6859188157,0.1893319287,0.1372056728,0.8948186987,-1.2861584062,-1.1543437446,-1.0732379479,-0.4750690721,-0.8937526614,0.3301644363,1.0762830574,-1.0012753043,-0.2036775419,-0.5163117302,0.2202034694,-0.9202508335,-0.2367630437,0.3851620617,-0.6470771967,-1.1634281144,-0.2419368773,-0.7611426719,0.3140656459,-0.1856108795,-1.7884836912,0.0296524824,-0.7370509921,-0.9959153844,0.1813087681,0.4123312123,0.1282292242,-1.2071528165,-1.1724533262,-0.6794275501,-0.2655782312,0.4343270889,-1.0482997363,-1.1511786653,-0.5710913882,0.1948633188,0.1921164252,-0.6228847406,-0.1692420372,-0.5429742851,-0.689795118,-0.2806526978,-0.0352168982,-0.2662317646,-0.5300968009,0.0061698313,-0.4308539034,-0.2980564499,-0.0838082304,-0.3569411087,-0.5887059652,-0.5121163799,-1.5978509473,-1.1151596886,-0.0777805728,-1.3500989868,0.0548372605,-0.3548206295,0.0141872569,0.1400922612,-0.3903738813,-0.0938692995,0.2633808181,0.0462454894,-0.9031712042,0.2103609456,-1.6409510844,-0.5236601367,-0.7084015761,-1.3735377497,-0.6157081425,-0.1503846457,-0.5583005284,0.1516490684,0.6388010044,-0.012783194,0.4523580496,-0.5097654825,-0.5994956557,-1.1422679553,0.3364551916,-0.4923422081,-1.0039193676,-0.404434052,-0.8042361925,-0.6018898995,-0.3080701387,-0.2316737934,-0.012375298,-0.1912082989,-1.0277849533,-0.6505026459,-0.8791825506,-0.7340038434,-0.9007744551,-1.0102188517,0.6349110668,-1.0648987586,0.2771120061,-0.5699988206,-0.3052508569,0.2147417658,-0.7805174027,-0.0006597763,-0.140561672,0.0228226006,0.6146926035,0.4773186895,0.2701136745,-0.7520132017,-1.1673353735,0.0529148144,-0.5775507442,-0.6130575217,0.6427237392,0.4794171446,-0.5979185121,-0.1190756802,0.1830051765,0.3934692267,-0.728162083,0.0784296604,-1.4006848085,0.0987369163,-0.5678734547,-0.374892756,0.1894713958,-0.5610400395,-0.2801935611,-0.2541729893,-0.7642473831,0.3125657828,0.141506895,-0.4463831561,-0.2774600168,-0.4338190297,-0.0145606673,-0.1063910118,-0.5311771633,-0.2601736469,-0.1114037722,0.221743352,-0.5729167248,-0.1394255093,-0.3116414688,0.2058200415,-0.7361437202,-0.7463822137,-0.3205296184,-0.880107028,-0.3271611452,-1.2147938063,-0.3161161383,0.5898615653,-0.2732192346,0.0217221436,-1.6349953974,-0.9265093712,-0.7917608819,-0.2975471132,0.1359630755,0.8819608263,-0.4512690948,-0.3541364067,0.3059260351,-0.1150758785,-1.2978115649,0.4318146287,-0.8545178438,0.394758,-1.3115423406,-0.1590898268,-0.8749032129,-0.866023144,-1.245556794,0.3301786139,0.2039356917,1.2934041883,0.3929777595,-0.5736178024,-0.2085896944,-0.8220755809,-1.5214472755,-1.0129817362,-0.5499206736,-0.2158798968,-1.7094551723,-0.3336169364,0.234521475,-1.1168919616,1.1988873698,-1.3071569356,0.4178901911,-0.5991570487,0.2129957343,0.9541287547,-0.8152449478,-0.2362126941,0.0767559826,-1.0260893615,-1.214690788,0.7248513994,-1.0020471212,0.1454005483,-0.0186846814,-0.6054105072,-0.7532164254,-0.6680342682,0.2219616298,-1.4632653651,-0.8918722351,-0.387954611,-0.2507935832,-0.5209436084,-0.111461507,-0.7536098428,-0.5025847754,-0.2108024837,0.8672402023,-0.8695453372,0.749415679,-0.6871529089,-0.5174590306,0.0102711182,0.31063573,-0.9871107707,-0.5246277159,-0.3142314939,-0.1652208889,-1.6236441351,-1.0880822597,-0.7672871412,-1.8247882558,-0.7783052911,-0.1748102618,0.0748292889,-0.0410873294,-1.5351137511,-0.5069758626,-0.5879208974,0.4545721706,0.53773186,1.1330729508,0.4786404808,-0.3131331948,-0.9060172634,0.0407115347,-0.2456518032,-0.0088645124,-1.154495113,0.2512846035,0.2970356777,0.4926184293,-0.9937872331,0.0338866506,-0.727316578,-1.0749219451,0.332778022,-0.0642342208,-0.4807358498,0.0989596577,-1.1013499415,-0.6173411422,0.0085508672,-0.2666074946,-1.1471393163,-1.1281571163,0.2844956354,-1.459914372,-0.243715034,0.3992115769,0.1159953567,-1.3553436964,0.2263208312,-0.7118377495,-0.8397023289,0.0685795136,-0.8171588265,0.4153069919,-0.0630087266,0.1798599424,0.4658693915,0.0704231826,0.6784175509,0.2113304732,0.1011972216,-0.8583668445,-0.066367762,-1.2573530062,-0.873228294,-0.5607216252,0.1264954842,-0.8615051581,-0.7195308352,-0.4502860335,-0.9040076542,-0.5595072366,-0.7427362087,-0.6576071836,0.2975607764,-0.668381576,-0.7897083457,0.083977534,-0.4437491669,-1.1329765452,-1.6008217772,0.3747964664,-0.6906221099,-0.3077997279,0.4236129683,0.604591746,0.6967285095,-0.5187547989,-0.0215453703,-0.0291349133,-0.634494209,0.0379744196,0.6306804917,-0.0642862168,-0.7015944647,-0.5731611859,-0.9230816385,-0.2564061119,-0.375338543,0.8760666195,-0.4098137128,-1.3660651387,0.4393825446,-0.5564452006,-0.3455575352,-0.6196432281,-1.4863363161,-0.1174227566,0.5818657382,0.5997128275,0.5961356277,-0.2771448927,-0.066703617,0.3606781395,0.3371707653,-0.7896379734,-0.3495099306,-0.450382311,-0.6935251922,-1.5816014851,-0.0296449171,-0.0650943982,0.2293341629,-0.0504693874,0.8475403242,-0.4500538912,-0.6964879723,-0.792585602,-1.022244186,-1.1201539955,-0.2160985639,-1.0429110525,0.1268914307,1.1789741259,-0.1668034044,-0.298092995,0.3211727859,0.3993424783,-0.4698607873,-1.0403400409,0.7256202592,-0.4889820428,-0.4400119535,-0.8531738273,0.4063529955,-0.7034535361,0.1653111783,-0.7645061595,0.2564806894,-0.1373834134,0.1613124818,-0.1381448552,0.4792287075,-0.3563134261,-0.3044981571,-1.3067767856,-0.0128986966,-0.8807255241,-0.412568445,-0.6250813672,0.4921111065,-0.3368398832,-0.9507978683,-0.1028888651,-1.0871851463,-0.359045294,0.3013820363,-0.0259259103,-1.2450820121,0.7657730207,-0.7061026576,-0.226157523,-0.3692950192,-0.2550881394,0.4732790549,-1.5623726516,-0.0950665783,-0.2230185372,-0.3024227096,-0.8245136442,0.3682665946,0.7251503318,-1.770771907,0.5034096474,-0.307148174,-1.3583125082,-0.3991273736,-0.4041534356,-0.8745307398,-0.5839858742,0.5512281541,-0.719013141,0.168239934,-0.5050960678,-0.2411930029,-0.8913811358,-1.5140217749,-0.7850138031,-0.4422996635,-0.2542661487,-1.1344400549,0.2635514283,-1.605215486,-0.8605428487,-0.2080096512,1.0223789126,-0.2758589396,0.1472878146,-0.813795944,-0.2111672373,-0.5427942856,0.3097325116,-0.0630120959,0.4767757724,0.3533900067,-0.4447948924,0.4728088348,-0.8541756991,0.1021708365,0.0716165373,-0.4367843154,0.6776446225,-1.1011339529,-1.3398375572,-0.7148469514,0.4353116832,-1.1916434162,-0.8950250899,-0.2879134574,-0.3871040445,-0.6823163031,0.3308464229,1.0786823403,0.237990605,-0.7473497369,-0.6808544358,-0.6434935054,-0.3855194226,-1.4089382279,0.5851837959,0.4499100762,-0.2212496364,1.2986654711,-0.8889338309,-0.345031842,0.3834864614,0.1272453245,-0.1032856952,0.482769406,0.3375310545,-0.3309314209,-0.015065406,0.7786412142,0.0274746644,-0.6012252359,-0.8102657787,-1.4109186553,-0.7861206066,-0.3299594054,-1.0084081317,-0.3908315611,-0.0302862733,-0.1366284901,-0.0277814664,0.4734089046,-0.6574418518,0.2642848837,-1.0584457743,-0.372781715,-0.0132325158,0.6607758128,-0.7709831745,-0.3439547258,-1.596455821,-0.6811283046,-0.0985500374,-0.9524837074,0.0380466129,-1.2833240321,-0.6062823121,-0.2079151583,-0.2689930836,-1.0271010081,1.0522528975,0.9555922438,0.1421239205,0.1417180417,-0.9512176732,0.3180276971,-0.9167709869,-0.6626283719,0.0651492088,0.0869479626,-0.4821187964,-0.8860365778,-1.0422759145,-1.3535314551,0.4304796687,0.2557231063,-0.0510820363,-0.7287821591,-0.7680715339,-0.8358413258,-0.4066678948,-0.3736163538,-0.4915164097,-0.4163108989,-0.4317045966,0.5268894057,-0.7100099135,0.3371761612,-0.1283044824,-1.4336069455,0.1438178418,-1.509892924,-0.6480642492,-0.8836935362,-0.0563729436,-0.4159925012,-0.184305006,-1.359154869,-0.1714394884,0.1509401027,-0.4596667796,-0.532265748,-0.1307544721,-0.1101331774,-0.4213926309,-0.5208892265,0.8600304317,-0.4650534485,-0.8403419331,-0.2053897399,-0.2364109565,-0.5091449945,-0.0490135297,-0.1708410133,0.0068344393,0.191842885,0.2251395088,0.304685819,0.4638937985,0.5158583263,-0.3843731132,-0.7069126112,-0.8090067995,-0.2751898098,-0.090284382,-1.000082636,-0.8187248847,0.5216922754,-1.1949361214,-0.2077335078,0.2479792769,0.3167858818,-0.7597566809,-0.740096656,-0.0957444634,0.1754524307,0.2950238409,0.2695377327,0.0046583693,-0.8173038161,-0.6054532381,0.0376753162,-0.3060213501,-0.7355146678,0.216676974,-0.5000671721,0.1024982265,0.3185548438,-1.6973969806,0.0093123581,-0.8517671777,-0.6039770717,0.3946246493,-0.1134564551,-0.2952593214,-1.0685637293,-0.3010346315,0.902553176,0.0749454791,0.4652367828,-0.5549760881,-1.1332078885,0.149733445,-0.9387783833,-0.8362856697,0.6524815808,-0.1574561508,-0.5564652626,0.44746548,0.2991398205,-0.3992792499,1.1710239035,-0.6108042096,-0.8059287497,0.1009089846,-1.6021563078,-0.5570394112,-0.3978922603,-0.8108733819,-0.6189490734,-0.8136729984,-1.1040435032,0.2398580065,-0.4677365492,-0.666299553,-0.0752196748,-0.5415070505,-1.2950437908,-0.379896348,-0.4432714185,-0.8865790607,0.3906725043,-0.4350635451,-1.3469314806,-0.8593137913,-0.0932590565,-0.5184275829,0.2873685475,-1.6480943799,-0.4070223702,0.3036286339,-0.2580735911,-0.4124152708,0.0563750266,-0.0237670056,0.2643563108,-1.1532472887,0.3585154352,-0.43232832,-0.8388504058,-0.1621623945,-0.2000258874,-0.8734252672,0.5930900346,-0.7010884001,0.5649918676,0.2628496956,-0.4589768037,0.3332209775,-0.1482922655,0.2078996348,-1.2346911507,0.5526978232,-1.5009410388,-0.3741994211,-0.1070843086,-0.7208450563,-0.3160301196,-0.1645395056,-0.6297719609,0.1765104859,-0.6776535879,-0.1071780139,0.3745714231,0.5272510847,-0.8189969493,-0.6574899774,0.1232195873,0.0091956287,-0.391016764,-0.9224444752,-0.4770710664,0.7954450096,-0.767612084,-0.4187178647,-0.2101574746,-0.003204928,-1.3594664391,0.3044537398,-0.9396253241,-0.1370174943,-1.0829839589,-0.7956242802,-0.6811570104,-0.4333669867,-0.3652074215,-0.813580641,0.4677416613,-0.6536320705,-0.764555012,-0.34368534,0.3791698265,0.7040782988,-1.3144988601,-0.9768214392,0.2301140087,-0.8069306458,0.0636309646,0.0454766115,0.1734337658,-0.0318102088,0.0648809542,-0.5432518136,1.0130127739,-0.5389722524,-0.1444508946,0.2330668769,-0.2383304818,-0.3012244944,-0.0132180517,-0.6785245287,0.4272097565,-0.8061543951,0.4824415968,-0.2709547107,-0.4477293039,0.2682434153,-0.0418186656,-1.2562415514,0.363101826,-0.5204981862,-0.7326034335,0.6828121148,-0.017140875,-0.0405496051,-0.25224008,-0.8577901689,-0.8344125893,-0.390497057,0.3205426276,-0.6349729348,0.9631577832,-0.7714970243,0.1302293506,-0.181589842,-0.926210495,-0.4894807999,-0.6984399023,-0.61361608,-1.0972973973,0.4084138777,0.3483284859,-0.2076034472,-0.8798460601,-2.0018777255,-0.7532106001,0.1228722095,-0.1854842591,-0.8038048606,-0.6256801196,-0.0573798989,-1.5697613757,-0.3582992735,-0.6237044416,-0.142961963,0.0606591495,-0.8751357384,-0.2335179171,-1.0446828632,-0.6795888831,-0.1518137481,-0.7256537964,-0.6238136246,-0.4020714685,-0.8798965241,-0.4681419992,-0.1488354872,-0.4375507543,0.2563246781,-1.3648532148,-0.9600217769,-0.9604929193,-1.277296967,-0.767201149,-0.5938675362,-0.3177496536,0.1847680249,-0.9533918215,-1.401361202,-1.0519610973,-0.3497683107,-0.4685968128,-1.0839687746,-0.6001769629,-0.3350012396,-0.7536546045,-0.50580892,-1.0284135577,0.2373640243,0.0927012789,-0.736128848,-1.0397248353,-0.7311604597,-1.7661971509,-1.1845343969,-0.8333321884,-0.0919904066,-1.2123388024,-0.7890305354,-0.0996869208,0.2312045448,-0.2032171032,-0.7968300481,-1.8018370332,-0.5083062383,-0.9970521381,-0.9218178586,-0.6231131646,-0.6446165611,-0.9874789202,-0.2731421006,-1.0895150865,-0.6230576408,-1.0651741337,-0.356179918,-1.0685999286,-1.5058689938,0.1593019311,0.0472530551,-1.0621056814,-0.1922811585,-1.7652724779,-0.9233873081,0.1893351141,0.3258183861,-0.4184917262,-1.057061081,-0.916137313,-1.06235052,-0.9749313091,-0.7924560268,-1.5486532332,-0.3191288205,-1.4771795791,0.0798757772,-0.7335998036,-0.2441380363,-1.4404522431,-0.5521640343,-0.5381670672,-0.2776936309,-1.368378847,-1.9472531794,-0.3120968828,-0.8599403224,-0.2615204904,-0.9912260838,-0.7880484645,-0.8280862418,-0.6113267933,0.3062109537,0.3353233039,-0.4157964887,-0.3220503457,-0.8932214393,-0.5226010139,-0.5631640233,-0.7912190132,-1.9223877987,-0.8922567325,-0.3463315965,-0.4705362275,-0.2309706079,-0.6119162555,-0.5281299995,-0.2734549738,-1.7972071487,-0.9228107247,-0.836196081,-0.3673468721,-1.3808767822,-1.9539727795,-0.1641707906,-0.7824288477,-0.2756475516,0.127678082,-0.6483534504,-0.9891906921,-0.6890150201,-1.0358461863,-0.2169423979,-0.1519304964,-0.9459389692,-0.5831153452,-0.1127413372,-0.3431615749,-1.875087228,-0.0046393841,-0.6012156523,-0.3119670014,-0.9896949216,-2.3253792248,0.2236225755,-0.1749758435,-1.2999947399,-0.6639996543,-1.3100234119,-0.5655851169,-0.4463403424,-1.5184521709,0.0411368048,-0.8745613566,-0.1240852395,-0.7456983917,0.2599456763,-0.0042814881,-0.0767257079,-0.8354199876,0.0400424641,-0.6939912201,-0.4705685765,-0.3370077116,0.2657665345,-1.41685804,-0.8789372061,-0.8586121404,-0.6435671642,-0.7887007263,0.0527027764,-0.9219848637,-0.1022420715,-1.657141594,0.1125897729,-1.5272610311,-1.7173555256,-2.1541420759,-1.0966878737,-1.4524778316,-0.3308701282,-1.2321371072,-1.3374001896,-1.3877515969,-0.3001393458,0.3948360002,-0.2089484803,-0.8317096565,-0.956131452,-0.6812216787,-0.8923819795,-0.1907549256,-0.8791260224,-0.17768005,-0.7049485037,-0.9165909006,-1.3254300364,0.3677021168,-0.6632852034,-0.723768581,-1.0733594688,-0.9869516126,0.246838757,-1.1701971841,-0.7268757042,-0.7532924526,-1.0895246104,-0.8266773888,0.2058472627,-0.938052423,-0.2956227257,-1.4790806925,-1.7661860042,-0.8460129528,0.0075938382,-0.416542288,0.3154296611,-1.3050725608,-1.4693855981,-0.6597528852,-1.326127349,-0.6244334535,-1.915640298,-0.8330722066,-0.4867089592,-1.2270240659,-0.9345550524,-1.2702733826,-1.5357605219,0.3920424357,-1.3366421175,-0.8810026561,-0.0765561073,-0.8525164447,-0.1020788017,-1.8349843046,-1.6387006076,-0.6794148977,-1.0699429024,-1.648565206,-0.1063575131,-1.700174245,-0.9228325219,-0.227351787,-1.0999786136,0.2147441918,-1.015747157,0.1758210951,-0.9349748761,0.3940823409,-2.0867138352,-0.5894576031,-0.680619326,-1.4016565543,-0.7870931045,-0.5846491278,-0.490294505,-1.1738474696,-0.6309640298,-1.2575182132,-1.2023105231,-0.8811748076,-1.0851155015,0.0023734124,-1.1549532098,-1.3911289226,-0.460869073,-0.7660300507,-0.7809413923,-0.8361457176,-0.6095783059,-0.6088837644,-0.462624268,-0.2352414531,-1.2375731382,0.2087419487,-1.5833740826,-0.1657088066,0.0682727686,-0.959542566,-1.1160238276,-0.6535279741,-1.5092250459,-1.709857981,-0.8310636209,-0.6141488268,0.0623653968,-0.4032022877,-0.2102889789,-0.7445858954,-0.7656571987,-0.4993396136,-1.0222828461,-1.534484329,-0.3633503928,-1.2742499582,-0.9610919806,0.387076804,-0.7158342531,-1.1963373158,-0.5238858419,-0.8791537903,-0.8424217827,-0.2107369965,0.3371628688,-0.2313083492,-0.2430342704,-0.2895976615,-0.1822453223,-0.3866498628,-0.6968827273,-0.8925446225,-0.2918371685,-1.0672842693,-1.158897382,-1.3039839008,-1.2534968146,-1.2876471462,-0.7672699584,-0.3825109446,-1.7107201189,-0.2902277777,-1.0873860102,-0.3183974324,0.2705254654,-0.3974298585,-0.6847309429,-1.2633404758,-0.5252354024,0.1368004934,-1.1967720976,-0.6295444629,-0.8255951084,-1.929279045,-0.208816199,-0.7548479425,-0.5013941955,0.1117145329,-1.5741519036,-1.8267123233,0.0932235796,0.4028574136,-0.9051100533,-0.2760308428,-0.3902143119,-1.3310127927,-0.3810218763,0.0593537504,-0.1145150034,0.0394213396,-0.3147772276,-0.518371966,-1.1027317431,-2.0201819801,-1.9935340956,0.2977542849,-1.901568642,-1.4409332752,-0.8592974455,-0.0167522717,-1.0193462312,0.0932181719,-0.9337807515,-0.4223195446,-0.7240281278,-1.0304649855,-0.9403103685,-0.2953414253,0.1367412389,-0.66492226,0.3837452156,-1.218500275,-0.8084092744,-0.1530203182,-1.7070712816,-0.6079476729,-1.1313196623,-0.3972592469,-0.1740203946,-1.1149892485,0.1843737455,-0.3862196377,-1.0566554502,-1.0216137554,-0.5255055769,-1.2229341005,-1.32735067,-0.6475574109,-1.2515866297,0.3546949239,-0.2669989212,-0.6583846351,-1.2441781374,-0.7746535349,-0.0754682048,0.0522529363,-2.4255792077,-0.1478954269,-1.7200219613,-1.7252055053,-0.0340280524,0.0271348968,-1.6000220884,-0.0406680537,-1.2919164025,-0.0025860879,-0.8684936767,-0.5037866507,0.1122172763,-0.7813713393,-0.3298772635,-0.4186840524,-0.3690167777,-1.4169771323,-1.085588827,-0.6129621865,-1.1483732412,-0.2337345375,-0.7337224761,0.2972779708,-0.9135998669,0.0556853213,-1.2439917114,-1.9459090301,-0.6094549614,-0.7164451,-0.1964967656,-0.4994713223,-0.6984906857,0.2506147566,-0.8023199449,-0.48686464,-1.8241656736,-1.3032114783,-0.7380581552,-0.7400170968,0.2797607582,-0.7085080135,-0.7153245062,-0.9639225409,-0.2993874014,-0.7387348721,-0.7855724808,-0.7806139734,-1.6497308152,-1.5742169815,-1.018196907,-1.8348555669,-0.7969069897,-0.6434982713,-0.9210582478,-0.4815531339,-0.9824851177,-0.5129107072,-0.2582624343,-0.8967056686,-0.2921916511,-0.779460311,-0.7375416448,-0.4024730834,-0.097945472,-0.9268066205,-0.0239212028,-0.2850308512,-1.289478485,-1.4066561351,-0.5850960157,-0.1931035409,-0.083051809,-1.7779605638,0.2510584464,-1.240625615,-0.6683610716,-1.6379856603,-0.8124261692,-0.9278368448,-0.5305475717,-0.5652967081,-0.4011678121,-0.4201410777,-1.4187122681,-0.9638595229,0.0878507714,-0.8746882868,-1.0423554075,0.0548214862,-0.2584654293,-1.0228433799,-1.1845573741,-0.6612941085,0.212346472,-0.3296035097,0.056629026,-2.0777698173,-0.750452404,-0.1014071931,-0.4567894623,0.3758246045,-1.0248036749,-0.7131050936,0.3197820219,-1.4668858381,-0.7157365369,-0.2908317108,-0.77638047,-0.9610363585,-1.8294347921,0.2496940254,-0.1294140012,-1.8322350744,-2.1102195048,-0.8491673234,-0.0948341621,0.0104687163,-0.5200252792,-0.8297133903,-1.3747148717,-1.1691142577,-1.440726006,-1.9396077172,-0.2508485561,-0.5476872427,-0.1826558759,-0.233011529,-0.0117786303,-1.4386080505,-0.9875166362,0.1178930055,-0.896124537,-0.6960655842,-1.2607074232,-0.1564509303,-1.7440473895,-0.4089938682,-0.9419350739,0.0847152002,-0.9059136143,-1.58813052,-0.1634850724,-0.1686752941,-0.0834324113,-0.9358743104,-0.4482497551,-0.3757908207,-0.6855331716,-1.5278507621,-1.3814155337,0.2897191159,-0.0385993343,-1.3825701994,-0.5356882602,-0.0484509472,-1.3631171855,-1.7465484649,-1.4194599869,-0.8152458688,-0.5846639996,-0.9580881583,-0.326613218,-0.514309836,-0.0485332706,-2.3453308453,-0.7137973145,-1.0464284434,-0.0938416375,0.0288832043,-1.6944723076,-0.9141354037,0.0323662949,-1.2679790307,-1.072868139,-0.8322268623,-1.2388830465,0.3427994183,-1.697372696,-1.0500387723,-0.7000531943,-0.7314786013,-0.7048160247,-0.525085858,-1.4647347174,0.1560418727,0.2852745662,-1.3520399759,-1.2266130435,-0.897556852,-0.5073651183,-0.4813334815,-1.1839360497,-0.6069371546,-0.3692158931,-1.3447696809,-0.751455775,-0.2178508576,0.1017985795,-0.7649846997,0.204678302,-1.5006390331,-0.5847619995,-0.265692676,-0.7184717641,-0.8691118723,-0.6514126817,-0.2031771638,0.0795351999,0.0109439024,-0.596938922,-0.4176534863,-0.7145275046,-0.8616365958,-0.9678478131,-1.4168804282,-0.6854646611,-0.6342476722,0.3154625363,-0.227093914,-0.4708235051,0.0920175385,-0.3902605333,0.3777280408,-0.0888224376,-1.2555231382,-0.0038817704,-1.0600802,-0.0017325789,-0.1041460993,-1.1787123021,-1.0727234643,-1.6116154416,-1.4311897712,-0.4715817752,-0.9522357136,-0.9331009565,-0.7059250199,-0.8873862452,-0.2447581888,-1.0583017437,-0.9109483632,-0.1434434307,-1.1083254592,-1.8347087299,-0.2724165501,-0.5616060858,-0.6061267271,-0.8660806184,-0.833296797,-1.1587223363,0.3051565843,-0.6866896286,0.4025790951,-1.1172661885,-0.371238079,-0.108970358,-0.8075905903,-1.0374269493,-0.5106150164,-1.0577652098,-0.284833555,-0.4092896416,-1.0816560592,-0.5483122926,-0.7224679272,-0.5033721698,-0.6850734119,0.2876433838,-0.9582263253,-0.6017409763,-1.844411386,-0.9947684346,-0.1736734828,-0.404279868,-0.7222990079,-0.7168037822,0.0031537538,-0.6291302109,-2.2332410525,-0.2436605867,-1.0254683151,-0.6879917352,0.0739928012,-0.9954546997,-1.0653620059,-0.8578373293,0.3583515823,0.2358197354,-0.7873137204,-0.3237453827,-0.3811006769,-1.6285933056,-1.3635215167,-0.1607996932,-0.4065474956,-1.3037137657,-1.0973563436,-0.7689918585,-0.4179653325,-0.325554517,-0.1718403996,0.2014353484,-0.6487977999,-0.4860735867,-0.2381958755,-0.3603272933,-0.8798277112,-0.8572444068,-0.1808905088,-0.8688795961,-0.664057273,-0.612967235,0.0310281228,-0.9828934641,0.2431216791,0.2910731106,-0.8846812086,-1.6019068049,0.271200219,-0.0616368796,-0.3193799311,-0.1644672886,-1.4970315584,-0.4805114605,-0.1680391492,-1.1388670855,-1.5761594547,-1.0912546966,-0.9176313863,-0.4105469056,-1.5912263902,-0.8493191611,-0.2220196546,-0.8008558765,-0.5970450656,-0.7551380839,-0.4132527491,-0.6068789516,-0.3842710394,-1.5858414782,-1.4147415838,-1.0251765334,-1.1097587771,-0.2776773512,-0.2544426087,-1.3290403914,0.1066541955,-0.9672389715,-0.6286008919,-0.2657804429,-1.0520599798,-1.445125807,-1.766413494,-0.9666891669,-1.8574300671,-0.7292016358,0.0775772744,-0.9661822002,-0.5871645578,-1.5012440245,-1.8505089214,-0.4385362703,-1.4830860961,-0.1596975713,-0.8213520066,-0.0159041494,-0.3780735876,-1.2153263607,-0.3809430288,0.2564001112,-0.4738661732,-2.0951183995,-1.1424510829,0.2286806868,-1.9826117794,-0.6404099004,-0.5288513396,0.3499366211,-0.8783299576,0.1828415279,-1.0712430318,-1.1775570142,0.0054443758,-1.8898493271,-1.824741197,-1.448638429,-0.5200577959,-0.8160116345,-0.3429315435,0.2542150162,-0.4416402813,-1.0823456876,-1.2687823752,-0.3701512091,-0.743385274,-1.1583423642,-0.978182121,-1.047728713,-0.6907727178,-1.7215987868,-0.0192516306,-0.0702418436,0.0469448823,-0.7009323537,-0.7967339402,-0.7265422809,-1.3135459706,-0.4180858432,-0.5747339876,-0.0885979805,-0.7986324184,-1.6600601352,-1.5174188722,-0.9684207571,-0.9320965887,-0.6758544434,0.0477862469,-1.2841368307,-0.4628032421,-0.4499458833,-1.2504770548,0.2359766559,-1.3216849817,-1.1362873334,-0.2900196866,-1.512030044,-0.0050143508,-0.6227240424,-0.5602838884,-0.0418077469,-0.4084227542,-0.8539743773,-0.4945672154,-0.0559500753,-0.020747456,-0.723664382,-1.3418463003,-1.4982116547,-1.2018638745,0.2721740511,-2.0301323195,-0.5169981771,-0.2546354429,-1.6283927223,0.3602184875,-0.4466846621,0.8950131097,-1.0466649656,-0.532055134,-2.398750912,-0.5460021561,0.4119071524,-0.0839340226,0.0827419591,-0.2549330644,-0.95043716,-0.1824443937,-1.3838310596,-0.5639179301,-1.0017966241,0.8971667796,-0.2016476332,-1.6059087478,-0.1425154827,-1.3418406461,0.3677162707,-1.2181486756,0.5055207952,0.3171910706,0.4146566005,-0.8546898122,-1.0518978357,0.6106984542,-0.4605826976,-1.0307103503,0.575451738,-0.3774773956,-1.130088623,-1.8975808039,-0.217930114,-0.5892549371,0.2455574882,-0.3274783667,-1.6397324311,-0.8348436425,-0.6145267026,0.8458729732,-1.6781170391,0.0624599222,-0.1619408321,-1.1878044159,0.8007868995,-1.1180667082,1.045244279,-0.6946511305,-0.0693292442,-0.4129725376,-0.0106425057,0.0513998358,0.3780104757,0.1897315311,0.9142081775,-2.2642267707,-0.5018940687,-1.2475679808,-0.4198941845,-0.9740727935,0.1705297764,0.6363526642,0.351603207,-0.1284036347,-2.1415111415,-1.4063251711,-0.3823895964,-0.5770801817,0.3305871778,-1.8194465648,0.3560614559,-1.8717251023,-1.1515696927,-0.627302321,-0.7496947757,-0.148530981,-0.6540999841,0.7135188542,-1.8798705721,-1.20545506,0.1913736174,-0.217110606,-2.0724157176,-0.6569792432,-1.0991855994,-1.5731580694,0.0191216846,-0.0322313794,-0.0554022409,-1.029650558,0.6462123225,0.373078844,-0.7065334145,-0.0690575036,-0.535672119,-1.2758514664,-0.227172625,0.4048835416,-0.9530674694,-1.1810157521,-0.0154707159,-1.2160231556,0.5363338585,0.3118319772,-0.2271870347,0.7765495922,-0.021652548,-0.1518065318,-0.2569514612,-0.295114129,-0.8714691701,0.1655894995,-0.3536443997,-1.1985045394,-0.1370221086,0.1751974052,-0.94698898,-0.9322328687,-0.4114673076,0.3145760061,0.6963865905,-0.4920501718,0.7138600179,-0.1762364571,-0.6321192847,0.4325178848,0.2491423621,-0.1798214266,0.1566826885,0.4374501727,0.2246391814,-0.4616033113,-0.9299425518,-0.6469299888,0.4710734407,0.0422425344,-0.5138263064,0.1155949212,-1.1656997714,0.1063211972,0.267783078,-0.0747123629,-0.8905698864,0.8431799896,-1.296392684,-0.974884391,0.4014960155,-0.2232091734,-0.426345121,-0.0631579868,-1.1153291631,1.1557971598,-0.4772528483,-0.2105835705,-0.6679672401,-0.9105412521,-0.8915386113,-0.0274877649,-0.6263576655,0.2630597871,-1.1892764809,0.1938959612,-0.2803858109,-1.0558509039,0.5342077006,-2.0153277218,-0.924296038,-1.0518304644,-2.1979561472,-1.7311737818,0.5887706124,0.2753916356,-0.2653507567,1.4962257068,0.4410470993,-0.6525761407,-1.4758142488,0.3752410376,0.3579535851,-1.7261847885,-2.5281026748,-0.1846194505,-0.2998150017,-1.0177885517,-1.252741494,0.126400516,-0.2025684808,-1.310142875,-0.2853720796,-0.6041396117,0.7009260057,0.202021195,-0.3240676132,1.4272877355,-1.0074647592,-1.0490130401,-0.7035351292,-2.1339067939,-1.4957359754,0.3219653334,0.1278488936,0.7108401494,-0.2441738978,0.4380290675,-1.0559565246,-1.1663825931,-1.8213501893,-0.9210381626,0.3628104627,0.1897471483,-0.3026127947,-0.8581927478,-0.7774151687,-1.4614331277,0.4204646176,-1.6333807215,0.6699838577,1.3538274215,-0.8528722654,-0.4956775157,-1.7346552982,0.4424221093,0.3604019539,-0.091048616,-0.3238047337,0.5071266584,-0.7953983297,-2.0893329889,-0.0228675717,-0.8772865918,-0.8402598027,0.1865892737,-1.665760634,-0.6848391136,-1.3336702758,0.0844758816,0.8224826653,0.1198908866,0.4274983497,-1.3795472865,-0.5421934863,0.4186312833,-0.2181682123,-0.0131305514,-0.4780249354,-1.2966277207,-0.5458477552,-1.6665033875,-1.2212064906,-0.3570516523,-1.6007463855,-0.5661503579,-0.0490990515,0.0184649027,-1.232529509,0.6922441788,0.0937002965,0.5558936385,-0.1533977951,-1.132589988,-0.7299806508,-0.3278439543,-0.3166040084,-1.1600618749,-0.8255740699,-0.8704611755,-1.4674537081,0.1091735808,-0.808623416,0.760519847,0.3594128196,0.6922890768,-0.6443228118,0.0116258025,-0.3264844612,0.1011159631,-1.043004309,-0.3590022729,-1.0756023367,-1.4276542082,-0.5912020831,-0.6121990801,-0.3223119597,-0.1096302674,-0.4389500186,-0.8547870974,-1.4143187727,-0.2537658593,-0.0525991265,0.8941007783,-1.1450208938,-1.1413691323,-2.078372584,-0.0541809452,-0.6651274412,0.365157713,-0.4976574864,-0.6342135338,0.0544368794,-0.4722463062,-0.9424234218,-0.1213209239,0.5545887063,0.2806996102,-0.262135801,-0.7853070482,-1.948656988,-1.9936611336,-1.3588859312,-0.9792111107,-0.1769027935,0.5773753363,-1.5722957212,-1.0794442673,-1.3936774936,0.6641522942,-0.1717758791,1.3107520517,1.3993501135,-2.348193247,-1.1057808616,0.6339267983,0.8531398565,-0.5975209773,-0.1013363591,0.7839833106,-0.7591991132,-0.3007348395,-0.5047336258,-0.2027260482,0.7284826381,-1.4015395166,-1.2023255598,-0.3564933531,-0.1609939818,-0.2230365096,-1.5804770784,-0.2299028533,-0.8620824486,0.1547120123,-0.6868082908,-0.9925978749,-2.5004693045,0.5152606546,-0.9306068277,-0.8322030366,0.393122738,-1.015704422,-0.1184236432,0.3289590928,0.0936505398,-0.2062764658,-0.3542763615,-1.7970968415,0.7326425122,-2.3681309142,-1.2409034823,0.7176817096,-0.2103539366,0.0545372079
   -0.9203892478,-0.3599641924,-0.9462588267,0.0247610528,-0.4849903785,-0.7574318283,-0.3940610081,-0.0841637791,-0.9570566722,-0.4870506999,-0.6805289165,-2.018739009,-2.4900899061,0.3663321663,-0.019075666,-0.6221647399,-0.3808650565,-0.1360736362,-0.2553040553,-0.2822808387,-0.105139491,0.5921906358,-2.1167717908,0.4034124396,0.8668941839,-0.820555609,-0.2865549876,-0.043702151,-0.3270189181,-0.0542309497,0.1503007439,-0.5114251126,-0.7770184748,0.0275226824,0.7552981814,0.2743727379,0.5587952958,-1.4516881699,-0.2453542827,-0.4790692929,-1.7227335433,-1.6880016211,0.1822951323,-1.0439260713,-1.7129411598,0.3856325986,0.9658728382,-1.6240589213,1.2111071448,0.0967722356,0.0455231953,-0.2718477319,-0.4461486033,-0.1136769098,-0.3750761541,-0.9549815794,0.0833489753,-1.0639146201,-0.150934666,-0.3578187176,0.4859102672,-1.4926753498,-0.7134586767,-0.2906521446,-0.6965063023,1.326433695,0.119739563,0.6341262306,-1.5627891558,-1.4425170597,-1.1623436755,-1.4962593414,-0.6085573373,0.3242302393,-1.1285925202,0.4502505839,-0.1698154049,-0.4552219666,-0.2649969788,-0.0178071421,0.4262912544,-0.4997852562,-2.0237238312,-1.226678353,-0.5257355024,-0.1003688306,0.7662740451,0.4378727876,0.779800205,0.3739732004,-0.1248267528,0.9308594864,-0.593628089,-1.9590638204,-1.0572551658,-1.7690420976,-0.3670328764,-0.445167066,-0.5215906802,-1.2258145295,1.1611764597,1.0771609513,-0.3693584222,-0.3173655974,-0.1647591788,-0.1377110261,-1.0911326581,0.204804075,0.3039437466,-0.0509002857,-1.5571500906,0.0621784032,-0.4121961561,-2.1560421477,-0.3471199339,-1.5943825105,-1.1750727245,-0.4695846337,0.9118156882,-1.6246294797,0.1099029384,0.3064738421,-0.8560544457,-0.3685303232,-0.2909488472,0.0633917415,0.0937437719,-0.3486915504,0.2253870489,-1.0574905796,-0.2741096333,0.4024024846,-1.2941985266,-0.8675809198,-1.0426960692,0.1303263289,0.1495738467,-0.0782050194,-0.9997620768,-0.9678244144,-0.4120488106,0.0320101475,-1.7880036903,0.2553457535,0.3862480794,0.0164455823,-2.4581953396,-1.8236236836,0.1432215101,-1.4414936133,-0.5721933398,-0.0109771098,-0.5053744987,-2.1159422713,0.3778102435,0.3417709114,-0.4420814968,0.0528183707,-0.8843860708,-0.2365486559,-0.6520960641,-0.4278472357,-2.2360662066,-0.07055424,0.1028312087,0.2383096578,-1.6339963949,-0.3693091723,-0.9556063578,-2.117020515,-2.2632525158,-0.2276470862,-0.2249732424,-0.2154101818,-0.2147475854,-0.0362670247,-0.3663665634,-0.5983652073,-1.4047879842,-0.1167442409,-0.6460588866,-1.0891600524,0.3410099347,-0.1389653132,0.1125673436,1.2643881805,-0.4406549833,-0.5359933184,-0.3773816867,0.2191567247,-1.5947234989,0.0488020821,-0.5937885293,-0.8391096322,0.1924840953,-0.4347303116,-0.6023435407,-0.3087926087,0.87556319,-0.5197333737,0.9067273651,-2.2490509956,-1.1970381424,-0.780272964,0.2738114774,-1.236047909,-0.4554792491,0.8004414571,-0.1294547944,-0.2744658633,-0.1525668042,0.527730969,-1.6277177375,0.507981902,-0.1002731994,-0.2847653847,-0.8536637316,-1.4428030881,0.6623847934,-0.599886048,0.1240987342,-1.092465295,-0.9025493257,-0.6431953246,-1.192349811,-0.8191931986,0.0175725776,-0.8246681695,-0.2161300089,-0.1828831074,-0.5994828001,-0.0105746234,-1.3491250631,-1.2246828196,-2.1607710202,0.8946580904,-1.4918282752,0.9353603043,-0.8266356316,-0.7900800718,-0.6364991228,0.3673959345,-0.0730157938,-0.1278980268,1.1468026262,-2.0465238637,-0.2145410866,-0.6528434785,-0.3787157319,-0.550702094,-1.9471774462,-0.8297028935,0.0227099409,0.1792953665,-0.5593089423,-0.7209664035,0.2539271099,-0.3152673366,-0.1656392023,-0.6559485255,0.9133435841,-0.695364373,-0.0455209667,0.8558754469,0.0931659443,0.9709454955,-1.2534124526,-2.492003462,-1.0391053419,-0.8804295063,-0.1044077727,-0.757164408,-0.7883671964,-0.0035491086,-1.2785382433,-0.58409651,-0.5487288231,-0.0763763757,-0.4287948628,-1.4291475273,-0.5322455332,-0.6383239575,-0.1671282798,-0.3298727878,-0.1789298675,0.7600917085,0.5275629924,-0.0345716485,-1.0472820548,0.6622108681,-0.2817909143,1.3313110807,-0.1217816287,-0.7874680983,-1.2421562507,-0.2517698123,-1.2122452455,0.1525283388,-1.7400354282,-1.7527303125,0.0194069705,-0.4830195623,-0.8551829877,-0.2848964458,0.0766298031,-1.1603229501,-0.9177942474,-1.4375453332,-0.4547464773,-0.8561939228,0.3795125758,-0.6903027563,-2.5542292076,-0.6814165663,-0.7946343322,-0.0064464608,-1.2479949662,-1.6530975377,-0.5249793475,-2.1768040067,-0.4561087368,0.0547320544,-1.2628942379,-1.1364967307,-1.0568397652,-1.2459722846,0.3482555457,-1.2269712481,0.3765301374,-1.7482449811,-1.5047670011,-1.4482438319,-1.5130973694,0.6134190701,-0.8022619867,0.1043048278,-0.4689056473,0.6302171471,0.3931273499,-0.4273902482,-0.7063410132,-0.7536003721,-0.9760996726,0.1846028081,-0.6945002978,-0.4559368215,0.6743615055,-0.3673054237,-0.7055425235,-1.2680670679,0.854092541,0.1173592092,-0.5159082778,0.0288144728,-1.0764319851,0.1637257267,-0.3635446682,-0.7361100308,0.0457681984,0.0601288882,-0.3830699752,-0.312908559,0.5891107994,-1.0162462,-0.4160833598,0.0203848916,-0.8873906051,-1.1951286258,0.2892775603,-0.9694802446,-0.3120595705,-0.3032933275,0.2573186277,-2.4087281351,-0.501496266,-2.2772855506,0.8924428946,-1.142400684,-0.316332221,-0.4829621378,0.3325868816,-0.8293350189,-0.5767698355,-0.3510667598,0.5114237629,-1.4135032158,-0.0842030587,-0.3571123636,0.488765326,-0.7022109074,-0.515229009,-0.2512350528,-0.5171041458,-1.3786894412,-1.9489231112,-2.1680627309,-0.0778504117,-0.5693931171,0.3130793466,-0.7189773866,-0.8923740788,-1.5892756371,-0.2580504873,0.2834902,0.0263139507,0.9330930345,-1.5184395162,-1.2059052847,-0.8087914693,-0.8906880156,-0.7503002976,-0.7589399126,-0.4259105837,-0.3159019534,-0.9308748826,-0.8669064721,0.6066945271,-0.0846344311,0.0291195778,-0.4107737926,-0.0309794155,0.2703899253,-0.9680369092,-0.8797136795,-1.1075007083,-1.4158175335,0.3423053012,0.828767881,0.2305017655,-1.8020390127,0.125182196,0.3344071971,-1.4813513358,-0.9867360664,-0.9550669928,-0.0069859367,-1.0793394702,0.2629057736,-1.1315553648,0.740829475,-0.0894230376,0.6866849547,-0.0360760455,-0.9779323527,-0.8575331439,-1.9334312613,-1.8317805115,0.4012759398,-0.92884043,0.2045879396,0.199921604,0.8845567371,-1.452804189,0.0740955239,-0.1114424927,-0.3171705774,-0.8380542227,-0.1858713036,0.0486376586,-2.0018320256,-0.0812159991,-2.0873597139,-0.9183705803,-1.7007829967,-0.3461781299,0.0348254069,-0.343909919,-0.5808126788,-0.3264453966,-1.052842871,0.077888714,0.5609418346,0.5332568093,-0.8656015216,-2.0344698295,-0.630650902,-0.8270583846,0.223849319,-0.623523517,-0.3393462318,-0.0646540566,0.6545162971,-0.4754425232,1.2880726946,-1.2489780453,-0.9966144275,-0.0937769396,0.1676729635,-0.3743439925,-0.8074976876,-0.8234789124,-0.2535503463,-1.7012615852,0.0771199534,0.5259475878,-0.0224583935,0.3338114226,-0.3873413544,0.1103744217,-0.9089283163,-0.4742769304,-0.7372617651,0.127756303,0.9209400562,0.4634299049,-0.3320257163,-0.1909796353,-0.2703921955,0.5427889092,-0.8732217534,-0.7143313769,0.1866446098,0.0775450328,0.7290925003,-0.6282429882,-0.6633330783,-0.0033772757,0.8521704515,-1.3884620184,-0.4367348838,0.0197921302,0.4024702121,-0.4360982582,0.9568750415,0.0077573307,0.3636379365,-0.5626751187,-0.6881422554,-0.5666235743,-0.2889790376,-0.3478797691,-0.0213724953,-0.2405250227,-0.1292151982,-0.3370891286,-0.2642942677,0.5532380268,0.1105529123,-0.6090067467,0.6947535068,0.3862939877,0.0075489842,-0.1042208913,0.5200921996,-0.3409672189,0.5012413985,0.5898511302,-0.3900277922,0.2001235976,0.2108401698,0.079629918,0.1896779502,-0.0681887264,-0.244541055,0.0236592629,-0.4831999097,-0.5247494937,-1.0854348118,0.9732677142,0.190867454,-0.3924140548,0.6582704479,-0.4549994075,0.1534199301,-0.2867789842,-0.446842548,0.065836661,-0.5682249489,-0.9785998121,-0.8163435536,-1.4905777631,1.204742506,-0.1163943131,0.0575870513,-0.2770641206,-1.1216864795,0.0042577612,-1.1181209406,-0.4884695414,-0.5645313668,0.2593731559,-0.151046401,0.1076857867,-0.3993294602,0.7354327161,-0.2532883616,-0.0568510104,-0.0177861537,-0.4159291673,-0.0949595724,-0.4041203369,0.448570847,-1.0342346062,0.0812948621,0.7729011997,-0.2347631209,0.2161760514,-0.5764034971,-0.5875101164,-1.290354761,1.0649268129,-0.515453028,-0.8080360364,0.1528284097,0.0183330254,0.4050300171,-0.5977611892,0.0960124089,0.28081906,-0.0605070185,-0.5628814756,-0.4099898589,-0.6707062324,-0.8918123246,-0.2912037815,-0.2085729164,-0.1382149258,-1.0234158734,-0.2983029527,-0.0780315797,0.0041027996,-0.0701598979,-0.6051927897,0.2601026188,-0.328644047,0.1390571601,0.2627823007,0.0064686645,0.2506113837,0.0212998385,-1.224881946,-0.8014991926,-0.4947629582,0.1876942358,-0.7232093334,0.1476689415,-0.043897338,-1.4503460161,0.3789003474,-0.9168897811,0.0995301632,-0.1101050992,0.2523158917,0.1968779631,-0.882052812,0.60468936,-0.440932002,-0.72209509,-1.8914136535,0.6660058335,0.3561518614,0.1275558209,0.1772931966,0.1168637734,0.6778653576,-0.9317382469,0.0679975827,0.6615329019,0.244878852,0.0154713423,0.104087224,0.5059882683,-1.0278006314,-1.1308726203,-0.4566482305,0.3870700182,-0.0025066228,0.8147621377,-0.2001375098,-0.7603139101,-1.3104279373,0.358359338,-0.7097451252,-1.3321070017,-0.6337987595,-0.2509323619,-0.2595500789,-0.2238379584,0.1741455939,-0.0802687501,-0.2548361986,-0.6475696543,0.4457590622,0.157177816,0.2238672226,-0.1382023764,-1.684622998,0.0923952141,0.0964580718,0.6066063949,0.5257083091,0.6237049435,-0.9964489687,0.1240889381,-0.4921697244,-0.7683882454,0.5194137978,0.3056788595,0.3492984602,0.5739090665,0.3076223108,0.5186807683,0.1953997831,0.608584055,-0.7128311067,-0.1994099634,0.6304159728,-0.4581382597,0.5416095221,-1.9516390568,-0.3042718134,-0.4031069611,0.2750545462,0.8417895625,0.7697529232,-0.1431880781,0.1760886396,0.7125328027,-0.6929931215,-0.1312842227,-0.5883535177,-0.2999995573,0.5838422748,-0.6286303714,-0.5783722865,-0.4726184507,0.0096347628,0.213793685,2.2624825445,0.3575421787,0.5926233485,0.8516345235,0.4369173966,-0.2098589234,-0.4277034568,-0.3435771814,-1.2788694517,0.1951236118,-1.1114900933,-0.0072743169,0.2322422469,-0.8653894699,-0.8161773679,-0.3072404511,-0.6143703584,-0.0138733325,-1.2744983126,-0.1103534772,-0.4324585829,-0.3640816559,-0.3505723772,-0.4977063623,-0.213039055,-0.9882305675,-0.389435296,-0.7125638951,0.3340481451,-0.8849720406,0.2131011827,1.0465583102,-0.327367162,1.1481692327,-0.263986431,-0.225687415,-0.9931925265,-0.5342123889,-0.0192233142,-0.6752781345,-0.8432750729,0.2775109522,-0.3055565057,0.451028677,0.0491787655,0.8281016479,0.3315914446,-0.2961290432,0.3021907491,0.3216003771,-0.3840878018,-0.7753631039,0.1630606949,-0.3886616669,-0.8126537944,1.3515755497,-0.2229095402,-1.599523225,0.178614358,0.3519183052,0.7809304153,-0.2746973529,-0.3723972859,0.1646521831,-0.5226454266,1.0639657282,-0.6317319656,-0.1934521143,0.1940528356,-0.9286107112,-0.3980324165,-0.2818353655,0.4108560712,-0.6849207731,-0.6462260405,0.0971840547,-0.0458152762,0.1568203628,0.291173147,0.0506331765,0.7887105196,-0.7990784228,-0.8668951546,-0.1595424978,0.350687191,0.1143117025,-0.6709713169,0.109739807,0.8577133447,-0.2779813266,0.3260976265,-0.8023792128,-0.5618823974,-0.0396172758,0.0540440252,-0.2261707527,-0.2244144617,-0.8838759091,-0.3018318381,-0.6094993034,-0.3553003195,-0.7825320711,0.2543811699,0.5633259436,0.5560656082,-1.0083584908,-0.0097533485,-0.7110603393,0.0490551577,-0.6135837143,-0.4269659682,0.1098983744,-0.1479331829,0.0371853232,0.2092164495,0.4354508188,0.6506491193,-0.3900589615,-0.3739937189,-0.64216355,-1.3124508238,0.6054389649,-0.9879697392,-0.6701157857,0.0900001953,1.0055683335,0.5730309062,0.3005842232,-0.789296338,-0.3049401965,-0.9577176796,-0.6127580449,-0.8014362585,-0.687999019,-0.0582727398,-0.2324704972,0.2134091132,-0.0596926422,-0.0028590979,-0.9985446029,-0.9253259899,-1.0710614578,0.0123391852,-0.5505709568,-0.4151230167,-1.0929531315,-0.1401464408,0.1141225296,0.5641549985,-0.239751803,-0.1089566831,-1.1685150448,0.1127299425,-0.5813998131,0.1184457342,0.2443130066,-1.7565375598,1.0437968949,-0.4930533347,-0.6208722437,0.2590893444,1.2079023971,-0.7395733859,0.7829333316,-0.5799923256,0.1498484155,-0.1768407142,-1.2817557546,-0.8011376839,-0.2657914026,-0.1768449736,-0.5198962549,-0.7693262629,-0.8659508307,0.1126062184,-0.3564193924,-0.2726572811,-1.1928766315,-0.2922487428,-0.2556195804,0.5154165015,0.0741415107,-0.0992674955,-0.2549885984,0.5941906854,-0.7755966585,-0.1322078062,-0.5290505701,0.168227095,-0.4118308566,0.0726141365,-0.8056041369,-0.4513147429,-0.3789173291,0.56101618,-0.0024836344,-0.4353171251,-0.210047932,0.7570473304,-0.7145201671,-0.5098237714,-0.6142021751,-0.4306310312,-0.913482548,0.1151861749,0.1299582421,0.0480489544,-1.1860651128,-0.5380908481,0.3479005916,0.071999025,-0.5065242048,-0.7728963141,0.3346929386,0.1755553768,0.537385276,0.1779008673,0.0255287573,-1.8316243585,0.8765967047,-0.7588704486,-0.0867893978,-0.3389806017,-0.4236896456,-0.6074744135,-1.0245179362,0.0583334417,-0.0136983443,0.4167075422,0.2845537034,0.4572962394,0.4328577079,0.0364298583,-0.7335973904,-0.1648206192,-0.4053788997,-0.5281572468,-1.0539047794,0.2526564057,-1.1153788547,-0.4477563629,-0.7051778441,-0.799098604,-0.4784052191,0.518474694,0.4818995102,-0.8364948041,-1.9354248703,-0.015999313,0.1742234297,-0.7690833357,-0.2345598946,-1.1781620534,-0.5076146606,-0.4836357545,-0.1629272572,-0.4465056374,-0.2777284774,-0.8335964501,0.6855617167,0.9183519282,-0.7299042801,-0.8928824897,-0.3713114864,-0.1171598489,-0.8679530249,-0.512076604,-0.4166453699,-0.4163240889,-0.6153095824,-0.4040127746,1.0133548099,-0.5750294438,-0.4989305407,-2.0450135464,0.5396278909,-0.4427812234,-0.5700235293,-0.084001754,1.0948258943,-0.8544301245,-0.2792647015,0.3371347712,0.2196214007,-0.7736715703,-0.8429354575,0.1298822824,0.1459008515,-1.7784090979,-0.3148272585,0.3329528618,0.4416145066,0.7765752367,-0.8774904491,-0.1268958219,-0.200252598,-0.0586565907,0.1775429889,-0.0483549301,0.2543767912,-0.6504983728,-0.761133046,0.4329412424,0.6106774903,-0.4151225263,-0.843960644,-1.192910627,-0.876071566,-0.8064177586,-0.4136102504,-0.373452259,-0.6283056402,-0.5445781358,-0.4677304601,0.5371187261,0.5088310535,0.6717018577,-0.8513128219,-0.1504822519,0.5952514429,-0.4511921052,0.3723699304,0.2650438092,-0.4992927993,0.5748853413,0.369506229,0.6609976652,-0.2930889265,-1.1418098729,0.29102131,0.1291241375,0.1429102436,-0.5224458261,0.7620789898,-0.4426831882,0.4681442812,-0.8528022509,-0.1050867432,-0.563515899,0.0682368547,0.2410690133,-0.4592390048,-0.3075570594,-1.2381341976,-1.7437161772,-0.4344280898,0.4113681104,-0.1551551221,-0.620630295,0.1684212769,0.0339560142,0.3096871365,-1.0586538984,-0.7533807872,-0.5372424158,-1.2022099365,-0.4334344289,-1.0241285842,1.3435474025,0.3191940041,0.2465793484,-0.0584011915,-1.2791197089,-0.4292379666,0.0789995189,-0.6399369287,-0.347807724,0.4255023173,-0.9001222423,0.4012067107,-0.0517156361,-0.0845141635,-0.5661571246,0.258158947,-0.2283446605,-0.4611542192,-0.5892969052,0.3445155653,0.4899488122,0.2329325859,0.4062114006,0.2590491633,-0.6931575538,-0.06778678,-0.0265773769,-0.8284648231,0.5717635557,-0.3915323034,0.044518705,-0.1303800024,-1.0493806056,0.0619083986,-0.0861892636,-0.0923214136,0.0850136021,-0.5348393812,0.5980026332,-0.7149285773,0.3439100672,-0.3468949549,-0.9015827002,-0.9001334203,-0.695230078,-0.4153844863,-0.8805029283,-0.1515983914,0.6504542746,0.2927805345,0.2736133555,-0.1652260603,-0.6853515272,-0.2992761067,-0.0925967176,-0.9487495271,-0.3028598545,2.0513027088,-0.4001530342,-0.5704629501,-0.0585027008,-0.4665298215,0.4122305041,0.1097787501,0.4167207647,-1.3837572047,0.2188185327,1.4180088818,0.1580685096,-0.7605718821,-0.8163756609,-0.3376479858,-0.1059248797,-0.1933606604,0.4573871092,-0.8427475389,-0.7847606118,-0.4164411139,-0.9094959609,-1.3944021443,1.1464972342,-0.3894707194,-0.2828420337,0.1327390209,-0.4870798729,0.6208936342,0.6202778363,-0.7467214224,0.3529885029,-0.4140821108,-0.7933074525,0.5133241045,-0.5637935912,0.4426555552,-0.9096353955,-0.5316587387,0.163840174,-1.3030822235,-0.1120546187,-0.4955785738,-0.0021943668,0.0516085505,-0.7861892836,-0.8314937478,0.3194682992,0.5394490716,-0.4738734749,-0.8084371848,-0.9230350974,-0.3691683343,0.4540516295,0.9772855021,0.1100779298,-0.6261484256,-0.9136404003,0.4178969304,-0.1167516699,0.0284503113,0.4069757402,-1.3792922383,-0.5754791484,-0.6262806014,0.5876219972,0.1935490911,-0.058713845,-0.6270154834,-0.8118238478,0.0398551202,0.061279966,0.2630196721,1.019979678,-0.2002168573,-0.7332641064,-0.6476621174,-0.1838933068,-0.0602455664,-0.8703370472,-0.2125450533,-0.4415068851,0.4861463606,-1.3137690555,-0.5299223622,-0.1250574329,0.5377665196,-0.0496068569,-0.0035782558,-0.2835859422,0.4964739943,0.5236375013,-0.2187676303,0.6479539502,-0.5029398477,-0.0217068136,-0.1496833776,-1.3115322322,-0.3369156819,-0.4853668254,0.7195589892,-0.0149774263,0.1705757642,0.1554897424,0.5182693145,0.0344767418,0.1902812115,-0.5059187756,0.4286948578,-0.5328642389,-0.4692421387,-0.288868772,0.4567207798,-0.716487684,-0.3809624603,-0.5886955049,0.1149348878,-0.4654662614,-0.8199891953,-0.57262996,-0.6722681882,-0.215624758,0.3557698315,-0.0634036819,0.1856344432,0.4076289391,0.4446560697,-0.2274208087,-0.0020262128,-0.6555417524,-0.655711632,0.750104713,-0.2588154575,-0.8009175476,-0.1089447322,0.2000124865,-1.1005393838,-0.2174542864,0.7638985714,0.5696322307,-0.1796199765,-1.1010437315,0.141866889,0.1111972634,1.061475284,-0.4840707169,0.127960058,-0.4849938988,0.31769507,-0.408826104,0.7527424559,-0.7850555498,1.0589633201,-1.7670193853,-0.3341583017,0.8478784192,-0.3998994344,0.1196412439,-0.7992629044,-0.5967281898,-0.5522158819,0.4247935617,-0.7754789326,0.0247489786,-0.6094889909,-0.7359794159,-0.7276864477,-0.7471481248,-0.0514774897,-0.5897611099,0.4522701766,-0.912943117,0.3456666369,-1.0542290045,-1.1194435391,0.1584729121,-0.9975225051,-0.7862505144,-0.5623696381,-0.0649127469,-0.4818405428,-1.3504955198,-0.4227277961,-0.6860747907,0.2809735831,0.7653475401,-0.1873212919,-0.3643670541,-0.8236144267,-0.1161217357,-1.9811913074,-0.87777075,1.0725918189,-0.8426788015,-0.2493978298,0.31087827,0.4574876605,-0.0098676283,0.0028557408,-0.5027153101,0.4488609143,-0.2153955328,-1.5812427098,-0.4895417844,-0.0728384008,-0.4485069745,-0.5228074005,-0.4707853155,-0.1179132834,0.3500377551,0.3658121742,0.0461506616,-0.5934529528,0.3919526245,-0.4573436936,-0.1895725497,0.239856279,-0.4022343673,-0.2696062779,-0.0444764625,0.2345253827,0.2842719598,0.0043959311,0.4248847819,-0.6283875463,0.4273055922,-0.3024133794,0.2732996698,-0.6138581641,-0.4478400299,-0.1478906598,-0.2742024616,-0.2936961286,0.2843716839,-0.7654285782,0.3974845763,-0.5457389662,-0.0288226026,-0.0634673119,0.4499287759,0.3673633091,0.8757728154,-0.4917705752,-0.9813840991,-0.0454465537,0.1329123846,-1.457319476,0.2994230189,-0.9132495274,2.1916059017,1.0428838046,-1.8674620318,-0.524021449,-0.5246489418,-0.2486253043,-1.0539562163,2.8130018461,1.155384918,0.0892341496,0.6760618273,-0.389128903,0.3899634207,-0.5571874063,-0.6868032186,0.1388564514,-0.4065678158,-1.486056198,-0.1151648811,-0.6916461285,-0.2338951422,0.2826334667,-1.5758231431,-0.0126486826,-0.5882638413,0.0011509896,-0.2802626917,0.5489071515,0.1472277716,-0.4447795472,0.1356531507,-0.5631002158,0.3412018402,-0.7496531347,0.2020784281,0.2815688442,-0.2566819898,-0.7548799951,-0.0026352856,-0.8521470948,0.2218712495,-1.7044974977,0.0119243308,-0.8825968671,-0.0380874868,-0.3092071665,0.488836709,-0.2825828768,-1.3752822776,-0.9388510567,0.5206272084,-0.3440235854,0.6111124051,-1.363461898,-1.7530756415,0.5501992185,-0.5996448631,-0.3993059781,0.4261860542,-0.5375893518,-0.1203638427,-0.0606818115,0.0996898928,-0.6515334968,0.31832018,0.0902729905,-1.04973274,-0.2462597705,-0.5581165564,-0.0650530486,-0.8064765618,-0.6473608284,-0.1550923633,0.4716676962,0.0042669817,-0.0435748224,0.8946913508,0.5219648689,0.8968520127,-0.809644944,-1.1899967351,0.6701795277,-0.1346295419,-0.5916757315,-1.3643543416,-0.6083688757,-1.3194428872,-0.2118621498,-1.7422015383,0.1930372369,-0.4167259713,-0.8835298033,-0.6664169446,-1.8877491728,0.1716119246,1.2865162188,-0.7339748692,-1.8181533301,0.7074330079,-0.6019987609,0.0528710462,-0.5272652064,-0.4689057292,2.0856762347,-0.449846349,-0.0534749168,0.0740114637,-1.0445374529,0.5659778623,-0.8633764362,-0.4854800858,-0.5092026991,-1.3862758305,0.1590610722,-0.0399720683,-0.4821128036,1.3307630465,-0.4251653112,-0.1777353621,-0.7446128445,0.4283860735,-0.1171232066,-1.8156500168,0.447385101,-1.0692519745,-0.8399610927,0.1737865328,0.8200201061,-0.1103816121,-0.1703460452,-0.4740921772,0.4683938217,-0.5379602951,-0.3992204809,0.0115760788,-1.0391995219,-0.3007066809,-0.6449187691,-0.529767335,-0.4355261256,-0.3680760409,-0.6747032068,0.3065858146,-0.0427363092,0.6720359324,-0.5204737553,-0.2675515531,0.1460654767,-0.3592862187,0.3533329855,0.3725636325,-0.5242149331,0.1366654405,-0.5444526277,-0.2842236356,0.0139716136,0.1941147504,-0.4476162716,-0.4687963424,-0.0123979681,-0.5741146737,-0.5012375984,0.1457111022,1.1118011391,0.4327189374,0.3265567446,0.4278056617,-0.8701553269,0.6515591997,-0.2243339039,-0.3121932726,0.9732144469,0.1759424439,-0.2275648497,-0.3924734125,-0.9454161402,0.224858252,-0.0041155994,-0.1620421661,-0.4253659545,0.097932869,-1.1528083046,-0.3542200166,-0.4059376117,-1.0572549335,0.4889768873,0.346365806,-0.3008328703,-0.9976936916,-0.0944470277,-0.5023841265,0.044727878,0.3050931255,-1.0817253922,0.33306713,-0.5328029633,-0.5414097087,0.5149044513,-1.550555733,-0.203555977,-0.5077536402,0.5888280728,-0.7365805234,0.6123642179,-0.4365164487,-0.6672776873,0.4481168416,-0.718325497,-0.3643888595,-0.6798969906,-0.4068030485,-1.2112041604,0.1159301917,-0.4874876983,0.2993283683,-0.9877378984,-0.7265980252,-1.2768229848,-0.6431452803,0.2509174819,1.2135621671,-1.4752703764,0.489779848,-0.4902488839,-0.5456366423,0.8300378719,0.236825435,-0.8191648914,-0.7154038171,-0.0093822312,-0.3968919825,-1.4133517627,2.1053621603,-0.3016624208,-1.0518989183,-0.3537273849,0.3253574241,1.4747655613,-0.4297694891,-0.7975937032,-0.5399406322,-0.791617527,0.5073977045,-0.0835440685,0.1554367174,1.1503037793,0.2671153751,-0.1876264942,-0.0217187717,-0.9055670748,-0.625728905,-0.2197509463,0.0532289537,0.1690075345,-0.7598080301,-0.235388556,-0.7257691029,0.0537694387,-1.3906206185,-0.2125826816,-0.3386706284,0.6152967209,0.5005955757,-0.2577883489,-0.2713191202,-0.1628626157,-0.7404113733,0.5380190752,-0.9781504537,-0.4177529082,-1.0779878891,0.4044381526,0.89378999,-0.5542328062,-1.2200042099,-0.4838928099,-0.9056163657,-0.9549660719,-0.3780632475,1.1355828924,-0.4813962896,1.187958022,-0.8044963558,-1.2677344083,0.041236824,-1.0173571527,0.057205472,0.1112651437,0.0127691008,0.6318687734,-0.4871964297,-0.6140316032,0.5805635736,0.7385421898,-0.3536833299,-0.295485221,-0.3613840662,-1.7799656466,-0.8094890894,-0.7414716917,0.48587714,0.5304627993,0.4126939514,-0.0630443358,-0.3312543754,-0.4760556379,-0.1987160588,-1.0035582749,-0.6700868625,-0.2772977562,-0.1044011708,-0.5716430539,-0.1910169185,0.4911024874,0.5231205152,-0.0009976311,-0.6196094282,-0.7700281089,-0.9406126855,0.7390971079,0.276463802,-1.0488516713,-1.0782035554,-0.5835439519,0.5710735053,-0.3067372158,0.2027277688,-0.896928079,-1.4740949558,0.5039282389,-0.345403748,-0.7192974387,0.0376363475,-1.2698280891,-0.1675002756,-0.7088048507,0.0076679129,0.4079588868,-0.3790554042,0.6313961144,0.0390227026,0.3308359996,-0.2413252942,-0.386712816,0.1691329361,-1.8040302563,-0.7986711616,-1.4576843608,-0.3808777953,-0.519456406,0.2487936669,0.4911515308,-0.5781989824,-0.4841362669,-0.4629118868,0.2481529768,-1.0151966432,0.574701139,-0.8165395801,0.0138242765,0.0579713461,0.0306772642,-1.0155130608,0.5202672949,-0.1185838155,-0.6622160392,-1.3565361036,0.6788198299,-0.6143909317,-0.7614866044,0.6542902369,0.5308853944,-0.3225482806,-0.6492385888,0.467189303,0.6793237835,0.0345982847,-0.3692883104,-0.4481489832,0.2898800243,-0.0481979026,0.7344995769,-0.9503190056,-0.513701946,-0.9613944864,-0.3894800519,-0.4688264119,-0.2259937916,-0.1792413868,0.3430219918,-0.1245604341,0.4099552386,-0.6338408416,0.7093639835,-0.620140914,-1.5401460779,-0.1856680652,0.3208960003,0.6276922997,-0.2847278331,-0.5416425499,0.1273746832,-1.461268006,0.3726676786,0.2074720163,0.4572328996,-0.799469303,-0.0194291663,0.6326613047,-1.8334735693,0.0644157483,-0.0814300942,-1.3941907857,-0.5312611685,-0.7673173308,0.6001145109,-1.1655968107,0.4287884808,-0.1351905867,0.0063526491,-0.0101029721,-0.046139275,-1.0339377868,-1.8706258389,-1.5936743639,0.5002958274,0.1680611982,-1.3910660055,-0.7926111506,-1.4749966211,-0.3975514338,-0.5398054375,1.0432702315,-0.354278797,-0.614306738,-1.3844833666,-0.5214767367,-0.416548893,0.0106243689,-0.4738389871,-0.8303495018,-0.2933771715,-1.2986069642,0.5710812839,0.4657076766,0.4261480552,-0.9025606861,-0.7097837772,-0.0858686927,-0.6282452747,-1.0863420081,-1.5131356237,0.0891402651,-0.3190214262,-0.4912944146,-0.7925159222,-0.2951062025,-0.9771333645,-0.1786076325,0.310445393,-0.1034506416,-0.5776604903,0.3944168147,-0.7310883119,-0.2137242445,-1.795539416,-0.2158375889,-0.353605295,-0.5735573471,1.0972133883,0.0135108479,0.5790336322,0.3447242655,-0.2723240453,-0.4792020727,-0.0463332665,0.2834057486,-0.9776724856,0.0910642188,2.1001970779,-0.0683567422,-0.3841373719,-0.2342855395,-0.3963372536,-0.5355001724,-0.4821130802,-0.3108048184,-1.3295473839,-0.541378288,-0.6087684573,0.2834755543,0.2281059313,-0.2117692149,-0.5867725233,-0.9881565705,-0.0912410409,0.1828352161,0.8163029851,-0.5452064473,0.3260086629,-0.7365112147,-0.6819220143,0.1919491106,-0.163851333,-0.1497810173,-0.8602943855,-0.7491844806,-0.737015978,0.1187229729,-0.6093787831,0.0258579397,0.2899472512,-0.8703126873,-0.3288126625,-0.921741148,-0.52973482,-0.0544903189,-1.083137109,0.6143638637,0.2217099408,-0.7536127444,-0.7242745708,0.0871968259,-0.1669508374,-0.5399451549,-0.0928118015,-0.4006774449,-0.1483362024,0.0243898264,-1.4651657647,0.5701930423,0.0768113521,-1.0521079295,-0.0058676488,0.3106936164,0.6435250327,-0.1739603587,0.7092953251,-0.3304147775,-2.0695146536,1.069154269,-0.936787,0.5145742847,0.2222414901,0.1396113568,0.0961996636,-0.452085273,-1.5918979654,0.6625762023,-0.8073625985,0.7842500556,-0.351869284,-0.326242253,0.0979224702,0.4254298758,0.6636146524,1.7212440776,-1.4347227285,0.0589407464,0.3096658845,-0.0131423079,-0.8522099033,-0.7015928174,0.7334291609,-0.3989569702,-0.6417439773,-0.4222568709,0.3377568261,-1.1107532525,-0.5748118649,-0.5073235834,-1.0386998704,-0.869766078,0.2097734871,-0.53628126,0.0175032172,-0.0745107529,0.4287915987,-0.847747771,-0.7108063214,0.1963672468,0.5718197778,-1.4850950314,-0.1629376011,-1.1905495311,-0.2918435223,-0.6109642973,0.0810923195,-0.2415122798,0.0102867466,0.3883696947,-0.5168220857,0.1113918217,-0.6236925613,0.2115612564,0.3024127341,-0.0756403201,-0.2988240715,-1.28400064,-0.918779514,-0.7100353278,0.2094786038,-0.4822090505,0.1026625336,-0.3626802972,-1.6776802639,-1.7346776536,0.7518203352,-0.5339628756,-0.097866686,-1.2858454699,-0.8707645196,-0.161868174,-1.2946967221,-0.9997359604,-0.2329437117,-0.2106071536,-0.044976294,-0.0246814162,-0.5392195855,-1.1598973525,0.4100623041,-0.4759160512,0.2551771044,-0.1014656962,-0.9292235714,-0.5520846326,0.2810944263,-0.7373866501,0.1692285137,0.4641702533,0.1373910649,-0.5587470274,-0.2992736228,-0.6776308355,-0.9472148612,-0.4957254741,-0.1047683312,-0.6165796288,-0.7312320478,0.6756671561,-0.0866009803,-1.5327282634,0.1159670256,-1.2272659036,-0.4597018958,-0.5495074484,-0.5032344474,-1.4501842519,-0.3965287529,2.1383108972,-0.3715039673,0.8399656809,-0.7646574202,-0.3096887809,-1.0482439727
   0.0315363979,-0.4694095856,0.0730338026,-1.4261307396,0.2609349356,-0.638704862,-0.4803223764,-0.7284131895,-0.877547356,-0.464738946,0.4748415899,-1.2342024739,-0.5993904059,0.5451493685,0.472432509,-0.5607576709,-0.4537903319,0.0968229651,0.1436985504,-0.6655747341,-0.6421829895,0.1253052912,0.4161893212,-0.1788727672,0.1453466812,-0.7637476549,-0.1895817786,-0.2859285497,-0.4998787608,-0.2132282111,0.41075856,-0.4840443227,0.383585601,-0.5659825781,-0.6392481211,0.4854426983,-0.3220184773,0.0318911905,0.0724846898,0.2813667603,-0.8296591881,0.1244461629,-0.6525077696,-0.3693328254,-1.1019497619,-0.1616609417,0.2769436773,-0.5331911322,0.364944962,-0.1152674157,-0.1812038138,0.0471862647,0.9071244323,0.0674449993,0.7974180937,-0.0363906007,0.3443326223,-0.7362361424,-1.6900508519,-0.6134799713,-0.3699535444,0.4351698713,0.5842644285,-0.4251333174,-0.4464327459,-0.2151459692,0.5466341528,-0.0484598558,-1.0281461644,0.0850185533,-0.4636684433,-0.1017610508,-0.1683425127,0.6916226211,-0.5200373275,0.1895164779,-0.7240107497,-0.1933176678,0.1329084428,-0.6407670693,-0.3421944772,0.6029750774,-1.6831393348,0.5544659012,-0.6588154045,-0.2294155847,0.5250000782,0.0170439844,0.6416955592,-1.8254093521,-0.6677521919,-0.4111318393,-0.4131895544,1.348197187,-0.2930031456,-0.6370006126,-0.5770803532,-0.3704339567,0.733811857,-0.5030737036,-0.6567786337,-0.7833958401,-0.5080588801,-0.5083973084,-0.7991104027,0.097606203,0.0204840976,-0.4234835468,0.0773415239,-0.1023898546,-0.9287202767,0.1314196906,-0.6388620239,-0.6364720141,-1.0117157505,-0.2677207136,0.2347888471,0.9388486207,-1.0306110553,-0.6479768689,0.2300480866,-1.1845795616,-1.0018664172,0.5406211171,-0.2433921897,-0.0734493864,-0.2560043814,-0.0853228767,-0.64092478,0.1116536385,-0.9764498242,0.6010810721,-1.0085526433,1.1551253181,-0.8001622363,-0.261631307,-0.6675497007,-0.4464715708,-0.0938700886,0.0134831652,-0.1292279294,-0.7684974154,0.0651847952,-0.231420738,-0.4344437281,-0.9678030734,-0.9767421476,0.289035176,-0.0059601944,-1.3130544652,-0.2896389495,-0.8365714697,-0.3020958698,-1.1205517505,0.8053172231,0.186114528,-0.6809865212,0.4041860211,-0.2833384927,0.1022056988,-0.3696808323,-1.23957378,-0.3595814024,0.6317864932,-0.2544821393,0.2730464783,-0.7403063573,0.4998761931,-1.1229685142,-0.3572712432,-0.3600681414,1.4454375889,0.6055123808,0.951135978,-0.3220107847,1.0117142189,-0.2193284298,0.1864677463,0.2774252724,1.7791892632,-0.8284978474,-1.3442494934,-0.4068809964,-1.2487113683,-0.3545182413,0.350845767,-1.0725055022,-0.1182545228,-0.5430685766,-0.0939797009,-0.2056093448,-0.4351215803,-0.1627177625,-0.3848949607,-0.8713560185,-0.2115357675,-0.6520634015,-0.6200187025,-0.8332533838,0.1218463865,-0.6660999826,-0.6360642954,-1.4865857485,-0.5566469837,-0.609237618,-0.3732118841,1.9767300214,0.1473422896,0.3038698407,0.0471116295,0.3480687208,-0.6154102581,-1.3264169189,-0.1213201913,-0.5360436265,-0.6978104664,-1.0173168924,-0.2849701624,0.5100939516,0.0642711945,-0.6490741416,1.0333803645,1.7407867262,-0.4560960837,-0.4837210476,-0.5959517698,-0.2433062584,-0.3814162224,1.9138121611,-1.0138409848,-0.2196439966,-0.3155513432,-0.1110895246,-0.601616306,1.0026738601,-0.3180796254,0.262583351,-0.7528037758,-0.1775586276,-0.8045713694,0.6717784493,-0.4523588912,0.081224187,0.5141147454,-0.463477552,-0.1236609978,-0.7569866223,-1.205906163,-0.0488006975,0.6659228262,0.2064443852,-0.506296511,-0.9934780358,-0.5627633523,0.6306768307,1.6063158152,0.0876775108,0.3208000113,-0.1089695924,-0.5681982397,-1.4818209589,-1.4246972659,-0.1670653213,-0.6887113016,-1.1305706638,-0.1691459249,0.6868125489,2.3590023687,-0.8713460785,0.0592138979,0.0168735778,-0.5432095115,-1.0914107694,0.0061966892,-0.7707485786,0.4693968871,0.4554312013,2.9729156959,-0.8150231137,0.5214546368,-1.1380748123,-0.4035022221,-0.8714266211,-1.415695281,-0.3695931803,-0.220599177,0.3992081979,-0.5260695762,-0.1743898216,-0.7227979583,-0.8223966671,-0.7740798118,0.4612206329,-0.2779857976,0.1974423634,0.9640843477,-0.5956766454,-0.6752488291,1.2124302193,-1.0131997983,-0.4176929634,-1.2386091559,0.8267876459,-0.8470631326,-0.4586110212,-0.0484903726,-0.4415878629,-1.1267560246,-0.347998223,-0.5225828219,1.1589493958,-0.337514948,0.0118999584,-1.0790345561,-0.3047355368,0.6139224488,0.099178306,-0.2275152541,0.2562506006,1.1885744864,-0.2137444384,-1.0171084287,-0.6255352234,0.665018294,1.7490934475,0.30164147,-0.093947857,-0.5831086853,0.5279057443,0.0486369247,0.7109813763,0.3201204941,-0.7102652204,-0.0057173869,2.1179518565,-0.0674943804,0.0011306577,-0.9216164656,-0.3848842117,0.2482871675,-0.2072608434,-0.5403189349,-0.4736263206,-0.8019457704,-0.9271663723,0.1549843046,-0.0495546105,-0.287521852,0.3181299639,-0.1286383114,1.9431667602,-0.5638600616,0.0605566456,2.0594431664,-0.6113322956,-0.1747990053,-0.7535279131,-0.9190102692,-0.2606259328,-1.191427996,0.0731079691,-0.3841944488,0.3154825756,0.3110973529,-0.036181866,-0.3616031001,-1.2125070016,-0.284478874,0.0957901161,0.3906671211,-0.3614862008,0.3158884849,-0.7636298974,-0.3283686937,-0.7735363458,-1.2160596043,-0.1902627614,-0.7814061684,-0.0164429212,-0.3117821906,-0.4313507968,-0.6926817472,0.4243817278,0.0442026285,-0.7227580077,-0.8289675609,1.8577296203,-0.9351966132,-0.0449542347,0.1184783135,-0.342208641,-0.6987981901,-0.1471409007,2.4304544426,-0.4563248587,0.102858694,-1.0507652856,-0.2694109356,0.4588147695,-0.3477169839,-0.3886113095,-0.68233069,-0.3154024514,-0.404491346,-0.592317947,-0.347278074,0.0604588218,-0.7246813852,-0.4935008367,0.0498735194,-0.6807170187,-0.1369113377,-0.6244194268,-0.0268629709,0.4832160692,0.6822196941,-0.7475680878,-0.2128534424,-0.1944317961,-1.505913778,0.0710599491,0.1326089382,-1.1244047105,-0.0381653428,-0.0681131004,0.1203764467,0.2645380041,-1.2446259713,-0.2693904768,-1.0253424546,-0.3800074525,-0.6663042269,-0.631231775,0.2795454181,0.1039353593,0.3369462242,-0.2775164274,-0.6560298616,-0.2036875409,-0.0135040979,-0.4791441445,0.0471674196,0.9214575873,0.022949486,-0.2808663575,-0.7600153347,-0.7677304677,0.4892664486,0.0419515559,-0.9867381208,-0.2544885797,0.86028349,0.3446525273,0.4329560855,0.3298555628,-0.1881585766,0.608861395,-0.6356339251,-1.1330546268,-0.1384283988,0.5260832074,-1.1046381076,-0.542385236,-0.6816148784,-0.9127045781,1.3619290456,-0.1178914878,-1.31378026,-0.3253326985,0.2799896489,0.5919695899,-0.6646166129,0.244799661,0.0806047259,-1.0127295684,-0.1186283712,0.726495659,2.3929659869,-1.0469349988,-0.7440306987,-0.8094808638,0.205059249,-1.075184297,0.3304872976,-1.145723365,0.252046872,-0.8963086541,-0.638205685,0.418339384,0.4305457087,-0.480013402,0.1331052529,0.0830720146,-1.1679248858,-0.5361867751,-1.0248928785,-0.1925608554,-1.1794985524,-0.4497755614,0.5661144647,-1.1459394219,-1.1988000371,-1.6517443692,0.0280364085,-0.0550576488,-0.1998205185,-1.1226382101,-1.7272483226,2.0052742008,0.1148665452,0.5305722649,-0.7692273204,-0.2090428669,0.0709203075,-0.5209282075,-0.7302660565,-0.0719667165,0.1809058884,-0.584774575,-0.1275545691,-0.4652178549,-0.736173433,-0.101331048,-0.6013648626,-0.000820648,0.4368122868,0.2829912222,-0.2989655977,-0.0503851629,-0.9036809281,-1.1115050961,-0.3580979256,0.0552930166,-0.6043347081,-0.9341925475,2.6876489199,-0.8694473602,0.0074125576,-0.6527887691,-0.0355769354,-0.3790004864,0.1294886927,-0.1362066764,-0.0664036503,-0.2315015589,-0.5069794599,0.1910793676,-0.1979533436,-0.9105922244,-0.6865377097,-0.1535216878,-1.0307401185,-0.2498019931,-0.4496501452,-0.3391143677,-1.134794953,-0.0092377137,-0.4234176325,-0.9155855596,0.2803145112,-1.1862307495,-0.0325826811,-0.9006331365,0.3742522626,0.1115681879,0.2366601343,-0.6040369564,0.1956311174,-1.0911062339,-0.5888297679,0.2380815708,-0.5293110385,-0.0281335365,0.2581453024,-0.7182622041,-0.3814416495,-0.5610898332,0.327018686,0.3098936034,-1.0232214619,-1.1621551293,-0.3971760585,-0.1746752303,-0.5246427346,-0.4182507119,0.2431548837,-0.5909448643,-1.1795760654,0.4469610252,-0.491665328,-0.6878312404,0.4582944357,0.70226742,-0.9716586501,-0.1960678385,-0.9505349748,0.0510261039,-0.7543037939,-0.6607036138,-0.6004901727,0.6725427389,0.2284686323,-0.3893239073,0.107606205,-0.5534756785,2.7033202949,-0.4313318527,0.5924662852,-0.2812416127,-1.7776852635,2.0846820849,2.0887002873,-1.7728724282,1.6291710454,-1.2469582433,0.1368556173,-0.6272953149,-0.7141491363,0.2410739594,-0.458541116,-0.955016807,-1.1105295455,-0.0837592817,0.4424619991,-0.7243123791,0.2707714294,-0.1596656392,0.1741337053,-1.2121496843,0.3806061261,-0.6871210231,0.6493394553,0.2892945728,-1.2322523698,-0.7365425171,-1.0262928373,-0.815781675,-0.838443471,-0.1072044965,0.0203674849,-0.2277414177,-0.4012099797,-0.3317305602,-1.0940025427,-0.8642041737,-0.1340008872,0.0288681146,-0.7265993006,-0.9022746355,2.2172856521,-1.4638918436,0.1675534523,-1.0438238804,-0.0309612674,-1.4871822013,0.1047513144,-0.885630509,0.5354536549,-0.1271602629,0.2672607828,-0.4360215106,-0.175742935,-0.7228570958,-0.5609555519,0.1424358043,-0.1507804241,0.1460996402,-0.6819268029,-0.4574258403,-0.0734275897,-1.623540404,-0.5669220285,-0.4114656377,-0.357585544,-0.3553515828,0.3486256188,-1.1103501497,0.3967164668,0.1191822058,-0.0370451343,-1.1354531552,-0.2781319187,0.2772236831,-0.0894136057,0.5884233211,-0.0770434501,-0.6059232758,-1.1893945364,1.681166089,-0.9501560195,-1.1842277984,-0.8405794181,0.2118015594,0.5383138981,0.4388479889,-0.3881002455,-1.1255828771,-0.4023675088,0.3711163671,-0.0962520986,0.1896876234,0.2370938465,-0.1687109189,-0.286674807,-0.7100242635,0.1004717034,-1.1528654673,-0.1914272265,0.4370046258,0.8823500354,-0.209003895,-0.3162664077,-0.6932532704,0.1819445756,-1.0551950664,-0.9292763248,-0.3359180972,-0.2737797871,-0.1394679549,0.4266863688,0.0413575552,1.8219599862,0.9212143584,-0.2598373469,-1.5693036287,-0.5911319039,-0.3631943797,-0.5928169188,-0.305436398,-0.0396398522,-0.5701523572,-0.4126219035,0.4659047233,-1.4088553989,0.4270777496,-0.5550158464,-0.9034324257,0.2424978499,0.4193542949,0.3809742298,0.0858591533,-1.236832873,-0.2469038073,-0.6527065139,-0.485063135,-0.1924271235,-0.4283953108,-1.2701769038,0.0082230828,-1.4582351799,-0.7404035996,-0.2689750587,-0.3542704093,-1.0307889778,-0.0921108394,0.0214270919,-0.8933894867,0.0052420212,2.6079932819,-1.1555775699,-0.2453055928,0.2092365194,-0.0311922815,-0.8292196519,0.4172400618,-0.6859644738,0.182594944,-0.5454482695,0.2072317777,0.3032355353,-0.4251177033,0.16095896,0.2001345341,-0.3009312285,-0.3130670064,0.4459005091,-0.4949189424,0.6202006805,-0.835727446,-0.7257753206,-0.8266355986,-0.6601746001,-1.3723143945,0.0179299159,-0.3579244972,-1.2878688929,-0.6281710206,0.2514811098,-0.4120200546,-1.3439076058,-1.0023169307,-0.72905546,0.3784480334,-0.2920322584,0.0716866932,-0.0455102632,-0.0812599139,-0.5697826984,-0.5685266926,-0.5172355047,0.227734931,-0.8764826723,-1.0706676601,0.0109380176,0.5961662262,-0.404328867,-0.1452179187,0.103963799,-0.1621826906,-0.5970468971,-0.9638664584,-0.7270472044,-0.3287636083,0.5092439519,-1.0905095154,-1.3211033464,-0.3021547523,-0.1204005503,2.1260390447,-0.8834237375,-1.2613740208,-0.2605046226,0.221953458,-0.9003394977,0.0807330307,0.0486809837,0.5736337617,-0.5420839546,0.1619112615,-0.0664387632,-0.6046192845,-0.6628177985,-0.9712694461,-0.7474671997,-0.1187877138,0.0158477621,2.4039636609,1.0013562807,-0.5967062689,-0.5113141995,-0.9834345415,-0.4819729623,0.6326561549,0.4256973275,-0.8775719638,-0.5903382838,0.1109746524,-0.7994664674,-0.3207068148,0.696419854,0.5197249633,-0.4093454007,-0.521856699,-0.9379016715,-0.0449858667,-0.5595484815,0.0503435667,-0.7234733002,-0.0947099109,-0.0404754413,-0.1631397088,1.4141868039,-0.5590031899,0.1592259799,-1.2760546163,-1.2495560637,0.2088433915,1.5554604359,0.7558288183,0.3980560709,0.0499845108,0.0841454747,0.399399899,-0.4885547246,-1.1107005658,-0.1407274804,-0.5424380775,-0.6888505381,-0.1668570433,0.3383004843,1.4730075522,-0.110853453,0.1425626079,-0.1434441659,-0.8130312832,0.1391077839,-0.4475935851,-0.5023657805,0.4228032117,-1.1933908467,0.1427920923,-0.0912991617,-0.4381587855,0.1828836431,0.392775437,-0.6195312991,-0.4242247392,-0.211858311,-0.8736134303,0.1023824855,-0.5916305556,0.745596289,-0.2941274404,0.4467480689,0.1500656196,-1.0725214064,0.1739458893,-0.3247344876,-0.7999410148,-0.3426689341,0.1814981524,-0.4622838099,0.4280767323,-0.0170382161,-0.6754133005,-0.1270074813,0.4026419987,-0.220837103,-0.0606345453,-0.3671562991,0.0862830034,-0.1598802088,0.4760479374,-0.9097990171,-0.967973972,-0.293430035,-1.0890163146,-0.5349427586,-0.7733787301,-0.601514955,-0.695526701,0.1478325975,1.985844686,-0.5969893864,-0.5147203348,-0.1785196357,-0.6347374956,0.1941525306,0.6356150693,-0.8286426761,0.0402322303,0.9235492397,-0.674793548,0.1492302637,-0.1220609598,0.450292762,2.2143834318,-0.080982663,-0.6653762203,-0.2420833691,-0.5708527897,-0.2320400083,0.2445171993,-0.8460567319,0.0978252191,-0.0348117434,-2.2038231711,-0.8000385059,-1.4865371262,-0.4289071381,0.3745362957,-0.7790214926,-0.9262416259,-0.5752902702,-0.6986034689,0.3487424713,-0.4900493557,0.2529510777,0.003912264,-1.3545347937,-0.1124527388,-1.0154686878,-0.6882750287,-0.545041718,-2.0993125878,-1.1060436062,-0.9334042157,-0.1850387858,-1.5925333408,-0.0297133959,-0.5025543576,-0.4320347921,-0.9793602932,-0.3487514998,0.0071220838,0.0004308505,-0.3244736707,-1.2537485757,-0.9230015374,-0.37814602,-0.0970355631,-0.669438649,-1.2197188036,-0.9039482455,-0.0952966583,-0.8771900996,-1.1864225094,-1.381409926,-1.5283343413,-0.2990541809,-0.6880305455,-0.5703140417,-1.5797304317,-0.7883456363,-0.105901692,-0.9182721473,0.1264235649,-0.2239827541,-1.1217008812,-0.5109574325,-1.4317447717,-1.2933299542,-0.9263926033,-0.1648497618,-1.201034028,-0.9612428857,-1.857858483,-0.4131527323,-1.3212533363,-0.0859872704,-0.8554427559,-0.1949068029,-0.8063278045,0.0170587047,0.0957866383,-0.9232428424,-1.1292611061,-1.2317465831,0.3359914664,-0.9455256023,-0.5757233322,-0.6519413334,-0.3350994266,-1.5618848942,-1.4458445348,-0.3290854535,-0.7381277876,-0.7398245479,-1.2515665285,0.3550463677,-1.0194825349,-1.1920353965,-1.0043728078,-0.9397629776,-0.4161446928,0.2307833659,-1.5957070316,-1.3173522,-0.4960422282,-0.5835332229,-0.7545245788,-0.8165043678,-0.9881449091,-0.2965249686,-1.1491409749,-0.1072394893,-0.3918396093,0.0000106476,-1.1526025884,-1.0847291782,-0.1642759425,-0.8204963048,-0.690902677,-0.9661455764,-0.0329936218,-1.289889486,-1.0677395878,-0.5476564878,-0.974865716,-1.0819286341,-0.1536859479,-1.7264699062,-1.1390933301,-0.6613106176,-0.5985362043,-0.928124845,-0.7515158815,-1.3321781698,-1.7950935253,-0.4176382444,-0.6768836777,-0.2841098737,-0.2459962669,-0.1775372205,-1.6841805313,-0.6575283204,-0.9339150805,-0.2201933759,-0.5610281873,-0.6544314647,-0.9441531454,-0.8607124012,-0.6093382035,-1.3983557855,-0.0726647241,-0.5956124201,-1.405463913,-0.9025606755,-0.0056954579,0.1027340114,-0.5665996893,-0.0784556543,-1.4689177649,-0.5109967758,-0.602709407,-0.11526706,-0.4995504008,-0.9889539142,-0.6764374235,-0.6550949666,-0.3057987905,0.2020135582,-0.8937524061,0.0743695373,0.0842186122,-0.1938257295,-1.0861498889,0.240612332,-1.4448447547,-0.7078908996,-1.753396245,-0.8043199048,-0.0836689645,0.0127399976,-1.111909346,-0.6996814736,-0.6580631891,0.3932683893,-2.3663148902,-0.5885738389,-1.3536939082,-1.0518297773,-0.3501616308,-0.7192447244,-0.5605564263,-1.442951365,-1.1126132763,-0.1352421267,0.3112847974,-0.9145436473,-0.49903378,-0.3929972585,-0.240323608,-0.7213810295,-0.4425685206,-0.5143630318,-1.1442572034,-0.8097061711,-0.624061394,-0.54402974,-0.2040971634,-0.9765657401,-0.6728634629,-1.5598491059,-0.438064502,-0.7422629117,-0.3998597922,0.3243285147,-0.9896861967,-1.1866486543,-0.2191875768,0.0408136955,-0.1249857699,-0.9074713055,-0.9078793152,-0.84925318,-1.7080483496,0.241345038,-0.0332957948,0.1349711987,-1.6153896821,-1.3313301081,-0.721745727,-1.6392678661,-1.8194232204,-1.5451532839,-0.7392533481,-0.8251614506,-1.397301315,-0.3476193498,-0.6999088874,-1.5430245123,0.2448148357,-0.3890199696,0.3417246097,-0.8839251156,-0.7521023287,-0.9692120938,-0.7489670021,-1.5980372092,-0.3172612683,-1.60274041,-1.1986106438,-0.9370097014,-1.4666559123,-0.3476008624,-0.8068411155,-1.0486756073,-0.5550890194,-0.8235638097,0.2664507688,-0.8446733999,-0.8779274025,-1.8521883236,-1.2315014973,-0.5747807859,-1.3646878259,0.2514768343,-0.1118537876,-0.9637672534,-0.4215837448,-0.2136777487,-0.008503957,-0.9952284289,0.2036167606,-0.7236391456,-0.7288839261,-0.5747120129,-0.7552783959,-0.7617080749,-1.0350806521,0.2450324237,-0.9053274747,-0.6701247247,-0.9902308419,-0.8463305219,-0.9728406394,-1.7730596332,0.1658853722,-1.5842708333,-0.4703008582,-0.1109188194,0.0254868334,-0.9756873963,-1.2841508486,-1.2137878149,-0.7589680889,0.2489425362,-0.0665021542,-0.1688676466,-0.5653825626,-0.3357451252,0.2175081933,0.3479565007,0.0425294955,-1.3571432697,-1.4433901058,-0.1377440893,-1.82951845,-1.0630713124,-0.6283814256,-1.4951752912,-1.0307433483,-0.2507226458,-0.513508905,0.2163646446,-1.566509155,0.0638040595,-0.6158811836,-0.3883052174,0.1761567192,-0.5161495226,-1.5936944874,-1.7440389299,-0.6134034174,-0.5672355117,-1.5170376358,-1.4595835062,-0.6828221561,-1.2793263372,-1.4577888527,-0.3597215849,-0.594593592,-0.6129149638,-1.0432919628,-1.6050636069,-0.7873665581,-0.9116480298,-0.9586740377,-0.7449701636,-0.8658049018,-0.7496763086,-0.989727347,-1.1469127449,0.2737332512,0.07147332,-0.7139809611,-1.0928321278,-0.632748127,-0.0965300234,0.2535784094,-0.9852756339,-0.7265254844,-0.271414428,-0.8470739634,-0.4219126178,-0.3075367646,-0.8054778277,-0.5773427553,-0.5786817616,-0.7445508622,-0.6240872248,0.0566142103,0.2882028998,-0.0199110476,-1.7072493167,-1.9909566162,-1.067778019,0.0277790706,-1.394799449,-0.4759790789,-1.3556960752,-1.2802089846,-0.7396232919,-0.1541093187,-0.7827078497,-0.67874295,-0.6900824521,-0.273015772,-0.7371650508,-0.0159293547,-0.8164086546,-0.0750706951,0.2704551044,-0.9349803896,-0.6783436967,-0.6566457246,-1.5533698251,-1.0868619963,-0.7791070674,-0.954204729,0.2566385438,-0.6967587108,-0.6301319403,-0.108271243,-0.5793837693,-0.237376222,-0.9959740727,-0.2408961294,-0.1134869651,-0.3245746574,-1.1698357112,-0.7384725688,-0.4488400216,0.2719859113,-0.7021544892,0.1520566611,-0.2987236525,-0.2309077142,-1.2236767374,-1.1459838955,-0.8541645552,-0.8517130027,-0.2731873265,-0.4641691342,-2.0618083531,-0.7926864908,-1.3997409802,-0.5792338629,-0.4138625358,-1.351518413,-0.7693414118,-1.3981757831,-0.5938535903,-0.7835093148,-0.6465168623,-1.2821305419,-1.7523478151,-0.433925736,-0.8003857826,-0.9325054163,-0.3081286325,-0.0146862313,-0.7197726418,-0.9925263753,-1.5245639683,-2.042809159,-0.7765805993,-0.9310467074,-0.8945831848,0.0461560423,-0.4206625275,-0.1271302181,-1.2900552912,-0.4303380117,-1.0343942279,-0.88220256,-1.149636003,-0.3064565993,-0.5190015703,-0.7006499598,-0.9273465205,-0.9243372618,-0.154810973,-1.3495714489,0.1465486782,-0.2366532306,-1.3450737724,-0.5427208599,-0.9161153929,-1.8479195352,-0.9509224064,-0.3294024403,-1.1056336734,-0.4525861422,-0.9104190717,-0.7636570767,-1.0633594369,-0.9442145381,-0.7750328,0.2171276424,-1.2653750439,-0.3384959331,-0.6961557587,-0.4458475392,-0.7113463163,-0.9974650899,-1.1903075493,-0.3109308567,-1.1131969001,-0.4395275984,0.2424071829,-2.1708792302,-0.7562423084,-0.3672371611,-0.8304618888,-1.0062911377,-1.9182096106,0.1756489551,-0.9186609941,-0.8671715667,-1.1838105869,-0.465430783,-1.5803889192,-0.7567673145,-0.844255474,-1.0168142711,-0.3346829573,-0.0102773145,-0.4815974324,-1.1848483194,-2.0187467984,-0.8192814142,-0.621355364,-0.4681597176,-0.335527146,-1.9801216841,-1.389137246,-0.7023932979,0.2324910309,0.0960686326,-1.3287544509,-1.4777839193,-0.1569898512,-1.3923956627,-0.2164231177,-0.4267371368,-0.4752712361,-0.5395168701,-1.4707237533,-0.6557916091,-0.290282931,-0.6528757605,-0.8255269604,-0.2494710785,-0.3771668041,-1.0302593685,-0.7900547605,-0.5305307665,-0.6944235789,-0.4902126755,-1.6651168207,-1.5297240934,-1.2757187211,-1.6003040761,0.3405840758,-0.5719501351,0.2466313974,-1.4307927764,-0.1900574863,-0.858873412,0.3600656755,-0.7765566985,-0.861059308,-0.6349178653,-1.5755052781,-0.779299631,0.0137792571,-0.1972809565,-0.400062236,-1.5560960132,-0.2017073036,-0.4173246422,-0.7480050267,-1.0248827004,-1.4073374356,-0.9842506999,-1.2071907682,-0.1864626868,-1.373150757,-0.3667440731,-1.221248805,-0.7744233747,-0.1043751659,-0.5851047716,-1.4625056466,-1.0468141805,-1.0278399164,-0.6683798188,-0.3243160084,-1.3575333305,0.3435577558,0.2384451526,-0.7969951723,-2.1840452044,-0.9859040977,-0.2327030607,-1.0743552506,-0.6884656931,-0.901023295,-0.0021078162,-0.2193493709,-1.5174292011,-0.6245220952,-0.7343505244,-1.5593019105,-0.5963990429,-2.2351977719,-0.4028119817,-1.1417905832,-0.2273496658,0.1045637023,-0.6926523781,-1.2865483569,0.3417770251,0.1334155414,-1.5044200481,-1.0661397199,-0.4148636688,-0.0046987531,-0.322956505,-0.5555043723,-1.1682985687,0.2703376501,-0.6586775896,-0.9491973879,-0.5540684621,-0.1659658497,-0.3223854278,0.0483396339,-0.8005892679,-0.5779411927,-1.2295883808,-0.9908141138,-0.6665125895,-0.5271640895,-0.1785417053,-0.8737825398,-0.7923492227,0.1854929019,-0.2825903058,-1.0206791939,-0.0687740852,-1.0992790835,-1.234280488,-0.1712021201,-1.4204317856,0.0698484899,-0.1843604448,0.2243413837,-0.6453907112,-0.2392675007,-0.1041525179,-0.5813011897,-0.2904937888,-0.2096492489,-1.0831875585,-0.3829965823,-0.9048760221,-0.2663228452,-1.3964062137,-1.1678610569,-1.667755519,-1.2796768694,-1.009235138,-0.3884218866,-1.1401355946,-0.914411603,-0.7973419716,-0.6294210496,-1.0880897106,-0.2263000677,-0.5962367753,-1.8570636661,-0.5725441593,-1.3950979441,-0.7937238221,0.336776866,-0.3561224688,-0.7621745272,-0.2115591691,-0.0836787788,-0.9555658584,-1.1109635888,0.0796489134,-0.1481520274,-0.7410841579,-0.1706154774,-0.9466510666,-1.179905402,-1.5204326589,-0.2261670108,-0.5937092608,-0.6425469695,-0.2960169887,-0.5775072892,-0.0852099785,0.1357857704,-2.0526759737,-0.9763020677,-1.2460989643,-1.2667721193,0.0604625724,-0.0684532114,-0.992979197,-0.7396625495,-0.0438267608,-0.8618830076,-0.8135953251,-0.5033356367,-0.0977259675,-0.9298033695,0.2589976743,-0.6184822796,-1.3572513389,-1.0617911826,-0.4964670166,-0.90518372,-0.8570021755,-0.4329702022,0.1532392482,-1.9893177723,-0.9828926999,0.3380698658,-0.0255169912,0.034695825,-1.1139463865,-0.9481651709,-0.7129855464,-0.8061770169,-1.2334560488,0.2167576636,-0.8251731096,0.1672626866,-0.0123952592,-1.0378894874,-1.0948766588,0.3529026438,0.1326493661,-2.1649501664,-1.0443880931,-0.5619670787,-0.351907295,0.2454557591,0.2055793244,-0.4341724383,-0.9357239752,-1.4669984823,0.1180185656,-0.2601388849,-0.4865803594,-0.7583886569,-1.0451604578,-1.0072066818,0.3157079583,0.0320926101,-0.9872188691,-1.0049351175,-1.3212194564,-0.6117503733,-1.519732059,-0.8352216501,-0.2551843772,-0.9026157934,-1.3802001926,-0.5290937295,-0.4756295573,0.374082279,-0.8740505188,-1.4384983213,-1.8913364983,-1.6431703335,-1.3388503392,-0.0137375089,-0.7587188905,-0.818144132,-0.7399719418,-0.7122436802,-0.5003649868,-0.689832707,-0.1647342072,-1.0071505115,-0.9913294753,-0.1258579065,-1.5391004003,-0.5592587856,-0.8098727042,-0.5069932591,-1.1987153762,-0.8324928877,-1.6207772385,-0.0039687473,-1.2857299777,-0.5184112169,-1.0151539902,-0.8684605462,-0.7385494164,-0.9431890399,-0.4841845017,-0.4843286306,-0.544808611,-1.3710764472,-1.1732487027,0.3756377329,-1.4982795801,-0.4351024385,-0.1739081871,0.268275985,-0.0399074627,0.0971740824,-1.0750245258,-1.0393864175,-0.1665681821,-1.301518012,-1.1952805821,-0.7473973437,-1.8548627483,-0.7855630519,-0.4949988794,-0.6823937347,-0.5174782231,-0.4287140448,-1.2885802656,-0.495575979,-0.6137275941,-0.0589532658,-0.7256529947,-0.3147274912,-1.1667575992,-1.7703066004,0.1573275035,-0.7742189175,-0.7284857287,-0.4067296895,-0.9250611906,-0.4563410347,-0.9133768169,-1.385149916,0.0512779509,-0.1156727173,-0.2563073715,-1.2522579479,-1.3251527437,-1.0789504012,-0.8282103902,-0.3789313677,-0.5851608694,-0.0151930911,-0.8929490807,-0.1537736371,-1.3054334528,-0.8737940192,-0.6518563389,-0.8728340399,-0.7525995376,-0.8349750565,-0.8179036232,-0.009346581,-0.2757090156,-0.6069111816,-1.0420759965,-0.1045531268,-1.6480093795,0.2885637894,0.0503019036,-0.2723926424,-1.0448586272,-0.8691303578,-1.2449678265,0.2843659985,-2.7174333525,0.342048198,-0.0304078164,-1.2094962533,0.2105636431,-0.115683169,-1.0826593539,0.6018977935,-0.240921927,-1.2325850886,0.3049965808,0.1664627633,0.2013596813,0.5944663522,0.3541541,-0.2532092931,0.2685181506,-0.5513276512,-0.3513812923,-0.2489836189,-0.1293533149,0.2685182648,-0.3722702739,-0.8916129322,-0.4040845495,-0.1024991898,-0.5218346196,1.1333448778,-1.1622113549,0.6697838061,-0.6648404743,-0.5919599859,-0.0362805857,0.5606135771,-1.3795340413,-1.0653982791,-0.0569349049,0.071778729,-1.8944302001,-1.1150405777,-0.1262857861,-0.1956591977,-0.0214775867,-1.4412743314,-0.9412890899,-1.3990003058,-0.3517542845,-1.6851512548,1.3101778663,-0.9723456075,-0.3600015542,1.0030585344,-0.2177882272,0.4575182399,0.0238807038,-0.4704596996,-0.5064576329,-0.9014975791,0.3491517325,-1.4743915661,1.1645557493,0.6233244424,-0.4349728767,-1.3256652695,-0.536908662,-1.5074130076,0.6366541404,-1.8293229634,-0.8215456306,0.00548591,-0.3857354617,-1.6311803663,-1.995008419,-0.1712802642,-0.6675223358,-0.2814160529,-1.9496404526,1.0970299617,-0.4139671244,-0.8504588775,-0.9333388373,0.0851190201,0.0448993779,0.026033656,0.8105681447,-2.1386518258,0.2402735135,0.8472109488,-0.2069250004,-2.4785428712,-0.3508978283,-1.0079411246,-1.3263861142,-1.436637574,-0.9563090014,-0.5930275597,-0.3113425881,1.1634976662,-2.298149704,-0.2044904734,-0.3419625821,-1.2793124538,-0.0945866471,-0.8829517969,0.2204007406,-0.7160518936,-0.2634051742,-0.4151874871,-0.0794007344,-0.0311406906,0.3574488897,-0.1780494681,0.3693687965,-1.0214681226,-1.5166357921,-0.1246059477,-0.1569463274,-2.3200393668,0.3065502113,-0.9015750353,-0.7560338237,-0.8847217274,0.5535823911,-0.8466179433,-1.2117951325,-0.6623317632,0.0718539518,-1.9570879117,-1.4582958676,-0.9611419435,-0.0554634431,-0.5009260464,-1.2604402167,-1.3387824461,-0.97963335,-1.0062224091,0.1634110525,0.4111613334,-0.1384997385,-0.8180473688,0.7702936504,-0.5637911763,-0.6380006873,-0.0332700031,-1.7627995369,-0.9127907925,-2.1886929635,-1.4263897575,0.0445540266,-1.2666430883,1.0945279969,-0.7648098805,-2.332800258,-0.0496513321,-1.1015128736,-1.91111097,-0.310349011,0.0099169293,-1.707170031,-2.1691347386,0.4316318952,-0.6248557787,0.1013545583,-0.2141922486,-0.4285336724,-0.9536472108,0.7918775686,-1.3955928,-0.2650006681,-0.3959507595,-0.0873030481,0.1870680697,-1.2691893126,-1.0676234081,-0.2131195158,-1.2364236625,-1.1417166033,0.8293399886,0.3682356255,-0.217412456,1.0930893699,0.3999336814,-0.9889766421,-0.937216909,0.1873706858,-0.8636892262,-2.2626592488,-2.089669761,0.0462425036,-0.3963174798,0.1143431499,-1.6760022953,-0.0809940962,-0.0915035456,-0.7386732772,0.913948723,-0.7595646676,0.3238336083,-0.231216853,-0.7554761193,-0.751591789,0.1434397897,-0.7642691908,0.1235221885,-2.449822599,-1.8795848528,-0.9800353944,-0.9939815982,-0.4485779062,-0.2847371669,0.0454567786,-1.6858653157,-0.1247358995,-1.6391676216,-0.881973565,0.9684770967,-1.3816108595,-0.2062766501,-0.5038354646,-1.1225992398,-0.6203398004,1.2544928598,-2.1911570071,-1.8463445908,0.813044958,-0.2475916401,-2.0427706999,-2.2271411905,0.9389757431,0.5013336926,0.1795740413,-0.0425935919,0.2702856782,-0.2420682399,-0.5965631921,-0.1706956626,-0.0937922321,-1.7254988318,-0.9896796852,-1.0282067535,-0.0698439721,-1.0087824676,-1.950295294,0.7609043198,0.4071745905,-2.3233506589,-0.1855657162,0.1214991236,1.2363702319,0.0286947317,-0.9512476995,-0.1865268573,-0.4493049755,0.0966143764,-1.5050414833,-1.1350468008,-0.3476761648,-0.123525957
