encog,BasicNetwork,java,3.2.0,1,1448737979876
[BASIC]
[BASIC:PARAMS]
[BASIC:NETWORK]
beginTraining=0
connectionLimit=0
contextTargetOffset=0,0,0
contextTargetSize=0,0,0
endTraining=2
hasContext=f
inputCount=140
layerCounts=140,841,141
layerFeedCounts=140,840,140
layerContextCount=0,0,0
layerIndex=0,140,981
output=0,0,1,0,0,0,0,0,1,0,1,0,0,0,0,0,1,0,0,0,0,1,1,1,0,0,0,0,0,0,1,0,0,0,0,1,0,1,0.0000001541,0,1,0,1,0,1,0,0,1,0,0,0,0,0,1,0,0,1,1,1,0.9998813269,1,0.999999708,0,0,0,1,0,0,0,0,1,1,1,0,1,1,0,1,0,0,0,0,0,0,1,0,0,0.0000000599,0,0,0,1,0,0,0,0,0,0,1,0,0,0,0,0,0,1,0,0,0,0,0,0,1,0,0,0,0,0,0,1,0,0,0,0,0,0,1,0,0,0,0,0,0,1,0,0,0,0,0,0,0,0.0001203652,0,0,0,0,0,0,0,0,0,0,0,1,0,0,0.9885925848,0,0,0.0237262355,0,0,0,0,0,0,0,0,0,0,0,0,0,0,0,0,0,0,0,0,0,0,0,0.0000001262,0,0,0,0,0,0,0,0,0,0,0,0.000006244,0.9999974768,0,0,0,0,0,0,0,0,0,0,0,0,0,0,0,0,0,0,0.999994658,0,0,0,0,0,0,0,0,0,0,0,0,0,1,0,0,0,0.9999999835,0,0,0,0,0.161881824,0,0,0,0,0,0,0,0,0,0,0,0,0,0,0,0,1,0,0,0,0,0,0,0,0,0,0,0,0,0,0,0.0079274884,0.35488668,0,0,0,0,0,0,0,0,0,0.9948690655,0,0,0,0,0,0,0,0,0,0,0,0,0,0,0,0,0,0,0,0,0,0,0,0,0,0,0,0,0,0,0,0,0,0.0258509149,0,0.0342325096,0,0,0,0,0,0,0,0,0,0,0,0,0,0.8154081515,0.0000000001,0,0,0,0,0,0,0,0,0,0,0.9516129955,0.0000014773,0,0,0,0.0000837951,0,0,0,0.0349972263,0,0,0,0.7735483513,0,0,0,0,0,0,0,0,0,0,0,0,0.0000001557,0.0000000002,0.7678569703,0,0.95165344,0,0,0,0,0,0,0,0,0,0,0,0,0,0,0,0,0,1,0,0,0,0,0,0,0,0,0,0,0,0,0,0,0.0004165602,0,0,0,0.000000003,0,0,0,0,0,0,0,0.003156988,0,0.0000293843,0,0.0000373397,0,0,0,0,0,0,0,0,0,0,0.999034046,0,0,0,0,0,0,0,0,0,0,0,0,0,0,0,0,0.0004096984,0,0,0,0,0,0,0.9573217291,0.0470406636,0,0,0,0,0,0,0,0,0,0,0,0,0,0,0,0,0,0,0,0,0,0,0,0,0,0,0,0,0,0,0,0,0,0,0,0,0,0,0,0,0,0,0,0,0,0.0015485142,0,0,0,0,0,0.0089137958,0,0,0.0000053853,0,0,0,0,0,0,0,0,0,0,0,0,0,0,0,0,0,0,0,0,0,0,0,0,0,0,0,0,0,0,0,0,1,0,0,0,0,0,0,0,0,0,0,0,0,0,0.0000098516,0,0.9999998982,0,0,0,0.0000000001,0,0,0.0011876318,0,0,0,0,0,0,0,0,0,0,0,0,0,0.00000125,0,0,0,0,0,0,0,0,0,0,0,0,0,0.8891449351,0,0,0,0.5720030081,0,0,0,0,0.9941204287,0,0,0.0003023706,0,0,0,0,0.000000012,0,0,0,0,0,0,0,0,0,0,0,0,0,0,0.8978150772,0.99690042,0,0,0,0,0,0,0,0,0,0,0,0,0,0,0,0,0,0,0,0,0,0.0055915073,0,0,0,0,0,0,0,0,0,0,0,0.9908127102,0,0,0,0,0,0,0,0,0,0,0.9997548,0,0,0,0,0,0,0,0,0,0.002459894,0.0000044486,0,0,0,0.9999863178,0.0107264482,0,0,0,0,0,0,0,0,0,0.0416269412,0,0,0.0003327632,0,0,0,0,0,0,0,0,0,0,0,0,0,0.2367523055,0,0,0,0,0,0,0,0,0.888363689,0,0,0,0,0,0,0,0,0,0,0,0,0,0,0,0,0,0,0,0,0,0,0,0,0.0007464408,0,0.9964729606,0.0000205458,0,0,0,0,0,0,0.0000000019,0,0,0,0,0,0.85157341,0,0,0,0,0,0,0,0,0,0,0,0,0,0,0,0,0,0,0,0,0,0,0,0.3063003978,0.9999761636,0,0,0,0,0,0,0,0,0.9973093011,0,0,0,0,0,0,0.948764301,0,0,0,0,0,0,0,0,0.1579013007,0,0,0,0,0,0,0.1426947825,0,0,0,0,0,0,0,0,0.9061608418,0,0,0,0,0,0,0,0,0,0,0,0,0,0,0,0,0,0,0,0,0,0,0,0.1062405475,0,0,0,0,0,0,0,0,0,0.3555564586,0,0,0,0,0,0,0,0,0,0,0,0,0,1,0,0,0,0.984534474,0,0,0,0,0,0,0,0,0.2415589362,0,0,0,0.7495777344,0,0,0,0,0,0,0.0000000013,0,0,0,0.9998108577,0,1,0,0,0,0,0,0,0,0,0,0,0,0,0,0.9565762108,0,0.9285609637,0,0,0,0.0016927508,0,0,0,0,0,0,0.0000407712,0,0,0.0115289018,0,0,0.9448038573,0,0,0,0,0.036314836,0,0,0,0.0412689975,0,0,0.0007392321,0,0,0,0,0,0.819557575,0.813560766,0,0,0,0,0,0,0,0,0.9999966924,0.9798982035,0,0,0,0,0,1,0,0,1,0,0,0,0,0,1,0,1,0,0,0,0,0,1,0,0,0,0,1,1,1,0,0,0,0,0,0,1,0,0,0,0,1,0,1,0,0,1,0,1,0,1,0,0,1,0,0,0,0,0,1,0,0,1,1,1,0,1,1,0,0,0,1,0,0,0,0,1,1,1,0,1,1,0,1,0,0,0,0,0,0,1,0,0,0,0,0,0,1,0,0,0,0,0,0,1,0,0,0,0,0,0,1,0,0,0,0,0,0,1,0,0,0,0,0,0,1,0,0,0,0,0,0,1,0,0,0,0,0,0,1,0,0,0,0,0,0,1
outputCount=140
weightIndex=0,117740,236180
weights=##0
##double#236180
   -0.2722020192,-2.2937529731,0.2172653884,-0.9031077525,-0.3123641411,-1.2957443638,-0.9984889614,0.3837766461,-0.4450187596,-0.7287281828,-2.2725664969,-0.8337296478,-1.7941054996,-2.4812576239,-0.6564014298,-0.6482713755,-1.3722022462,0.0187262496,0.3597088131,-2.1296653523,-0.9922598288,-1.8409302917,-0.0541115693,0.1273479297,-0.3541459257,-0.1429840792,-0.6932305001,0.0951330893,-1.7633069598,-0.915364503,-0.6923480944,0.1445751503,-0.6839142703,-0.1898982587,-1.0832208086,-0.6916298611,-0.0933789733,0.2243079622,-0.8508830216,-0.993584552,-0.869222229,-0.1767358924,-0.778135629,-2.3594427659,0.3506061709,-0.6909256343,-1.0087134738,-0.1943745906,-0.9539002676,-0.3860347797,-0.0671291488,-0.788886987,0.172517232,-0.8063471336,-1.0830985391,-2.7030807969,-1.7790242789,-0.5181011242,-0.1504185849,-0.9259297718,-0.7137471215,-0.6623232518,0.0755356583,-0.6251939722,-0.12379036,-0.6871040708,-0.0553726648,-0.3732003182,0.4106761965,-1.1512383952,-0.0947351246,-1.6442876039,-0.5099862151,-0.7554002208,0.1912639338,-1.6098661068,-0.2217788827,-0.3309779893,-0.3751853737,-0.4066507102,0.4089212242,-0.6868413204,0.3468962113,-0.2433601103,-0.9698347742,-0.3558409675,-0.3885567769,-1.4232459682,0.1366871512,-0.415528763,0.3478371725,-0.7892289219,-0.0975191326,-1.9804276678,0.4088425904,0.2431982346,-0.2340957302,-0.8097960289,-1.4430279115,-0.1817749775,0.3586833345,-0.6829539141,0.3129766346,0.3080741438,-0.7123486793,0.1561746967,0.3926584353,-1.5981948437,-0.8279791275,-0.2099426359,-0.5822009577,-0.1780260033,-0.4687732463,-0.4495968179,-1.2042356053,-0.1808700474,-0.3667673253,-1.1569711971,-0.8001512883,0.3296970913,0.0197672441,-1.5870461672,0.0640189703,-1.8478025566,-0.1444113,-0.6699154698,-0.2796844518,-2.1700041153,0.2901561812,-0.4615874457,-1.0012557594,-0.0778312664,-0.3788346295,-2.0496572717,-0.7951835597,-0.7090444582,-0.8645979886,-1.6906797908,-0.0185726782,0.1538235738,0.4024710298,-2.6253896864,-0.9675639414,-1.0240496729,-1.0580381162,-0.8668674826,0.1710623756,-0.2924813695,-0.2018612335,0.2047789196,-0.9377441912,-1.5961334534,-0.8069357726,0.0345101658,-0.5432366855,-1.2025599626,-0.015170331,-0.6093455646,-1.208560051,-1.1507446657,-0.5759414305,-0.5124786265,-0.2442981674,0.0164632609,-0.1877878185,0.0186821115,-0.4985094889,0.1066795686,0.0741758252,-0.3485870339,-0.1948373145,0.1787901023,-2.3709650656,-0.824590421,-0.7624874967,-2.4718246963,-0.4081279715,-1.6464136396,-0.1146159649,-0.7022404378,-0.1096120917,-0.2010252387,-0.4782132349,0.2876361784,-1.0285927721,-1.1311118708,0.11072297,-0.9310172599,0.2411554927,0.2570274474,0.335278735,-1.846919536,-1.3531945539,-2.7038062021,-0.4264962548,-1.9900720896,-0.3832283466,-0.4309998421,0.3522690444,-0.3530720436,-1.5773544296,-0.1421939833,-0.7669270785,-2.3999050915,-2.0653426912,-0.3457435917,-0.5444855588,-0.8778324056,-2.211485022,0.1391071515,0.380557192,0.1839493761,-2.2968679395,-0.937680526,-0.5064978015,0.0752282788,-2.5242435681,-0.8435880473,-0.6145473113,-0.3129853323,-0.096868555,-1.1762889364,-0.359382168,-0.1521586027,-0.3864723097,-0.7405819236,-0.1685523541,0.0646105198,-0.9849742784,-2.3341709382,-2.0076962115,-1.7954365278,-0.6246440944,-2.5307814332,-1.6919625209,-0.2682346185,-0.2057810819,-0.9673273226,-0.453036207,0.3050205201,-0.6700913727,-0.2763871587,-2.0252791671,-0.919082998,0.1107099735,-1.2865300203,-0.7827905538,-1.0451136316,-0.3728645946,-0.0530777298,-0.5010364855,0.3733233916,-0.446823351,-0.7942150556,-0.6554978963,-0.6956461665,-0.4092560467,-1.8869341343,-0.9270942608,-0.3903070506,-0.7896080823,0.3417234742,0.1347435711,-0.281940043,-2.2844073083,-0.1685011439,-0.400311391,0.2405642606,-1.1678082009,0.321876706,-0.6787849386,-0.280069532,-0.0997402051,0.1676200521,-0.8412770064,-0.4526640943,-0.079703029,0.40550943,-3.3506012267,-0.639191056,-1.5038054491,-0.7219925696,-1.9264379738,0.1236444511,-0.8189115714,-0.8766012412,-1.2101450704,-2.3119058567,-0.6427236583,-1.6079699341,-0.5178908235,-0.6736237918,0.2625329458,-2.2603124101,0.012650632,0.323241089,-0.4967866294,-1.1287888091,-0.2108494242,-2.2725323669,-0.5879731577,-0.7762246943,-0.5420753999,-0.5928436364,0.3260376547,-0.5844132291,-0.4770601094,-0.6260204371,-1.5736766396,-1.3128898927,-1.6348580507,-0.8564151061,0.2747922543,-0.3208239477,-0.5727473248,-0.0078051291,-1.0415114554,-1.570632256,-2.8386351008,-1.8101944894,0.2597911512,0.0421287898,-0.1154109172,-0.424963915,-0.0169726207,0.1611742493,0.0996345944,-0.5807790508,-0.9926924673,-0.9456507988,-0.0706825773,-0.448901328,-0.7939136612,0.1831803572,-0.2000359748,-0.8815679843,0.0273380315,-2.5532502466,-0.0626978628,-1.0443538246,-0.3673646106,-0.3080464986,0.2164454745,-0.8886735387,-0.8918026741,0.0355859981,-0.8261140135,-1.8930890825,-0.8734626363,-0.8682982547,-0.5436053078,-0.7961100831,-0.9419211147,-2.584927574,-0.5501940305,0.3571769249,-0.0244245775,0.1715645077,-0.2101998192,-0.958346751,-0.3101027824,-0.326079288,-0.2702585823,-0.5801812603,-1.7402915615,-1.2077990877,0.2432497903,-0.3383265133,-0.3741093925,-0.963552131,-2.461578523,-0.504438232,-0.732314466,-1.7822980473,-1.8028537779,-0.105109032,-0.2999150525,-0.4324150808,-0.8693307263,-0.6210882431,-0.1879450752,0.3571753026,-0.73562759,-0.2819304594,-1.9691325445,-0.7679587704,-0.985944626,-0.6800624852,-0.5613418052,-0.5956201771,-0.078685854,-0.2924458375,-0.1045536915,0.2126779738,-1.7604395408,-0.4983683471,-0.8048099308,-0.0451497448,-1.9133523893,-0.3588187219,-1.240972363,-0.7235555927,-0.7058004514,0.3069622103,-0.7215431318,0.0261642651,-0.4302225542,-0.3371689172,-1.835564291,-0.1619035522,-0.2407955396,-0.9709006277,-0.1170956382,-0.6624551928,-0.0411814323,-0.3344593065,0.1176630692,-0.8752224578,-0.3099142233,-0.5271790686,-0.5784465355,-0.1088857611,-2.7680160669,-0.8201210809,-0.894256162,-1.0788462007,-1.9566995047,0.231244261,0.3822432567,-1.5774834467,-1.4712451457,-0.4141532181,-0.6982731817,-0.5233823401,-0.1494126183,-0.1182540673,-0.2900970495,0.0393297502,-0.8188932008,-1.0137566046,-0.716674951,-0.5856317241,-0.7305147419,-1.8575071669,-1.2875969942,-0.0735818099,0.0074230534,-0.6096038905,-0.0824086514,-1.2877550819,-1.2365709967,-1.876760103,-1.4247147584,-0.7624944055,-0.290301627,-0.8822337804,-0.7365363295,-1.7826051032,-0.7376581997,-0.0119117402,0.3458450228,-0.8389449528,-0.2918496547,0.3094439391,0.321693523,0.1926091067,-2.039556344,-0.301309201,0.1378736043,-2.1622331171,-0.8289750673,-1.1550831824,-0.5395129472,-0.768091189,-2.2069582872,-0.1517428471,0.2971806583,-0.5555862088,0.1023825844,-0.958546017,-0.9924560839,-0.9745181089,0.1081307348,-0.2290104713,-0.8865394009,-0.3479202839,-0.0011435369,-0.0924683238,-0.4562269372,-2.9820790773,-3.3232502275,0.1985039727,-1.8949069736,-0.8325784909,-0.2855089655,0.2833685471,-0.3926917578,0.2345025874,-1.0830666077,0.3578325978,0.0458455914,-0.3473452988,0.1850760196,-0.4320584789,-0.1132169309,-0.0543414875,-0.5640812366,-0.0515280079,-1.5176927407,-0.2679211259,-0.2103475543,-0.7605259164,-1.7670915764,-0.7481832742,0.0981610268,-0.8858091323,-0.4758565281,-3.176318511,-0.7411751496,-0.7607203641,0.2879466421,-1.5914141765,-1.0786970909,-0.656282021,-1.5614400097,0.4141703978,-1.2145935371,-1.3229904466,-0.5665064229,0.0183189721,-0.0846109596,-0.2867251954,-0.6951135177,-0.0381189804,-0.6760464077,-1.8696355587,-0.9288838396,-2.1085978268,-0.092825844,-2.7311792854,-2.2968336652,-0.4990074957,-0.578459564,-0.9742763374,-0.1092889851,-1.685895516,-0.0285651032,-0.1266343562,0.0861194179,-0.775643439,-2.5514229761,-1.4308171074,0.3110238982,-0.1422166051,-1.2849163807,0.2484233328,-0.0699013363,0.258836673,-1.5978149909,-0.3445817692,-0.0740654888,-2.1052894529,-0.4081713178,-0.0969168468,-0.8302164155,-0.8540160224,-1.1940890267,-0.6764308928,0.3144036453,-0.0338110259,-0.7760959494,-0.4067912682,-1.8317832378,-0.0345283312,0.3913412807,-0.1196186622,0.3855496846,0.211671312,-2.9567466743,0.2433339243,-1.4756126305,-2.1549609405,-0.9627465887,-1.3161663843,-2.3677529553,-1.2990877926,-0.4096407157,-2.9798518832,-0.8142234607,0.1051981357,-0.0891119696,-0.1242760886,-2.1719906711,0.0971848431,-0.9864957276,0.2249836618,-0.1738843732,0.3298649646,0.136048431,-0.3372681333,-1.2600895138,-0.846119117,-0.4951496637,-0.1474995682,-0.5208128916,-0.3710975554,-1.247259886,-0.0136484673,-0.0853002626,-0.6168944362,-0.1098299681,0.1546454649,-2.3665479826,-2.2312101438,-3.513927026,-0.5983067553,-0.071551348,-0.7789343771,-1.458428951,0.1414434373,-1.9286152808,-1.158992835,-0.8032576367,-0.3749980804,-0.0380527048,-0.718007275,-1.192540359,0.3914113037,-2.3991899172,-0.8808761922,-0.689118422,-0.1562725081,-0.0036981599,-0.7682449316,0.0453570466,-0.9779207007,0.1189958168,-0.1215566692,-2.4852456958,0.1112270556,-0.02104738,-0.5635986747,-0.4102479363,-0.4730821318,0.0645850977,-0.585744055,-0.8229145577,-0.8496047201,0.0214489784,-0.7353694402,-0.5316336854,-0.7351102183,-2.7966804302,-3.8379535067,0.2721772527,-0.111323407,-0.7589609559,-1.4726843036,-0.8651630475,-0.5858211803,-0.448474848,-0.5061280589,-2.5631825984,-0.6126356197,-0.9658453709,-0.5448923188,-0.1134857297,-0.5730988235,-0.4634122301,-2.1715708611,-0.2735298718,-0.016505997,-0.5703098352,0.2219336324,-0.4272289559,-1.5533996463,0.1563301323,0.2780150763,-2.4688476567,-0.7997370085,-0.0305253072,0.3556900207,-0.7933347591,-0.7683086092,-1.1711496546,-2.0964376635,0.1196713784,-0.9755064789,-0.3065623703,-1.4547288823,-0.5865997916,-2.6758322599,-0.9974537285,0.3170434052,-2.4505507489,0.3448042805,0.2649991362,-0.3407800847,-0.6826191036,-0.3707406866,-0.0886545683,-0.7524261361,0.2513890996,-0.7544169813,-0.190113018,-0.3156080818,0.3718599111,-0.556010267,-0.1752449216,-0.1106991654,-0.6103317442,-1.2850927627,-0.4745397847,0.1618556029,0.1978897594,0.0932575151,-0.8107878073,-0.2011585786,-3.2841407998,-0.5970899788,-1.4265654867,-0.4172195575,-0.6651014882,-0.7555337375,-0.548039268,-0.4138042945,-2.784926402,-0.6628941722,-2.7885758673,-0.089115339,-0.8437791431,0.1223461079,0.1589295983,-0.8327592013,0.034524547,-0.0815861176,-0.8753062312,-0.2061046253,-0.1936981233,-2.7785210579,-0.8132002281,-1.2734707565,-2.5706271678,-0.8881580828,0.041434556,-0.1815736617,-0.3722510604,-2.6142117147,0.3208229666,0.1516214025,-0.4392739465,-0.4295486108,-0.4315779124,-0.5556412663,-0.1205216037,-2.1717383372,-0.7226647864,-0.2107649785,-0.0717852331,-1.5763192085,-0.7478780081,-0.9069881355,-0.6748035983,-0.9581549182,-0.6048510037,0.3306781481,-0.9214580635,-0.5550854586,0.0466893003,-0.676397202,-2.0526787246,-1.0866604195,-1.4363346172,0.0643052741,-0.4622992444,-0.6010834215,-0.64054832,-0.9056300244,-1.0969823282,-2.1009268717,-0.4351472627,-0.8281445254,0.1044050877,-0.8994511786,-0.8226835069,-0.2444124281,-2.2690453915,-1.1520982033,-2.9771436762,-2.8617603516,-0.5251062815,-1.0632468685,-1.2913407526,-0.673671085,-0.4231323585,0.0566148671,0.1802247902,-0.5973093209,-0.2747552115,-1.6730541571,-0.7608724405,-1.505697658,-1.2809513629,-1.3358352912,-0.6513602193,-2.1750300041,-0.5549440803,-0.4973991897,0.3059619809,-0.1377323501,-2.6439327373,0.0631582782,-0.8447705405,-0.8760541953,-1.9851967489,-0.5817133077,0.0446176575,-1.1124699768,-0.8912480482,0.360968659,-0.6318814658,-0.1918513286,-0.6406180801,-2.5035463149,-1.7793536849,-0.2848305885,-0.4064822951,-0.9146736896,-0.9828807772,-1.6862441145,-1.4853476111,-0.3985502217,-0.658601509,-1.8207127047,-1.6754721294,0.2743709347,-0.3374104831,-0.1432010326,0.1226076785,-1.6160650822,-5.4208865888,0.2319641469,-2.0774409154,-0.8796787577,0.0060812852,-0.7709871525,-0.8880612024,-0.9153841372,0.2824503365,-0.9115659258,-0.6250094458,-2.7242825777,0.1661703389,-1.5346251601,-1.7598707582,-0.5043932752,-0.2439991163,-2.3108393206,0.1003077099,-0.7238231188,-2.8282312005,-1.1715867771,-1.7927543686,-0.0672723112,-0.0876352906,-0.464696911,-0.182414654,-0.3506094557,-0.3416047947,-1.9185256306,-0.3696802907,-0.8543589798,0.2669077386,-1.3654518469,-0.6544175589,-1.0792929111,-0.4270015881,0.2046093032,-0.4353551674,-0.1164240242,-0.0355745207,0.0221830974,-0.7616238061,-0.4693179654,-1.5920520966,-0.3603292751,-1.7829825967,-1.5339449314,0.0246129803,-0.9199502544,-0.8102438958,-0.333544861,-0.6541339847,-0.6538842777,-0.0550314569,-2.1652887243,-2.0031426254,-2.7974725875,-1.6636131257,-0.4938671974,0.2047934261,-0.3074582539,-0.8704717525,-0.7721842689,-0.4782110198,-0.3118905456,-0.240165746,0.2620415139,-0.4780243971,-0.7013226976,-0.6854941229,-0.2654397803,-1.886255389,-0.9294733073,-0.592422894,0.2196339166,-2.8606833455,-0.0764417835,0.3611787295,-1.0044268885,-0.0701647041,-0.0913851165,-0.2332978342,-0.5637979006,0.079916677,-1.9846112811,0.380556809,0.2331908121,-1.5846211546,0.1286030599,-0.9627798422,0.3493268799,-0.640042315,0.2465002579,-2.5175432335,-0.8742134801,-0.2816249988,0.0907060397,0.3897575452,-1.8928689684,0.2287604566,-0.2418262312,0.1014379687,-0.4262376131,-0.6758413499,-0.331009308,0.4145681255,0.2831852722,-1.2659359173,-0.01205438,-0.78456557,0.0841921497,0.1038828199,-0.7237676191,-0.8719555309,-1.7955749545,0.2834707648,-0.2101147835,-0.2839413186,0.0447471354,-0.7611265175,-0.6586870448,-0.8643982445,-0.98394232,-1.7762606145,-0.5185957718,-0.3592763562,-0.4892652997,-0.928228693,-0.5055985453,-0.4880327521,-1.2351437237,-0.6211645395,-1.2206402502,-2.2100031899,0.3748511739,-0.486370622,-0.2924620557,-2.1018681285,-0.6115316844,-0.460280939,-0.2033919445,-2.5635516374,-0.6791325746,0.2843085959,-1.3631092882,-0.4052084404,0.0022869272,-1.1679878774,-0.8139506199,-0.7018124629,-0.2187096138,-1.9546856717,-0.6654344086,0.2440209426,0.246710111,-2.0433584064,-0.1001740534,0.169151368,-0.7098583696,-0.8102725067,-0.291937672,0.3600432466,-0.1396757965,-0.8111618984,0.0047758278,-0.5774383811,-0.4628925986,-0.5297814566,-0.8322889377,-0.0435483286,-1.2287485079,-0.9679546634,-1.7709191868,-1.9866883798,-1.6269122461,-2.2217797096,-0.5565059779,-3.3192701309,-0.5717379687,-0.4855243833,-0.7901478995,-1.2601252672,-0.0548603353,0.3092193854,-1.177299959,-1.2591257842,-0.4731881283,-0.8799377234,-0.9137593977,-0.8583999146,0.2303744464,-1.9530825836,-0.9678879606,-3.2593963397,-0.642503151,-1.5901865107,-0.3160214592,-0.7501712093,-0.9441904497,-0.3199272337,-1.7459819604,-0.991235306,-0.0434918852,-2.7999499539,-1.633921014,-0.3667393074,0.209525221,0.3974186223,-1.5632158684,-0.075451352,-0.5765430377,-0.7264137019,-1.6870414176,0.1177145187,-0.5340912088,-0.212631234,-1.9221758493,-0.1076009044,-0.5772114486,-0.1083008214,-0.5602995922,-0.9460240829,0.2523215383,-0.5940041297,0.2921829614,-0.8604207345,-0.6358760328,0.0200214447,-0.6176549315,-2.0982509456,-1.5309112002,-2.6659709174,0.2769901655,-2.518854578,-0.8967582009,-0.819576707,-0.5197373198,-1.6124820004,-0.2185404947,-0.4804517749,0.2176299618,-0.6623590967,-1.5301768822,-0.4100130037,-0.1583539014,-1.6619498935,-1.0275858098,-0.797340887,-1.0448077088,-0.6038831383,0.0051381649,-0.0621391266,-0.0488104743,-0.0493630331,-0.4106639616,0.0317398859,-0.4275314505,-2.5627819488,-0.1461146734,0.1837504885,-0.6050597059,-0.9712886192,-0.0686781342,-0.970861823,-2.6146665194,0.1147485812,-0.5575452071,0.0133568773,-1.63745352,-0.6411812044,-1.6328933772,-0.5168492826,-0.609780792,-0.5830764825,0.281119037,-0.3431486507,-0.8906567367,-0.3765118123,-2.8117756248,-0.7978523681,-1.5325475629,0.3562900626,-2.4244311544,-0.8418244766,-0.4008731153,-0.7136170648,-1.570613123,-1.8408568165,-0.5675182546,-1.779769549,-0.0539997119,-0.275666347,-0.1920535577,-2.9181272829,-0.3067288986,-0.686027024,-0.4821081116,-0.7809258506,-0.1435281334,-2.2647658689,-0.6535721719,-1.3782051246,-1.0615146519,0.0674289457,-0.2742859371,0.0968623969,-0.0419338449,-0.489810357,-2.3842785012,-2.3307159774,-2.2400432804,0.0926717245,-0.9294092807,-0.3123662674,-0.3339134644,-0.0621876239,-0.8089904896,-1.9574530227,-3.1794377165,-2.5043268637,-0.9036037197,-0.5332507583,-0.4577344746,-0.3203080375,-0.2425992692,0.0796641545,-0.3125248469,-0.5054196795,-0.1306019601,-0.0629571431,0.0691405927,-0.8419286153,-0.7916832886,-0.6374306848,-0.1789497561,-0.9240261428,-0.6608439062,-1.6274605302,0.3554094391,-0.4540034429,-1.1239168433,-0.1139861191,-0.9816310977,-0.2007893507,-0.472696747,-1.2624877065,-0.7357746085,-1.6837779031,-0.4981966265,-0.6814514308,0.3128477974,-1.6017773874,-0.5840168234,-2.4470615557,0.4001983158,-0.7886751429,-0.3923127369,-0.2263746045,-0.0279228851,-0.6744800906,-0.6735422795,-1.3258484303,0.2107660438,-0.4088451006,-1.785243223,-1.7797072501,0.1355725459,-0.5228263408,-0.8096514783,-0.906608829,-2.8746266067,0.2200005038,-0.4639201233,-2.5484683727,-1.6089235615,-0.5452801289,-0.4528640268,-0.8970988356,-0.9387148126,-0.4561742576,-0.6592588229,0.1172996766,0.0841673467,0.3453719417,-1.344009422,-1.4860379023,-0.8065853826,-0.8351565516,-0.6579555746,-0.5472068866,-0.4312896417,-0.4907246354,0.0775934824,0.2631014671,-2.3302422539,-1.7067094457,0.3135457325,-0.8697527573,-2.1519169205,0.082295509,-0.4994329371,-0.8495757016,-0.8175936394,-0.4789362301,-0.3242775595,-0.8543013854,-0.3453751772,-0.0181278241,-2.6633195258,-0.215984472,-0.8485075972,-0.4166901826,-0.3013161137,-0.0675966041,-0.9766120583,0.1240028885,-0.340434662,-1.4819471946,0.3908851409,-0.1481366562,-1.2919651637,0.1174773976,-3.1586138608,-0.6723787094,-1.4993431532,-0.9862663239,-1.5202342968,-0.4093325721,-0.8293409265,-2.4416450604,-1.8887744497,-0.7553877201,0.1690837027,-0.0198616369,0.3520743448,-0.4041380676,-0.5592309042,-0.0482858924,0.3465366769,-1.2166052392,-0.2946706202,-0.9897570623,-0.1563169308,-1.2766118207,-2.3674968043,-0.3720462361,-0.5569447823,-0.520696312,-0.5501641315,-1.092310664,-0.3340428636,-1.890733917,-1.6971610739,-0.9412174566,-0.4111078927,-0.6578624024,-0.2882371302,-2.6770792727,0.3584699822,-0.5024769167,0.380320884,0.0143263552,-0.7809794981,-0.1680831967,-0.0359677809,-0.9050329974,-2.3406377408,-0.7859958405,-0.320709908,-3.0182671585,-0.4122112215,-1.2083127142,-0.9791287416,0.2192636229,-1.7239501062,-0.2057929194,-0.4285015369,-0.6572029668,-0.8084501919,0.1035697442,-0.7457798501,-1.1409674971,0.1321608249,-0.2962745894,0.2641176081,0.394429866,-0.6814783598,-0.6832256214,-0.7023719004,-2.2845238464,-3.1433555014,-0.1049943446,-1.1541005371,-0.205759065,0.1945795961,-0.8711197701,-0.5303819956,0.3538251985,-0.4676175664,-0.316780376,-0.1350550433,-0.3900925704,-0.3077353868,-1.0932809411,-0.5637660733,0.2503149106,-0.190152493,-0.4920387566,-1.5916993501,-0.9194843383,-0.6166086665,-0.3504404278,-0.8696226356,-0.4091335704,-0.150085109,-0.3917841317,0.2648935652,-3.2448265665,-2.1168810577,-0.1139646602,0.3104593246,-1.9678020627,-1.1463896638,0.3497465263,-2.541398807,0.0089832862,-1.4824378054,-0.1020941893,-0.1783146146,0.1614329805,-0.0694748423,0.0886323391,0.3482735375,-0.4375044388,-0.9776913828,-2.3916540402,-0.9664514436,-1.8178021316,-0.4922464286,-2.7530224241,-1.3725094393,-1.0950185646,-1.2674322225,-1.1410283386,-0.6708753304,-3.3411691091,0.1528006454,-0.6591866867,-0.0581163464,-0.2113174589,-2.1430798945,-2.222606409,0.1887606593,-0.7471602661,-0.3733456314,0.3965151338,-0.480705219,-0.6721673282,-0.6235235562,0.1651155937,0.3077207505,-2.6222655595,-0.0115795228,0.0208606293,-2.1659810513,-0.2198348373,-0.2180241217,-0.6435415247,-0.329653079,-0.7654021804,-1.7022521532,-0.195743478,-1.7539545016,-0.2578312036,-0.4959872065,-0.894204648,-0.9079218244,0.1266132812,-3.4157851926,-0.7832204597,-2.5400819441,-2.6007268717,-1.5702732535,-1.6142828039,-2.1640547731,-2.4922069617,-0.58891457,-3.2863060976,-0.3881610195,0.2834452776,-0.7890681656,0.0033313993,-1.4469537797,0.0324538833,-0.2863344266,-0.5839975486,0.0262899966,-0.823316445,-0.0911017597,-0.5701099495,-1.2990240748,-0.7263533255,0.0855234397,-0.1435825512,-0.2044636659,0.3778947744,-1.7691732969,-0.7883330205,-0.6935415171,-0.0506777265,-0.5960944366,0.3128703838,-2.2622122341,-1.2383650592,-3.2429771015,-0.8211535429,0.3999733769,-0.845810762,-0.9583205962,-1.4281725071,-0.8020775581,-2.1203067794,-0.6403867343,-0.4334794646,-0.231802052,-0.2846434109,-1.6421830287,0.3254095683,-2.5647958407,-0.5418732101,0.0840350706,-0.355642261,-0.2188799783,-0.3805144977,-0.400753452,0.3989708466,-0.388837608,-0.3691103173,-1.9016173199,-0.5095072606,0.0269317338,-0.7943218534,0.3765394135,0.0759709299,-0.7716204632,-0.9076142996,-0.8747096662,-0.9204306551,-0.195916956,-0.9459069008,-0.0391961594,-0.1305926947,-2.472605525,-3.8556202846,-0.2323573708,-0.046099602,-0.1865594884,-1.0298620782,0.0466723251,0.0903008526,0.0410005598,-0.2570260468,-2.2587069946,-0.7889327881,-0.2710527202,-0.2844457119,-0.3957318735,-1.1793347901,-0.7307530045,-3.4570126842,-0.4601866523,0.3479946697,-0.6497935082,0.0019821723,0.4078537615,-1.6942814682,0.2795829054,0.0476505564,-2.2239273602,0.3217695502,0.0416607475,-0.818018437,-1.5745800151,0.2877181784,-0.4329581701,-3.2632264709,-0.2677081508,-0.5451685978,0.375747502,-1.9954505396,-0.0645739742,-1.631351803,-1.6468219439,0.0685605317,-1.9044085167,0.3742761028,-0.7867397364,-2.1201721907,-0.621991907,-0.8963744119,-1.0260442132,-0.4435054198,-0.8645396543,0.4020942584,-0.9841298988,-1.2238028307,-1.0462962759,-0.4813951912,0.3944101344,-0.8781587966,-0.5781048028,-1.8569659276,-0.5275264214,-0.9466606909,0.2322680162,-0.1419613937,0.2294580372,0.2392526936,-4.0385030632,-0.2398718487,-0.4593584143,-0.4323261685,-0.832530486,-0.4410603233,-0.7088905513,0.1088563814,-2.8740655833,-0.6823722612,-2.8833950708,-0.3071127056,-0.8928627101,0.1648470861,-0.0795313923,0.1324492756,-1.086873569,-1.2327903586,-1.6479253973,-0.9826817648,0.3246494523,-2.3745965006,-0.2684595906,-1.0660442508,-2.166957922,-0.6611777292,-0.0841986083,-0.2272157955,-1.4342251754,-2.9881434314,-0.4343229428,-0.8244294472,-0.375621592,-0.8954031912,-0.6228822543,-0.3216345396,-0.8013628678,-1.694221004,-0.2728545918,0.4044278872,0.05592979,-3.5284171727,-1.6354649607,-0.3685418832,-1.0594966269,0.3162645199,-1.2806082379,-0.2038349959,-1.5873102642,0.3430384465,-0.6529309581,-0.4348455497,-2.2062548664,-1.7025690919,-1.9217769827,-0.4353869722,-0.6492528385,-0.1052342113,-0.560021328,-0.3488680457,-0.2225071853,-2.3170734849,0.2985102851,-0.1487780837,-0.5496299535,-0.4946858502,-0.6316301502,-0.895382135,-2.3912941169,-1.1981411874,-2.7870051063,-2.9205105628,0.0455688895,-0.9719120213,-1.0451604545,-0.8814363641,-0.6373650855,0.313611106,-0.0063181771,0.2947726369,-1.3715765712,-2.5751149362,-0.8718296151,-1.2469600559,-1.4161685078,-1.4594825761,-0.7741087034,-2.4761312814,-0.3877593813,-0.4721142994,0.1636379001,-0.46531562,-1.8185814786,-0.0865859194,-0.9890634229,0.110637317,-2.1890272353,0.1159940408,-0.1009697516,-2.1438755007,0.1350791204,-0.4899387925,-0.9419236417,0.0155098202,0.3917200922,-2.9913228291,-2.0200518684,-0.5237625818,-0.6322892335,-0.6014344227,-0.1771900103,-0.6569752136,-0.992116075,-0.4316434187,0.3858653211,-2.5796562649,-2.93091758,-0.6955930078,-0.0525801703,-0.8934906134,-0.4696162344,-0.9177338332,-3.4124810526,1.199475887,2.521160261,0.2483625465,0.3011185132,0.5820191608,0.6280089659,1.960574974,1.0307669532,1.0370706645,1.205703227,1.9637313635,0.9764357477,1.7088188146,0.9082616688,0.6201697938,1.0196618323,2.6139744674,1.0498636138,0.6324918674,1.4256399523,1.555627863,1.9419595405,0.2250685112,0.2557884597,1.3686546643,0.4694546684,0.8264071025,0.5541995222,1.0451973866,0.6310506366,0.6246709248,0.3986499404,1.308966977,0.9209673052,0.84763195,1.4193065014,0.4151949776,1.1732088503,0.4985952021,1.2592300642,1.1906282534,0.8370005906,1.0021578907,2.0041736885,0.7735046981,2.0012527395,1.4050942177,0.2006720073,0.8906254093,0.1073683144,0.4359324719,0.6105361532,1.2037177834,0.002928844,1.6954722468,1.5001500104,1.4816872597,1.6520854133,0.8712490663,0.7969431279,0.2456753883,1.3626445,0.3205201593,0.9157784947,0.6987422122,1.2997215021,1.1761217946,0.8211904469,0.4849352214,0.1609782624,0.5996695569,1.13053838,1.0604945119,0.3762242663,0.4414127805,2.9185342104,0.7388526034,0.5328773027,0.6260678678,1.2590168829,1.0226578214,1.3061851662,0.835598105,0.3934412255,1.9516205098,0.6519091103,0.3558720242,0.8383021261,1.2053667923,0.9788335518,0.4508630956,0.3414286838,0.5818290345,1.4786482158,0.1599688114,1.2594676052,0.7936124911,0.607016028,1.6445312501,0.6356976508,1.2411970903,0.0181625725,0.1740291924,0.0964317465,1.3962165378,0.3960267567,0.9145234169,1.310442611,0.6556453531,0.9975213804,0.7953172595,0.491881957,0.9719769234,0.2464153321,1.3674196933,1.3734757528,0.702358117,0.9032822049,0.0589070748,1.3068352332,0.5659322064,0.7604547377,0.3258563655,1.6965713441,0.4237897541,0.6683529371,0.894544619,1.2046142067,0.6442468515,0.0400998665,1.290575325,0.676724772,0.743352144,2.0284113833,0.2026893582,0.7781881315,0.7004515992,1.5480719374,1.1514682822,0.5409188069,1.2952534687,1.533147763,0.1203103271,0.1736352648,1.2330560773,0.1109881788,0.337927182,1.0677407517,0.7321483289,0.101849825,0.5530185808,0.7706163212,0.6970548168,0.173343294,0.4821920199,1.3769165902,1.2254476029,0.9896972311,1.7656372552,1.3941420249,1.2334740034,0.8240909395,0.4697118755,0.1981525313,0.3195696833,0.2410180163,0.7606076996,1.3648327788,1.0836102653,0.1522409945,1.1678078811,1.4075223575,1.6027567899,1.4239092078,1.2495996298,1.7052068859,1.0292803282,2.2974351028,0.128180702,0.4477967104,0.5556074122,0.4870549649,1.2105516415,1.1672435266,1.2120406727,0.8041197938,0.4669414586,1.3150703612,0.2132149955,1.2024809926,1.0726818003,1.8368041041,1.4933468955,2.55785452,1.2722768681,1.2291856407,1.1791411943,0.9896466252,0.2084283991,0.2964537889,1.212741988,1.3296427308,0.572339192,3.2558227893,1.9084744088,0.7557026392,0.1468253169,0.1250952313,2.1184340965,0.2985718483,0.0332461609,1.2773438043,1.9843200715,1.5257889294,0.6996621338,0.6396607493,2.8347014346,0.8710645333,0.8926223198,0.7270704378,1.2177193787,0.1371237396,1.1934072629,1.3148724579,0.1238346491,0.4199084858,1.3100814993,0.7087165101,1.2346921681,1.4826988416,1.4693326622,2.7441034793,0.6703084574,2.0743876617,0.635075762,1.393676251,0.8876543848,1.898131602,0.5241676185,0.3889592775,0.3667747334,0.7413857821,1.9785169368,0.3267485098,1.0879123285,1.3890032632,0.924809184,1.8012630658,0.8322075676,0.4563144588,1.160560093,0.8206862432,1.3253953618,0.7485293556,0.4148483458,1.102591405,1.1387985712,1.7890924266,1.1894170447,1.0882748598,1.1847193981,0.1344311214,1.3918715387,1.0663804443,1.82372018,0.2002905487,0.8990324662,1.2149455633,1.4361337987,0.064190602,0.9452611941,0.7517138268,0.3834315329,0.1174862238,0.338538577,0.6057177482,0.8567515161,0.0134280014,2.5589711151,1.1209018306,1.0943496617,0.0396873981,2.1610959818,1.1731806909,0.506047018,1.3311521996,0.9742448169,1.9614768826,1.3144710254,1.6287805235,0.6183027874,0.8870421512,0.906891668,2.6332929298,1.0979052975,0.978502392,0.8469381072,0.8205142712,0.1358149084,2.429125981,0.3272001533,0.9128783256,1.3132157816,0.7347312563,0.6655681986,1.3461029573,0.0987625223,0.924133041,2.5236700284,1.8823137595,0.8504268711,0.6590788318,1.0305219121,0.5350089604,0.6093391487,0.5024384682,1.434653078,1.83699201,1.8867231555,1.65463941,0.9808632651,1.168461788,0.9988402682,0.8989313401,0.9281965638,0.0905710367,1.1073888828,1.2060597423,1.4189216177,0.8923199139,0.2780550723,0.792655518,1.310340086,0.5882312984,0.0024415524,0.5968478471,0.412130732,2.6968049798,1.0619801313,1.9040741181,1.4729730454,0.6169371524,0.2373040447,0.6983833596,0.0470308471,0.2785049469,0.1412441434,2.0066805183,0.9239353668,0.2608729099,0.3698055436,0.4462137105,0.8991556248,1.3544833548,1.3303308427,0.406950604,0.2223712192,0.3109214827,0.7573999891,0.5438756527,1.7328394507,1.3586630421,0.6708706869,0.2313112706,2.0437103264,0.8930256999
   0.5755811224,1.0891750903,1.0227023576,0.4643498005,1.4678634891,0.5943451119,1.2675941663,1.3792953307,0.6206491282,0.2259941347,0.582812371,0.2188204577,1.3534935403,0.273639752,0.2915957326,0.6364858025,1.4072024963,0.7280721816,1.999413084,0.5677606516,0.0974997699,0.4026734129,0.2007001036,0.123321585,0.606273626,1.1237119578,0.3903875066,0.0242930237,1.511649838,0.5708496094,1.1097976246,0.1980240853,1.5253821881,0.1454552078,0.3740797261,0.516733939,1.2709142368,1.0618472944,0.8539731407,1.4842622701,0.3700455052,0.4012878944,2.2013085665,1.1930218175,0.1541435253,1.0657073293,0.2217956998,0.5092767229,0.6238899073,0.8820828934,0.6621056201,1.4357303748,0.3273061016,0.4164722413,1.2887948117,0.2352115432,2.5551415339,0.9959579075,1.9481715488,0.5780002796,0.6986819777,0.3197116945,0.0874990556,1.770245338,0.960540838,1.4823041945,0.8397787519,0.9958291814,1.2335309308,0.9854545678,0.4685604204,1.0555498081,0.9459743003,0.6259507729,0.8252736278,0.5711837986,0.180979542,0.9001972183,1.2787012964,0.4779212427,1.0078545658,0.943994619,0.6012556556,0.6211492967,1.0152140944,1.5411188215,2.0050013884,1.0760783288,1.2716761377,1.3294662264,0.5418118582,1.8875438577,0.1940313834,0.3720543417,0.6319123194,0.5698207175,0.316225122,0.6358753005,0.7459600714,0.7903442734,1.9960880347,0.6597765185,0.1233457616,1.5088767451,1.2717213647,1.4074567471,1.3071239017,0.9108647867,2.2232508521,0.9468830248,1.0886134517,0.8948222952,0.2469391509,1.0615647343,0.6087869349,1.3125205229,0.977873042,0.9496271617,0.4660913961,1.4021652403,1.3698997807,0.105632169,1.0942785488,1.746028824,2.2163577744,1.2028458966,1.702285779,0.315435477,0.9427466564,1.1992734655,1.3950647064,0.1643119641,0.9602164455,0.7179452074,0.5999724604,0.8245808358,0.2573490184,1.441569565,0.4935308207,1.0480017975,0.7698132859,0.312392671,1.7576429861,0.1786733014,0.142457503,1.1377933351,1.0252813187,1.342679509,0.3330807475,0.4312444302,1.1780595574,1.1439067894,1.6783192469,0.4306202953,0.8193455183,1.4642659918,0.6511013018,0.7819858849,0.8648975444,0.568794342,1.2767351696,0.455088639,0.0341304267,0.6219206836,0.3678882432,1.1899464879,0.8711356038,0.1829937945,0.9922536971,1.6551702985,1.1329426094,1.9229950311,0.9423783777,2.2253547189,2.1662316196,1.020388025,1.6922715431,1.5097020498,0.129759649,2.0113504382,0.3318126517,0.8299449081,0.3881227834,0.9358097952,1.4756048118,2.1005322891,0.509274725,1.1634569185,0.6612717603,0.298312228,0.2594787711,0.8794123615,1.4819401219,0.0004198561,1.1908178571,1.7276300486,1.366649915,1.1377970076,0.9988265091,0.7115266941,0.4237060001,0.1176704671,0.419526304,1.1135556282,0.7817034607,1.2331835761,1.4579156404,1.2667523572,1.3341937123,0.2709172225,0.7815273699,1.2339450066,2.6984944132,0.7267285204,1.1926892501,2.2352753332,1.5935152711,0.9929828621,1.6919623658,2.1564647238,1.3366843233,2.4514509507,1.1598798498,0.9897311112,1.256275278,0.4000592186,1.2962946838,1.0681738687,0.9477960148,0.3345265242,1.3929025558,0.7636544859,1.1617987594,0.8797094077,1.6130799016,1.4548375063,1.3849711527,1.2665749901,1.2544978905,1.1057033843,1.4910164003,0.5876201809,0.7975647815,0.8211249987,0.2541007707,0.1152863899,2.3057479753,1.0528702726,3.0647450246,0.4107407702,0.2484104679,1.0883691765,1.3704981987,0.2541312316,1.6363635002,1.3757795091,1.7239694138,1.0660842138,1.2501731654,1.3122853139,1.2759927255,0.9034851735,1.6908583856,0.0360295871,0.3703776142,1.0391355572,1.2871047096,0.0729360502,0.5878491845,0.6734627922,0.840681146,0.6036733369,1.9297842011,0.3756988297,1.2232840022,0.8412934059,0.4305002364,0.2966898538,1.0131457301,1.1376225486,0.9203604876,0.719612553,1.0318253652,0.6136071628,1.0239829831,1.356647964,1.7353029071,2.3447400123,0.8715219789,0.8564735158,0.3557849506,1.020309415,1.3163627342,1.1518937761,1.1866084821,1.5136796528,2.1123795443,0.1168753402,0.0115458717,1.1221915074,0.7225206309,1.6546030515,0.0668496812,2.2982178284,1.0696518248,0.2290882358,0.8975284861,0.3642868898,0.2515820632,1.3178844783,0.5306687172,1.3538988557,2.3054788697,0.9714326993,1.3479178781,1.3769182159,0.457327219,1.1274845792,0.2776049976,1.9034794805,0.7357237462,0.8505691846,1.3644675291,1.2093600515,0.9136356184,1.6860020189,1.3296077938,1.3011873485,1.780112699,0.2600859903,1.3875981546,1.904474679,0.5038741735,0.5934008873,0.6708741665,1.1664487985,0.6335468587,0.7340936764,0.5191999496,1.35521624,1.3469314141,1.0787696656,1.3341893209,1.4836109256,1.3822314308,1.6873792913,0.8698716275,0.6133136756,0.878594671,1.1304265831,0.1471162018,0.0706047202,2.8008218635,1.2353018776,1.4149692949,1.1695005897,0.4894456995,0.2140705817,0.116462649,0.1133200684,1.9559440176,0.6478115222,1.9789321511,0.0154015306,1.1421022599,0.3038849609,0.1189406607,1.0903132452,0.5766785293,1.1440391856,0.92464852,1.1740286546,0.157466126,1.7493230273,0.9723160494,0.7144045201,1.3943535378,0.3603131729,0.4640750557,0.4744539552,1.6621421888,2.3364954065,1.3499570721,0.386444115,0.4061501443,0.3682625843,0.6653455539,0.468249978,0.4173520577,1.4046372384,1.2767847523,1.2599020195,0.7362712225,1.5345261001,0.6084525123,1.2178319253,1.982583552,0.3811851599,0.6810477158,0.2974168631,1.9340703232,1.3225017135,0.5419090098,0.4097386409,1.5332228431,1.257870644,1.4779720835,0.1294752448,0.1659795736,1.1587446115,1.1761785882,0.0162271736,1.4017062286,1.8111094749,0.3307978819,0.6031129988,0.7511258557,0.1928391167,1.0860557101,0.1649763016,1.6467046079,1.3093685909,2.0668877981,2.8049887269,0.7710390688,0.2694821752,2.2749558455,1.5683091475,0.6730493484,1.4040753533,0.1594447785,1.3904331677,0.5836368442,2.521289834,1.063960736,1.3089015746,2.5075635262,1.9671998584,1.0369149528,1.9031065032,1.2882805896,0.383740563,1.1196549899,0.7044756137,2.9667923805,0.8133102651,1.1235043558,1.3255050701,1.397708512,1.1888971073,1.0133860965,1.0864917879,0.0548357156,0.6824978983,1.0743749664,0.2886126303,1.2238412895,2.5204219913,2.0818539345,0.9442508215,0.7488978535,1.2978413512,0.3434786978,1.0862345078,0.5639293301,0.7152874401,1.1070943328,2.1878919863,1.7738089512,0.0274993097,0.8661436712,1.0463553795,0.1394687716,1.1100627459,2.6918847527,-0.1697667947,-2.3358120837,-0.5789797567,-0.6307503125,-0.9832245721,-1.1444818012,-1.1293144435,-0.8050130813,-0.2887172825,-0.5781959934,-2.2467296955,-0.8876677626,-2.2844955819,-2.4875091701,0.0795433216,-0.3276458926,-2.8578742962,0.0378857705,0.3810033874,-2.5678729737,-1.4703652917,-1.6576826852,0.192630874,-0.0881698295,-0.3515357052,0.2822280748,-0.6015072726,-0.3651417458,-1.7048182553,0.0334368317,-0.4863584407,0.3839151779,-1.677390846,-1.0336931447,-0.4342046771,-0.6808053591,0.0770518895,-0.3951654898,-0.9684424123,-0.7129178542,-0.4457560526,0.2821634981,-0.6619221114,-2.4774985144,-0.4980464593,-0.6239467311,-0.8277456758,0.1977599302,0.1264339317,-0.2756010736,0.0712408636,-0.5483821753,-0.5567662345,-0.5757697382,-1.3098864679,-2.1892216617,-2.3550139933,-0.89448229,-0.099705972,-0.6546479537,-0.7311279709,-0.4718350258,-0.2331104566,0.3266246904,-0.6406271422,0.0757660135,0.2931526202,0.3048706166,-0.0043946503,-0.9639729894,-0.9769058852,-1.4698138991,-0.2099209324,-0.1293827327,-0.3608802441,-2.0823377273,0.3664735534,-0.7312715182,-0.4359668409,0.1174787213,0.2242088717,-0.3289231765,-0.6452357997,-0.4792231356,-1.4067760793,-0.0020754711,-0.4079455075,-0.8686486703,-0.0077201403,0.1958623341,-0.3647491575,-0.2709590491,-0.1253941862,-1.6670411435,-0.8763201517,-0.7255061736,-0.8664538766,-0.4307417718,-1.3875475103,0.1081915038,-0.4580481435,-0.3648152382,-0.7772275255,0.2123764624,-1.1314479887,-0.8493022859,-0.1467335443,-1.2503488374,0.015851779,-0.8925159087,0.3462877962,0.1975351191,-0.093577984,-0.1740284721,-0.8659167335,-0.072297625,-0.7796581066,-0.6426713097,-0.0723514488,-0.4927026273,-0.1283100467,-0.9531738816,-0.9818397101,-1.2033300392,0.3738686473,-0.1842395829,-0.4941424674,-1.3699391716,-0.7085770881,0.2531091134,-1.4462784835,-0.8017626182,-1.0527287726,-1.2073631165,-0.8163987744,0.3003093096,-0.1811738336,-2.0805738263,-0.9510699341,0.1799294566,-0.0469542173,-2.3127766573,-0.8750179877,-0.0539442329,-0.7154581856,-0.5903261718,-0.5147131435,-0.6096343727,-0.3077990591,-0.022558888,-0.1576362195,-1.4888158456,-0.5539250387,-0.0261000248,-0.3299389925,-1.2710953448,-0.0742099496,0.0288854836,-0.3527658509,-1.6237644407,-0.2678167744,-0.8380957889,-0.0788517568,0.3411275217,-0.7666119883,-0.4133808326,-0.3074803059,0.0389332412,-0.0314913558,0.2997131484,-0.5933760467,0.1239862327,-2.8736873205,-1.4997461091,-1.6266692621,-1.9674364659,-0.5999268677,-2.5033457786,0.2295834937,-0.8149491908,-0.2309603405,-0.8871382829,-0.5995647194,-0.1278258343,-0.9599708666,-0.7390427481,-0.4836581143,-0.9867124318,-0.1442332952,-0.0176020794,0.0022262385,-2.4460331654,-0.7861937029,-2.2022449499,-0.8955256789,-2.1270918373,-0.7546222918,-0.7300692697,-0.0392465055,-0.1667003939,-1.58845204,0.0905051778,0.2966731211,-3.1918861935,-2.2724287547,-0.8339473881,0.1239818266,-0.8637995975,-1.271369892,0.3249974144,-0.7686983291,-0.326419966,-1.4041400551,-1.0976009869,0.2184003793,-0.1469030501,-2.164842037,-0.8989903946,0.2548577626,-0.7805879761,-0.7604789054,-0.0646508821,-0.855935538,-0.0793964696,-0.199940581,0.2982737372,-0.8210494518,-0.9311818724,0.1729977847,-2.1381588181,-2.1019756167,-2.7353164032,-0.3064897517,-2.7404028079,-0.5039041,-0.5929005172,0.4088076181,-1.1198323881,-0.5751867172,-0.513094338,-0.8150588461,0.3323111703,-1.4345309864,0.0999447286,-0.3882806604,-0.9153354476,-0.8347632607,-1.6308963993,-0.7937475382,-0.5165775474,0.1775473508,-0.1873322818,-0.7112127145,0.0164137886,0.2087898922,0.2178608947,-0.9515110074,-1.5967095892,-0.1047825901,0.0216144161,0.1427028266,-0.8759238109,-0.3032231723,0.3335618009,-1.3057803598,0.2620840182,-0.2604458208,-0.4499072739,-2.1988422264,-0.9902165931,-0.5383840744,0.3157313223,-1.4021189491,-0.7912603103,-0.7895697763,0.300636866,-1.0354814295,0.2678441472,-3.1544657375,-0.6543220349,-0.8486862761,-0.5874008705,-1.9372314323,-0.004859441,-0.3605002721,-0.0529321719,-1.0343644352,-1.2649581596,-0.3594842298,-1.1229599452,-0.0509023803,0.2660967999,-0.8109893747,-1.8869866599,0.3322883416,-0.7330329681,-0.5559423264,-0.6512989161,-0.6310801896,-1.6912745062,-0.9818258204,-1.7879685594,-0.0737579342,-0.6690146484,-0.1768056497,-0.2251011762,-0.5407316584,-0.7112398264,-1.7441795762,-1.3324116184,-2.1883688387,0.3213674771,0.0119718847,-0.5473936639,-0.4444209267,-0.5330427664,-1.2808358359,-1.5395701959,-3.0682419525,-2.4273507367,0.2088939672,-0.4001205399,-0.3911831122,-0.6632334795,-0.1445117805,0.3734951884,-0.3411059819,0.0278662428,-1.2059165088,-0.2289160878,0.2501191348,-0.1287705938,-0.9748419213,-0.950747951,-0.3446777316,-0.8517465063,-0.789061469,-1.8010280082,-0.3972945438,-0.9178852023,-1.104034685,-0.7916706163,0.3325815534,-1.0104084058,-0.8657838532,-0.9190820611,0.3350475781,-1.9486250709,0.2687983367,0.1982009562,-0.9853934689,-0.5131746713,-0.46949431,-2.6490333581,-0.0381904934,-0.1810187355,-0.7994228495,0.0724122397,-0.6353514814,-0.5102078671,-1.2689384445,-0.8808503911,-0.2854118283,-0.6777090916,-1.9798360814,-0.9110099984,-0.9506223889,-0.5979699812,-0.2795665022,-0.0213208411,-1.9306038111,-0.2279792465,0.194079227,-2.6357269926,-1.445418011,-0.5853381297,-0.5543850836,-0.8833311229,-0.8240048047,0.1562750912,0.0776346677,-0.0068793082,-0.7711426439,-0.7705843961,-1.1682681739,-1.1119478108,-0.2181995008,-0.5986389916,-0.3676687386,-0.3575488936,-0.1295159729,-0.8830081384,-0.6185368261,-0.0197663643,-3.1891483098,-0.6887172273,0.3996794741,0.2086798915,-2.6712442535,-0.8480324327,-0.4744720438,-0.9889962999,0.370612224,-0.6776382786,-0.2617511987,-0.0678581281,-0.2421693948,-0.5333818556,-2.4576615918,-0.6397661641,-0.9361491165,0.0940946179,-0.0777078597,-0.9849437225,-0.8070574918,-0.5760070628,-1.0123265905,-1.6205539873,-0.4595781329,-0.3182811654,-0.2929150506,0.0768055068,-2.9807986466,0.2413590505,-0.9987342899,-0.07546252,-1.7474615387,-0.6513992348,0.2318730327,-1.9190849763,-1.4066516312,-0.3641710496,0.1105433251,-0.3415744401,-0.1393193395,-0.0477799634,-0.1812799883,-0.6244324872,0.253057709,-0.7602662796,-0.5163224334,-0.0955814159,-0.2197991604,-1.9787685408,-0.9337101293,0.3672698737,-1.0556414748,0.2064634715,-0.7885856149,-0.7794123724,-0.1109788397,-0.9916714269,-1.9500133885,-0.6201612724,-0.3406764384,0.1837316159,-0.5307169176,-2.2778017315,-0.9313983001,-0.5585312122,-0.3264647703,-0.3581400208,-0.9412639223,-0.153735346,-0.9420448415,-0.9136084742,-2.1686203255,-1.0493083683,-0.4511115697,-3.1773386129,-0.8769027205,-1.6124601743,-0.5341833872,-0.8500319209,-1.6757606839,-0.6803346947,-0.6209096031,-0.3387329714,-0.197855274,0.0601619089,0.3469451655,-0.6930973525,-0.8309938432,-0.5777027204,-0.3871091776,0.3964062254,-0.3481034482,-0.9118957205,0.1725363883,-2.122636149,-3.1609088793,-0.3800478239,-1.0406946011,0.3521117454,-0.8452634024,-0.4304006162,-0.7332374894,-0.2138666693,-1.1629065837,-0.0169309145,-0.2361341084,0.0423037412,0.1183923002,0.0253520247,-0.0264066234,-0.2085258224,-0.1116031771,-0.0222438827,-1.6451178964,-0.200595434,0.0370979047,-0.667405383,-2.1909873531,-0.1312571064,0.2161177944,-0.7977281598,-0.5975029868,-2.9180955933,-0.6293804974,-0.7646233949,0.1483969269,-1.8985439539,-1.1809393938,0.1271478556,-1.4220720251,0.2938546606,-0.8646741618,-0.3573112363,-0.1233890014,-0.5953375897,0.2992430642,-0.361490095,-0.4272819213,-0.3837606934,-0.8344395118,-1.0937606853,0.0316223079,-1.3254805489,0.3268840108,-2.6739956119,-1.9828055487,-1.3938789774,-0.566291551,-0.6235599441,-0.0937536591,-2.6791915819,-0.0387574399,0.1033724441,-0.7684487217,-0.352767286,-1.9506214638,-1.8398343746,-0.27388538,0.2691491502,-1.188235157,-0.5161543937,-0.0864738147,-0.1177075001,-1.489662441,-0.7577069712,0.1389555144,-2.507609624,0.405502288,-0.2260866086,-0.9400910576,-0.5215995103,-0.5120013135,0.3698421626,-0.1932636141,-1.1193496935,-0.6661951025,-0.8267387034,-1.527652874,-0.4024074526,-0.1900823547,-0.8532756673,0.0223068066,-0.5596868724,-2.6044574937,-0.4686674852,-2.2255388839,-1.1295216798,-0.402915323,-0.9651035521,-1.3654427386,-1.5132077783,0.1458466948,-2.6961686003,0.2776985377,-0.1689108897,-0.9876192431,0.3136228993,-1.1668888708,0.3794154999,0.2775628298,0.0705595829,-0.0540521561,-0.1169445388,-0.4409792628,-0.6460766033,-1.1506071028,-1.0563293841,0.1181118316,0.3805369246,-0.6138919238,-0.7683292267,-0.9936246467,-0.4804350298,-0.3755459934,-0.3141296472,-0.3443205942,0.3013921915,-1.9400909688,-2.3198724948,-3.0949809977,-0.1576943306,-0.6407139356,-0.3446596373,-1.4514182182,-0.1933300335,-1.5042073921,-1.6802101219,-0.6077453477,-0.9744312145,-0.0730311588,0.2765141246,-1.9478704729,-0.4381612497,-2.8366379828,0.0245250699,0.3976611971,-0.7785481781,-0.749147808,0.1858925949,-0.6813919761,-0.8976702652,-0.7713610527,-0.9512034749,-2.5794689963,-0.6506832087,-0.617795491,-0.3558125342,-0.4983504912,0.1230150659,-0.3164811294,-0.7640668985,-0.1841081272,-0.6770782014,-0.5259329664,-0.5820227015,0.1226787769,-0.2671940423,-2.3007653613,-3.3606936152,-0.7298144314,-0.2287659036,-0.9038518494,-1.5728282586,-0.1097337709,-0.5763577351,-0.539093417,0.0574313852,-2.7033408043,0.1006714911,-0.1444571955,0.3656777942,-0.3448305749,-1.3225188977,0.0176088972,-2.3280528336,-0.502145794,0.1632448455,0.0883067714,-0.688797994,-0.1229243689,-1.5001050522,-0.5598931917,-0.1516599441,-2.3837788573,-0.8708014904,0.186415746,0.0040209451,-0.2709278705,0.4010870905,-0.0684447654,-1.8197740532,-0.4094400408,-0.7994295491,-0.460904103,-1.4862670319,-0.2467676862,-2.6663072686,-0.8148207745,-0.9198701305,-1.4091889961,-0.8971228021,-0.5340313431,-1.1094283569,-0.9343885636,-0.0786093376,-1.1822919161,-0.6524693153,0.3223629383,-0.8890479818,-1.2089589537,0.102315877,0.253119266,0.096173144,-0.262007708,-1.0505741565,-0.6394264521,-0.3867509719,0.3739299354,0.1481410278,-0.5659206764,0.0119971635,-0.2438630395,-0.1874469299,-4.089517027,-1.4731843977,-1.0377367968,-0.7384485902,-0.3443842729,-0.3248149405,-0.6932665784,-0.4044509266,-2.2552566125,-0.0017820003,-2.4382906337,-0.8576757569,-1.0110567671,-0.9167123107,-0.3532021228,-0.9755216617,-0.3234584343,0.1603237358,-1.2952133676,0.0785315464,-0.6848601765,-3.0676665138,-0.3014404105,-1.3686019753,-1.9949367581,-0.708444061,-0.9745943555,-0.3459636314,-0.5551977635,-2.1941439241,-0.3683325717,-0.9034008985,-0.0388675652,-0.0523630389,-0.7885930474,0.0641844055,-0.9814803088,-1.9774214388,0.074540208,0.4016112485,-0.6751117176,-2.2840214132,-1.7915424735,-0.3770272348,-1.5527653244,-0.8944425611,-0.3664193606,-0.4327443392,-1.8808751301,0.13275141,-0.2429908339,-0.0404911231,-2.0099157241,-2.6133805438,-1.5479699447,0.2686635616,-0.9506771872,-0.6318973646,-0.0654199448,0.0504312499,-0.5546690312,-2.1240896385,-0.1595014365,-0.5016550755,-0.3606124861,0.2628926248,0.3404343983,-0.6415922221,-2.667045078,-1.3636195138,-3.2868893563,-2.6998227457,-0.7785251745,0.0066847696,-1.9504160039,-1.2634577869,-0.2018152039,-0.2437878756,0.3043515145,-0.0466002843,-1.0206542898,-2.2186762876,-0.173289214,-1.5285641253,-2.1642118275,-1.4296091031,-0.7170365754,-1.7885438589,-0.9647684396,-0.6497683498,-0.9844124821,-0.5315685713,-3.1751683574,-0.3715693107,-0.3818540904,-0.8901937921,-1.2308116339,0.1819470231,-0.8962806411,-2.0324431948,-0.9322920849,-0.0980998447,0.3828460621,0.1365135586,0.0090426314,-3.5761135147,-1.5363656747,-0.1780090058,-0.3014557735,-0.9379652063,-0.9174881889,-1.9786536228,-1.2353253223,0.3412823802,0.3377089004,-2.2539499771,-2.6480611198,-0.5633882231,-0.0502366033,-0.9517079435,-0.0879579538,-1.2817475596,-5.386317422,-0.6935088173,-2.4640284404,-0.7155600202,0.3914784215,-0.6461947317,0.020978528,-1.5185380672,0.0511683902,-0.2469683049,0.0813219642,-2.0161106155,-0.2555410743,-1.8472656592,-2.2103397683,0.2937648393,-0.1755773189,-1.6104257693,-0.7753488669,0.2238026888,-1.7065332358,-1.2243693892,-1.7759715668,-0.8355569578,-0.7406465641,-0.7120924219,-0.2227361862,0.0292036544,-0.4696720252,-0.4985531644,-0.0656575524,-0.0468320329,-0.3959882175,-1.437623481,-1.404440488,-0.591999551,-0.7430444055,-0.8292286022,-0.1387800715,-0.3020144459,0.1390367537,0.0808104336,-0.2115406302,-0.9459520395,-1.3517660657,-0.6341520439,-1.025443856,-1.7356581898,-0.1596922715,-0.5209822082,-0.1612294583,-0.7473373227,-0.2967851409,0.0883284161,-0.0653656356,-0.652790703,-1.6168249462,-2.1152331023,-0.6637948746,-0.6925829823,-0.7758612148,-0.1447333656,-0.3167333318,-0.5304964118,0.1664733425,-0.031171495,-0.6622232324,-0.4980430531,-0.7768838297,-0.5845712209,-0.7191685611,-0.2962790853,-0.7096721782,-0.6408735551,-0.27771536,-0.2287340043,-2.9148568892,-0.9850168575,-0.4241344504,-1.10445908,0.3829841557,-0.5467823858,-0.0383063004,-0.5333138077,-0.707907234,-1.5317919492,0.0834405855,-0.2670391378,-1.4631868532,-0.5702918503,-0.4315417818,0.1345506548,-0.6282707955,-0.8679385001,-2.2600064399,-0.1131793448,-0.0420617508,-0.1958154871,-0.6649991384,-2.4929112183,0.1581294484,-0.8440128065,-0.8747296681,-0.0095184852,-0.620589798,-0.7388607001,-0.7994165839,0.3880859478,-2.0714505652,-0.2527132323,0.2478660186,-0.470085465,0.151351423,-0.990102078,-0.5636316652,-1.9104492998,-0.0949911925,-0.0741561866,-0.3079882735,-0.2307417157,0.17384017,-0.802533668,-0.4667194651,-0.6973016032,-0.9396576619,-0.8981963859,0.0635074356,-0.562086644,-1.6344149544,0.0316494122,-0.1999003701,-0.5043552352,0.1274237232,-1.1309643101,-1.8250954772,0.3344903635,0.1644209144,0.1362611179,-2.5804772483,-0.4638963923,-0.5265075808,-0.1639592088,-2.0220416921,0.0023830605,-0.3739792572,-0.9683627996,-0.7971465478,-0.9416375248,-1.1271222524,-0.1620374171,-0.4836167538,-0.4668373938,-1.6981452133,-0.3758148989,-0.6328081704,0.356994973,-1.7582264516,-0.0705924642,-0.2134217792,-0.784046452,-0.9422205652,-0.926394963,-0.9090969134,0.026566449,-0.772590114,-0.0688163143,-0.9468642894,-0.80652776,-0.2721282504,-0.6494191889,-0.6908816579,-0.4344538004,0.2505229938,-2.5834656596,-1.5668841387,-0.7420091478,-2.9896343952,0.3670647451,-2.9788102488,-0.4361165458,-0.1420966072,0.1497288676,-1.0532709873,-0.7386966001,-0.0494837435,-1.7488049533,-1.1232087322,0.0149804577,-0.3061119446,-0.7552085162,-0.1020105153,0.0846505555,-1.3214365068,-1.237587856,-2.7698306944,-0.5742822158,-1.7770392885,-0.185672425,-0.1312205176,-0.9064752398,-0.3525237545,-1.0734205551,-0.1618118289,-0.6862595477,-2.4314027204,-1.9346522377,-0.7724194166,-0.8911665092,-0.6311740955,-1.351444487,0.2920845632,-0.2386388125,0.1891785312,-1.5117585658,-0.9183314224,-0.4290611914,-1.1828518292,-3.0032493271,-0.8371255587,0.2867157121,-0.588280334,-0.7319307061,-0.4494837994,-0.4724564125,-0.9697773482,-0.3639382188,-0.6643225941,-0.1454727311,0.3642015025,0.4027834533,-1.7340071265,-1.799280985,-2.981166116,-0.5423299552,-2.9564177831,-0.3542060012,-0.1637627734,0.0139843798,-1.6642708122,-0.4508009829,-0.8833031383,-0.1337856429,0.0890324932,-0.9477932465,-0.7279514931,-0.3159519302,-0.9821196659,-1.1170040433,-0.8325979882,0.0954545105,0.0114561173,-0.1769417855,-0.7736014212,0.2042044656,-0.3785261043,-0.0486580496,-0.13454174,0.1381823122,-3.008583191,-0.7468987893,-0.3899518155,-0.6602977508,-0.3833361604,-0.3477203182,-0.6215660649,-1.3317732554,-0.2376532396,-1.161519016,-0.1493422016,-1.0567265136,-0.3724487331,-1.0767983353,-0.1234762734,-0.6125796073,-0.0587487292,-0.7171731914,-0.0306885839,-0.4679273673,-0.3768240567,-2.5873862,-0.0265203879,-1.1319134395,0.1466300947,-2.2920501627,-0.4478906423,-0.3772294282,-0.8249204771,-1.1355178122,-0.9002581182,-0.9179100003,-1.0832600904,-0.202625706,-0.9363496545,0.2023978409,-1.7111964016,0.2532105916,-0.6548975373,-0.7850124013,-0.3485971454,0.2279507934,-2.7159631983,-0.7233666405,-1.070998396,-0.1133928243,-0.7635804131,-0.6796361725,0.1102800207,-0.5937880347,-0.2698346173,-1.4843848891,-2.9480413782,-1.8818024159,-0.2128066989,-0.1986597325,-0.0258387201,-0.3111161072,0.2782751686,-1.2665859173,-1.9206177613,-3.0259979521,-1.420245396,-0.5484933585,0.1978750006,0.0633958433,0.3237176244,-0.0000892247,-0.0039168976,-0.7218294632,0.0363158813,-0.5938057635,-0.6336994451,-0.8983141388,-0.4600977437,-0.1378607714,0.378988875,0.4100484349,-0.6200206051,-0.8190341841,-2.1103042794,-0.1120739026,-1.2731244589,-0.042831249,-0.5054354977,0.1986516041,-0.0995710638,-0.3444302189,-0.9505353673,-0.8756221583,-2.1316058668,-0.6749760614,-0.2628466885,0.1755733503,-0.4851583975,0.0484625306,-2.1550679801,-0.697934762,-0.6706573933,-0.6940295168,-0.7139835933,-0.6021301638,0.202958072,-0.2781680915,-0.9552067701,0.0876613752,-0.9101982422,-2.4002771785,-1.7774192041,0.2862435907,0.0890753822,0.2747853469,-0.6303969464,-2.1716442164,-0.8525515351,-0.7702133358,-2.400926358,-1.7363931449,-0.846082628,-0.3423372023,0.2771865592,-0.4951082905,-0.1944769168,-0.7749532707,-0.1154036249,-0.9915811301,-0.5746772049,-1.3253844568,-1.0370578715,-0.6658568234,-0.6287188591,0.1544113098,-0.1488873279,-0.8995997669,-0.054460129,-0.3628024404,0.3172479927,-3.2121908584,-0.506638374,-0.1407269074,-0.7436673429,-2.3608443646,-0.7752489311,-0.4328849329,0.2850889437,-0.8858684627,0.2766636323,-0.8009584546,-0.3287777241,0.3325614986,-0.6311745192,-2.5977336935,-0.5357114622,-0.9835906805,-0.6506742079,-0.5275919759,-0.184452866,0.1131668504,-0.0321813147,-0.0204889847,-1.0825416825,-0.4928057328,-1.391052346,-1.1029189802,0.281607117,-2.0251275081,0.4029467123,-1.638450822,-0.2001183183,-1.0012772156,-0.4194822387,-0.7089474878,-2.7110071944,-1.0374128152,-0.8121414776,-0.3497990703,-0.0114395384,0.3099153708,-0.5911627154,-0.6819794694,-0.8474043156,-0.8957155176,-0.1303072925,-0.1624977809,-0.0825191347,0.0743639037,-2.1035481603,-1.5890667023,-0.0442796621,-0.8091410072,0.3629101449,0.3661563849,-1.3299868931,-1.202935232,-2.0113159454,-1.526941869,-0.929236558,-0.6227755922,0.0607710891,-0.9897378811,-1.8865487196,-0.0594754979,-0.7208199729,0.3054872464,-0.389491024,-0.9153062797,-0.8377805912,-0.6584809581,-0.0030885467,-2.2871705257,-0.7673694098,-0.0064203898,-1.6680974759,-0.4720564325,-1.0175611043,-0.6265943399,-0.2801846726,-1.6708074099,-0.7317846296,-0.4282378844,0.0999168493,-0.0285237941,0.3655587841,-0.7194368962,-0.681097821,-0.2455830012,-0.5925609137,-0.0092394222,-0.3613224571,-0.3438499525,-1.0439611417,0.0996919187,-2.3456372547,-2.2772056373,-0.7433130947,-1.9286383499,-0.3368189066,0.1168013532,-0.9554234401,-0.5314197139,-0.6561739254,-1.0283766401,-0.9922745057,0.014529014,0.0869692322,-0.6783411299,-0.6319145432,-0.7384882713,-0.8402802912,-0.5412443993,-0.0599939664,-1.1688868889,-0.5811002316,0.1492133816,0.1994016056,-1.5035144084,-0.673020803,-0.7869734405,-0.1710942859,-0.1392232009,-1.6738406095,-1.2554714488,-0.4137476665,-0.3230354295,-1.447637206,-0.9860823674,-0.2514659835,-2.1835165975,-0.8412110698,-1.1541226153,-0.815645218,-0.35972191,-0.4404253673,-0.0113172732,-0.7451531541,-0.2839067471,0.0367162995,-0.9909807975,-2.1266120408,-0.8834559231,-1.9281207971,-0.5883208035,-1.873572531,-1.2693097332,-0.8628075152,-0.4597794682,-0.5705123109,0.1058585338,-2.689101858,-0.1823513836,-0.5625164206,-0.9233136308,-0.4217170524,-1.608965611,-1.44385497,-0.6271890812,0.0416673558,-0.2537051651,-0.1761007185,0.2531439934,-0.9637844801,-1.0774817475,-0.0275401487,-0.3201852695,-1.8456042271,0.3354943756,-0.1479947246,-1.2213367389,-0.4497560164,0.0516158849,-0.0503932924,-0.3093256288,-0.4924861618,-1.8124861661,0.2271538333,-2.167429884,0.0993637968,-0.518917331,-0.911667772,0.2868659551,-0.2377821346,-2.3754034272,-0.5554697252,-1.346204172,-1.4451915958,-0.8178221512,-1.6070331227,-2.5389854871,-1.3734986281,-0.2179740114,-2.6685660527,-0.2982129945,0.3908520061,0.1116153989,0.1196873105,-1.7403922649,0.0309211762,-0.6536411286,-0.5325924989,-0.8882155914,-0.2269067475,-0.7377650156,-0.6566066195,-2.0274387072,-0.3580601658,-0.0610916746,-0.4030697494,0.1739764491,0.2647197806,-1.8202427429,-0.319577312,0.265282527,0.409433785,-0.9330906204,-0.7432869456,-2.9015162479,-1.5524254263,-2.1292807423,0.0507435776,-0.9843257259,-0.0598257152,-1.3355878782,-0.4313059843,-1.3492733868,-1.8676298995,-1.4051376861,-1.1390610836,-0.5620467179,-0.6111745046,-1.7073322507,-0.2613240751,-2.2127227434,-0.5847864454,0.4005958753,-0.1519390617,-0.038762877,-0.4654314785,-0.8262180402,-0.1303604788,-0.539486715,-0.3091800005,-2.4633518514,-0.4612101957,-0.1185606165,0.168853036,0.205650756,-0.1217013439,-0.6898584779,-0.5719071861,-0.7941050354,0.2670288816,0.0443403794,-0.5553490296,0.3673622985,-0.6122120311,-2.4480117793,-3.2937765592,-0.1132630166,-0.4191621623,-0.0306045782,-0.8577591095,-0.4789451037,-0.5513531956,-0.4039663552,-0.6500977732,-1.8059456987,-0.2299928708,-0.3612047035,0.3836742039,-0.9407627807,-0.4214640599,0.4064209632,-2.1782967261,-0.2179308322,-0.8333145533,0.2977435482,0.3988526017,-0.1430489997,-0.1222892752,-0.1699083726,-0.0228388416,-1.0984561231,-0.2987857863,-0.146874934,-0.8501045212,0.147398039,-0.2483286274,-1.1862884521,-1.595786184,0.1887743132,0.3705700968,-0.2143013941,-1.6481973466,-0.2932754145,-1.4225074357,-0.2633403281,-0.8000216465,-2.4005958692,-0.3763420874,0.0774675768,-1.3376220742,-0.2585142487,-0.8155023742,-0.5928419236,-0.9832033041,-0.1773040001,0.2982838208,-0.9783670583,-0.1635242096,-0.8055615611,0.3251775986,-0.1560242647,-0.5927901448,-0.2557938561,-1.0907026069,-0.6050976856,-0.7803155997,-0.6426511445,0.1690041373,-0.9687806509,-0.6773813325,-2.6373787225,-1.2240749064,-0.2058363038,-0.8526280712,-0.107517758,-0.9247506634,0.3058549767,0.4013640018,-2.4783433538,-0.680037215,-2.9022460818,0.0728181009,-1.880178685,-0.7558031523
   -0.2140448383,-0.6595314266,-0.0833316992,-0.570425407,-1.8809602027,-0.6596718375,-0.350199632,-2.0901586599,-0.5057294615,-1.0952069836,-2.500495154,-0.7602126989,-0.3425391642,0.3804290499,-0.6973445819,-1.7638333641,-0.5879502465,0.083188233,0.1004015074,0.3756866728,-0.7023980755,-0.9903760081,0.0339509883,-1.6694651265,-0.4108518823,-0.8954928627,0.1810170391,-2.9641532306,-1.3239587306,-0.7878154962,-1.4122973935,-0.1376161958,-0.6140362565,-0.5658370196,-0.3411808355,0.0934371341,-0.8790261231,-0.8869909741,-1.9053067156,-2.0328730668,-1.6566074845,-0.4630450081,0.1575655354,-0.5774916904,-0.7610691401,-0.6928024039,-0.8917876581,-1.8295638396,0.3736104361,0.1872727703,-0.8622575993,-0.79204454,0.2992858361,0.234182658,-2.0371029368,-1.3000751273,-3.1121881584,-2.8525050815,-0.3187938365,-0.7003962018,-0.8952483606,-0.6228776072,0.0846545744,-0.3510812329,-0.8485620976,-0.8531579098,-1.1610614203,-2.5196895506,-0.6645841275,-0.4102073111,-1.9542286341,-2.081031908,0.1701795113,-1.555820319,-0.6137720862,-0.507145214,-0.1063895964,-0.6449981404,-2.5951651497,0.0375004701,-0.515754964,0.2395286407,-1.8958366371,-0.7652879487,-0.4189202683,-2.0593012784,-0.5976037524,-0.2197603258,0.3556268192,0.2306775026,0.0324653839,-2.5768970522,-2.462906533,-0.3476393782,-0.6646117948,0.2587043901,-0.5447197448,-0.5098472651,-0.5974210094,-0.0375828438,-0.6881277131,-1.788875155,-2.666092103,-0.9853493176,0.3719967408,-0.0075129114,0.2980897636,-1.4122474961,-4.6815588706,-0.7205528903,-2.5803699397,0.2002757844,-0.7987453106,-0.1032979165,-0.6198117861,-2.3729740823,-0.9826386024,-1.1452229993,-0.3663462106,-2.4867464774,-0.5593658938,-1.4993624388,-1.3731333353,-0.1450356932,-0.7885570949,-3.0298962278,-0.4236373284,-0.2365946771,-2.4641249558,-0.7519511174,-1.0932056839,-0.0136923619,-0.9631029978,-1.1967682907,0.0187169198,-0.3234104421,-0.7414904239,-1.3488109407,-0.90712111,-0.1824876785,0.2822689143,-1.2998188708,0.1598098498,-0.3358815704,-0.7840741209,-0.1891365207,-0.0051180685,0.0619103258,-1.2351478498,-0.7525968467,-0.2203004704,-0.0193502742,-2.1197922268,-0.8307246025,-1.9117537769,-1.3775176606,0.2080348582,-0.6124800956,0.4110691629,-0.8656922438,-1.0389794481,0.2831456941,0.1523717978,-1.2898344626,-2.6117064138,-2.0195303781,-1.0352369213,-0.6037926187,-0.8894913397,0.3047320576,-1.2371927365,-0.0225666831,-0.9508911004,-0.2021891175,-0.4522554309,0.0836697871,-0.0702320202,-0.3000743485,-1.0912082145,-0.6039052186,-1.9847230806,-0.1319807751,-0.2933492804,-0.8150613409,-2.8705515139,-0.2347208676,-0.6064919954,-0.7665153337,-0.4944191259,-0.6840699728,-1.214201964,0.3788498443,-0.9929462918,-1.8034241469,-0.141328753,-0.5923965301,-1.0065900526,-1.1502441842,-0.7660048659,-0.5030573235,-0.8020620658,-0.2113905317,-1.4482183637,-0.8101697994,-0.2520670861,-0.6118476352,-0.555080876,-2.8238897172,-0.6898428838,-0.4132520319,-0.6558866846,0.0425666235,-0.675820447,-1.6521536525,-0.2519462208,-0.2694148069,-0.9588820677,-0.513881738,-0.2383117265,-0.4771475262,0.1817860886,-0.3650407093,0.2653884064,-1.8479839892,-0.1910844712,-0.3739916772,-0.9892871163,0.053369238,-0.2088856039,-0.5149257986,-1.4557975827,0.0352680195,-2.1476372102,-0.2554759708,0.3429651342,-1.0511731908,-1.741992743,-0.3118921793,-0.9598271512,-0.9248444708,-0.1127754205,-0.5156189142,-1.7158119072,-0.8196079787,-0.790800315,-0.224281164,-1.8671482909,-0.6382243701,-0.4168288816,0.1015057482,-1.5766746663,-0.2304460743,-1.2000219244,-1.3109440125,-0.7443430237,0.0598292573,-0.7480354721,-0.8226210778,-0.545725024,-0.4553290019,-1.3450987456,-0.257801326,0.263596033,-0.3785382431,-0.7035263858,-0.4344306141,-0.8604071905,-0.3032869458,-1.9766629249,-0.5469577506,-0.4945944336,-0.3135863741,0.0241879465,-0.3971597771,-0.8724840884,-0.1932798412,-0.9243823401,-0.1370171224,-0.6989074557,-0.2299933248,-0.8448480662,-2.9279406659,-0.8803271977,-1.5786253287,-2.0913657089,0.4152466185,-2.3499215392,-0.8362266542,-0.8836384809,-0.2689053373,-1.2269683274,-0.305229164,-0.1669229419,-1.3106290598,-0.8682597933,0.3095270927,0.1779613507,-0.8002618974,0.0252116976,-0.6706001406,-1.4939593006,-1.3617676697,-3.078317506,0.3979316184,-1.2088768187,-0.9239752469,-0.7717634613,0.115694603,0.4099787927,-1.6217826983,-0.9879687696,-0.8024769308,-3.1476639335,-2.1415021958,-0.6672143134,0.09956071,-0.3788478855,-2.2452118348,-0.7768675606,0.3779875934,0.3060543781,-1.7900180558,-0.5530148305,-0.4472603533,-0.6765373934,-3.0892708769,-0.9810557049,-0.4915682531,-1.0810191161,-0.7551856513,-1.1655973613,0.0905682821,-0.8294588398,-0.3887426086,-0.6274882065,-0.9303969557,-0.8631340213,-0.6390582332,-2.4581378329,-1.364438021,-2.7194054992,-0.0738875864,-3.6298837341,-0.7787712374,-0.9163013687,-0.2089419742,-1.8882236956,-0.1650887929,-0.9875207661,-0.6359989154,-0.3097498688,-1.7584732544,-0.0610906774,-0.5269741256,-0.7863752239,-0.6492961823,-1.7855416612,-1.1432837384,-0.7334072554,-0.3631622964,-0.5435624653,-0.0129290039,0.1346255236,0.1629203289,0.3200858073,0.3301733803,-2.7257526824,0.220111445,-0.6317785048,-0.8842260844,0.2881292456,0.2262357547,-0.4886406754,-1.090302862,0.1261775636,-1.0237860217,-0.2633609526,-1.3328999475,0.0317168933,-1.1714209499,-0.4569921691,-0.8609415919,-0.3390393118,0.1231057771,0.2083640076,-0.6168308737,-0.9754351848,-3.9753315345,-0.3675750065,-2.4581573849,-0.4396352304,-2.4317772977,-0.0878824912,-0.6162282211,-0.8959019449,-0.7241975105,-2.485686559,-0.6692501612,-1.1802046652,0.3315866124,-0.5650526668,-0.5427013196,-2.5396816903,0.0340450746,-0.2557791335,-0.6631785658,-1.0727983592,-0.8344885467,-2.532676612,0.1102436704,-1.736206849,-0.9086210988,-0.4482732438,0.4014958438,-0.9086977496,-0.5333451239,0.0362574041,-2.1618160295,-1.7544796549,-1.9390899374,-0.8414350238,0.1931700298,-0.4196051418,-0.5205579406,-0.2311064769,-0.6503635792,-1.8374522836,-3.0328086091,-1.3885063313,0.2184552029,-0.9929187296,0.2686353709,0.4139531098,-0.7851143527,-0.8335900408,-1.1821831383,-0.7608596759,-0.5195402912,-0.0874122506,-0.0423510922,-0.6823678949,-0.5882235029,-0.2188657698,-0.3206797645,-0.9879262669,-0.277203418,-2.2915647904,-0.1249791891,-0.989065019,-1.4527821848,-0.2298525876,-0.494931684,-0.7738170128,0.2502415976,-1.0705075821,-0.4422164255,-1.8871570814,-0.109508849,-0.4141306806,-0.6862568811,-0.5133088144,-0.0476899802,-2.1340992553,0.2343543455,-0.7790861577,-0.3521141052,-0.8383772216,-0.8666043305,0.0948714918,-0.4491200931,-1.4806490563,-0.001148704,-0.9661322997,-2.1858885905,-1.2277528946,-0.2491624448,-0.8291822007,-0.3787366501,-0.5155161829,-2.0025602032,-0.3926061078,0.0373518069,-2.2229970709,-1.0054160014,-0.7482674628,-0.4578334471,-0.8447494248,0.2074617076,-0.3022463563,0.2066276912,0.0237566553,-0.3471958438,0.126405937,-2.4753494853,-0.62681793,-0.6120800166,-0.9199195069,-0.0885414329,0.1595550305,0.0543985681,-0.6839155984,-0.0853905261,-0.8153241669,-2.3780325156,-1.9302123696,0.3044924713,-0.494211785,-2.1308952898,0.2995183997,-0.4342714868,-0.0862198997,0.1112760331,0.0550456739,-0.207249105,-0.3886636051,0.0097891156,-0.6253336483,-2.5558056389,0.0675205154,0.3393860422,-0.7049837531,0.2436848395,0.1513076873,-0.8746817178,-1.2134176641,-1.2210978297,-1.1710686021,-0.2098067955,-1.2754136414,-0.5132567965,-0.8301937026,-2.6841548353,0.3953115607,-2.1503636498,-0.2155212405,-0.8679379602,-0.7822577675,-0.7656597756,-2.5953020914,-1.548961554,-0.1225814063,-0.5713608451,-0.6125095335,0.4128594843,-0.5778889284,0.3075138035,0.0441370908,-0.5633385175,-0.4165622008,-0.4535814717,-0.9289030173,-0.5446204582,-1.1768906218,-2.3864075056,-0.0191192043,-0.4624862617,-0.6535104159,-0.8948302494,-0.7046190948,-0.8135259469,-2.2267537996,-2.3296355981,-0.6760527764,0.1278689057,0.3905739491,-0.3380361064,-3.0581795595,-0.6093769956,-0.9115823923,-0.3641856734,-0.3655186138,-0.5225392044,0.2484555529,0.3052237487,-0.6283553635,-2.2282447652,-0.1934619326,0.4126567362,-3.0062410277,-0.8700067782,-1.1399963061,-1.1946390647,0.3693648057,-1.996382608,-0.0379604667,-0.2872313697,-0.093849487,-0.179802141,0.2836246651,0.2335868697,-0.5556789325,-0.283083054,-0.6059324495,-0.797582765,-0.1404569798,0.4123749346,-1.0179956345,0.0703010369,-2.7890611039,-4.0146778768,-0.9870482276,-1.5551231801,0.3378355222,-0.0750753927,-0.2001452287,-0.7688193636,-0.802955012,0.1658002394,-0.5551789665,-0.4498634806,0.006382244,-0.0025477426,-0.1882304134,-0.9898648557,-0.1669114434,-0.4101513836,-0.4980178222,-2.0322885619,-0.952323384,-0.6216088297,0.4128661383,-1.5534241675,-0.6665244098,-0.8360723041,-0.9376025105,-0.3904494245,-3.0651087021,-1.8752317368,0.0080063831,-0.5790085781,-1.4738725817,-0.8955691941,-0.2898959191,-1.5314369395,-0.9001866563,-1.4979274594,-0.5826535151,-0.5956315332,-0.2701796702,0.2714167427,-0.9146662142,0.2441823664,0.1921517607,-1.4041719759,-1.3429624603,0.2912723736,-1.8720533319,0.2571294037,-2.7915584446,-1.0985687645,-1.1629162705,-1.1822312544,-1.1583750896,-0.4119928031,-2.651678605,0.2026085141,0.031237658,-0.4101984515,-0.6217531314,-1.9025725331,-1.6450843592,-0.7215765387,-0.2639243475,-0.1055575085,-0.5390634111,-0.5455143866,-0.0621375229,-0.483403488,-0.9836707704,-0.4447116014,-1.9265585143,0.4098064535,0.3596236509,-2.0832138115,0.0671574199,0.0732329169,-0.6450669104,0.4091965859,-0.7934489829,-1.2885272189,-0.2363597899,-1.414491357,0.166199245,-0.4698254527,-0.5775274733,0.0169659867,-0.8183603948,-3.2540110805,0.1464636306,-1.5803843845,-2.5624588537,-1.4718161164,-2.0522891916,-1.2935681793,-1.6568007884,0.4125497045,-2.965862113,-0.9579746831,-0.9449920618,-0.1700191136,0.2962462481,-1.4219009998,-0.884870202,-0.2449631301,-0.3915010432,-0.1864137159,-0.1998115565,-0.280943287,-0.5229194819,-1.7746040905,-0.7724336387,0.4097674772,-0.0613321523,0.3913331469,-0.4513611533,-1.7489332442,0.3951710979,-0.9877803275,0.1904551065,-0.986729681,-0.8519500455,-2.2434357401,-1.1136404516,-3.1144102709,0.1643066986,0.0238163569,-0.2726085603,-0.7496031555,-1.2829138254,-1.3653423584,-2.0397771939,-1.6263612008,0.0900248841,-0.6350057487,0.2761153712,-1.912592937,-0.7864989508,-2.1933505882,0.2945356286,-0.6525497959,0.0757460783,0.2533723043,-0.66191238,-0.6332245252,0.1502328723,-0.9697623053,-1.0937154056,-2.6975577482,-0.2924679235,-0.6693795766,-0.6794124771,-0.6483021219,-0.4691099882,-0.0647942587,-0.4122894046,-0.871349121,-0.3406967175,-0.6904840464,-0.9181605301,-0.41295384,-0.2507686962,-3.7975247866,-3.0983446933,-0.7699933326,-0.2901807151,-0.8679398736,-1.3275106397,-0.3045199574,-0.440566829,-0.1055850803,0.0372839965,-2.2823105169,-0.5242286139,0.2855945789,-0.2442988487,-0.8047332635,-1.029326141,-0.3347312449,-2.2672803519,0.0884429207,-0.8840206691,-0.1625261363,0.3270939724,-0.5417033055,-1.9360405684,0.1076263792,-0.9204982447,-2.0000135939,-0.3215882612,0.1631172771,-0.9851148443,-1.4769911893,0.0400761265,0.1635793055,-2.8664555382,0.0510522628,-0.0995494021,-0.8167455362,-1.5089522179,0.12720835,-2.5997083323,-0.8106972642,-0.8221282584,-1.7034032697,0.1883725082,-0.8358159563,-2.1225678959,0.1862177307,0.2652186608,-0.1610695719,-0.6355814485,-0.2623749334,-0.6426124954,-0.6578770468,-0.649807263,-1.1879870742,-0.8756240594,-0.752046083,-0.0944173413,0.0696846369,-1.0333826922,0.2818084051,-0.7728022195,-0.3357516757,-0.4003195961,-0.6181422875,-0.2006514829,-4.1572266499,-0.1226080144,-1.4811913724,-0.3359073841,-0.6642466212,-0.2547122592,0.3192829498,0.2262342513,-2.4305347944,-0.3145505295,-2.705960244,0.0564425781,-1.9336376615,-1.0868660615,0.2571270083,-0.831017239,-1.397190808,-0.5151657382,-2.1950237594,-0.3850000177,0.0485621737,-2.9966851745,-0.8142795332,-0.5844016961,-2.4517785309,-0.6628265423,-0.8835409622,-0.5748535518,-1.3132710863,-2.6373991484,-0.0920073148,-0.4778831138,-0.2435903024,-0.0537280683,0.2319307263,-0.9721989922,-0.5837780978,-2.1130286044,-0.6729108786,-0.0029500999,-0.9542609386,-2.8634785483,-2.2145661895,-0.0889053611,-0.8620482755,0.2984332086,-0.5663841359,-0.4268203068,-1.8302889238,-0.7921620754,-0.6104070011,0.3034173172,-2.2656922657,-2.0238552507,-0.9383458634,-0.4765131705,0.2189697731,-0.2571991186,-0.6692345947,-0.2652485455,-0.4795615697,-1.9581439301,-0.9789193077,-0.0602397212,-0.7554237925,-0.0045334232,-0.4734682426,-0.2787223025,-3.2400291069,-1.5857044334,-2.8557430042,-4.1021662599,-0.4469005575,-1.0988728578,-2.324752389,-0.7285703298,-0.7916359262,-0.5496143663,-0.5343296929,0.046093984,-1.0478446095,-2.7202622138,-0.7995473301,-1.2987402467,-2.0964508259,-1.579153978,-0.240766622,-2.1523941768,-0.8364495999,-0.2530017707,-0.6683297075,-0.6870551975,-3.7557557962,-0.0179430332,-0.2634343833,0.0709811005,-0.8868387017,0.0879441745,0.0988489606,-1.2030122232,-0.3194497278,-0.646869681,-0.286377208,0.3773386366,0.3046315739,-3.0562163811,-1.2495683116,-0.6202333959,-0.1637989864,-0.265363555,-0.4438930865,-0.800621608,-0.5048055523,0.0566941537,-0.2757609735,-2.1268454766,-3.0193090043,-0.555220877,-0.0208137219,-0.0189603376,-0.4198398064,-2.2169807111,-3.2978296211,-0.2101286933,-2.0041254548,-0.6759575033,0.2478776753,-0.7426505491,-0.2259537483,-0.6702131417,-0.5342516096,-1.1037000542,-0.9506793089,-2.6608161366,-0.4445585108,-0.9863863116,-2.5544860071,0.1821977903,-0.346438767,-2.3365255979,-0.1704051354,0.1628058939,-2.065266238,-2.0785018554,-2.6973473324,-0.2177466488,-0.8123008042,-0.3440234598,-0.2071006909,-0.7972431646,-0.4406547575,-1.5738057063,0.1376102756,-0.7794688696,-0.2087846958,-1.9700843849,-1.0740932985,0.1058858614,-1.2920253915,0.2617509803,-0.4541605149,0.3162494983,-0.0855896826,-0.7095246064,0.3309355338,-0.0444715776,-1.7481627975,-0.0972018011,-1.6866607935,-0.7332062874,-0.5629237132,-0.617839918,-0.5680024967,0.0380089774,-0.7273959354,-0.3761384667,-0.3429162935,-1.0312624089,-1.3349535687,-1.8422762018,-1.3806320289,-0.7190020187,-0.596639123,-0.4221675639,-0.444714576,-0.3369684711,0.334684258,-0.0174184201,-0.2891304748,-0.4255044792,-0.6309984632,0.0445568659,-0.8567684869,-0.0047080974,-1.0709936936,-0.6815216727,-0.5621971442,-0.7184387009,-2.2093743534,-0.339658044,0.1238182848,-1.0486982901,0.4109791139,-0.5718445559,-0.0265111049,-0.521172569,-0.0312767258,-1.5864956236,-0.695725481,-0.1227877228,-0.1455679236,0.3235761524,0.0093028095,-0.0619554358,0.1944831346,0.3865404357,-1.2880970275,-0.5582268124,0.1288149067,-0.5227128558,-0.7872177985,-1.7556505036,-0.0806849969,-0.8007571079,-0.6977131893,-0.8673566341,-0.976678013,0.0006432331,0.0393502369,-0.8079095412,-2.1006516619,-0.7198738762,-0.3111074834,-0.4679612677,-0.7708026697,-0.6790884166,-0.50936767,-1.1976454377,0.0062757191,-0.9660485978,-0.7605655877,-0.2466229003,-0.711549699,-0.3393289445,-1.2618239647,0.0973514611,-2.1863406228,-0.2573214169,-0.3558594143,-0.5288472795,-1.1859213209,-0.1009554007,0.1494457009,-0.405603833,-0.1797347147,-1.4319328875,-1.4116624179,0.0155332716,-0.9696981629,-0.2003037025,-2.7176118942,0.3949336459,-0.191506772,-0.308133186,-2.6598843093,-0.9743442019,-0.1244243067,-1.409801016,-0.4591807951,0.1759556425,-1.0185263456,-0.3200316655,-0.2043948978,0.1165979445,-1.3367813427,-0.2925476822,0.1191697934,-0.9845301681,-1.7463276246,0.3828886243,0.0633376863,-0.547816496,-1.1411687955,-0.7482159326,0.3430866091,0.227020175,0.3652921532,-0.8042040275,0.2704257567,-0.7856280539,-0.2423803993,-0.2395635147,-0.9285711765,-1.1607850135,0.4135005097,-2.2393213785,-1.5169616522,-1.3623259232,-2.0792334457,-0.0516992535,-2.8679899654,-0.0994435963,-0.0505688472,0.1323106406,-0.6591254065,0.0628240732,-0.8079308928,-1.0811169437,-1.0215633772,-0.2894441622,-0.9289934917,0.2215101458,-0.223282545,-0.1784130651,-1.775394457,-1.4757967264,-3.0745212584,-0.8630692386,-1.780752357,-0.6046829603,-0.2793815928,-0.5831866376,0.2908659642,-0.3586765537,-0.9584547349,-0.2822413203,-2.019089428,-1.4467748918,0.0707103674,-0.1206712863,-0.3079811597,-1.5185465953,-0.9502318562,-0.3602461678,0.1111694081,-1.7894931046,-0.7650374434,0.1163190718,-0.475331455,-2.8715508369,-0.2305793425,0.0686015837,-0.5495567008,-0.0621417952,-1.1004346561,-0.5847645983,0.3941409205,-0.4401053696,-0.4401534588,-0.8053348339,0.1955828317,-0.697924053,-2.0408151438,-2.1624424694,-1.952282479,0.0365348147,-2.0288496358,-0.5738032944,0.2819644055,-0.3948244685,-1.7535953259,-0.1343672668,-0.2468500862,-0.0375927786,-0.2800519079,-1.4132668523,-0.4909667214,0.0993667032,-0.3231083612,-1.1902404038,-0.4860400343,-0.9573196232,-0.1847350844,-0.2074052705,-0.8084609718,-0.3505165364,-0.170884935,0.3608621239,0.0323769413,-0.2094732179,-2.087729501,-0.0444379089,-0.9084045111,-0.276121311,0.1349807024,-0.6556979093,-0.941917797,-2.1225703872,0.1820664404,-0.4716402499,-0.4239559202,-1.2546177591,0.1502550407,-0.8256371932,-0.6984386136,-0.700274603,0.3959978893,-0.4103588343,-0.1225761517,-1.0610482496,-0.4368017275,-2.6751716522,-0.5728281862,-1.559265725,-0.6465189342,-2.7364747689,-0.9682304983,0.1622780913,0.120246343,-0.9292314487,-1.8925060121,0.090891489,-2.1968626394,-0.5655370605,-0.5487720887,0.103962143,-1.5780769113,0.0072760324,-0.771229123,-0.3750520483,-0.424204948,0.1032020889,-1.9497829692,0.0540870135,-1.1460207566,-1.3998877153,-0.2254377638,-0.6042629963,0.2467463547,-0.3015863013,0.2825793054,-2.5397766291,-2.401921017,-0.9840690398,0.176019358,-0.7010133998,-0.0112515045,0.1056534341,-0.991753745,-0.1497979606,-2.6023738392,-2.2794622791,-1.4571187071,-0.1119853135,-0.2618376505,-0.9456383885,0.1611444124,-0.8450137966,0.147385453,-0.1400121672,-0.5160888889,-0.9276372808,-0.7033032545,-0.2506764872,-0.1496502196,-0.8241529407,-0.1143923691,-0.001747862,0.3868626069,-0.0009485697,-2.0016323918,0.3138269031,-0.0877463561,-0.4433566257,-0.0922411746,-0.667301897,-0.9822108753,0.3504557613,-0.7216397013,-0.7972983797,-1.3408733309,-0.9021606428,-0.0698813314,-0.1521844722,-0.9942669521,-0.1669026666,-1.8433401318,-0.4184020481,-0.9688308723,-0.1789598976,-0.6305016471,0.2508909457,0.3394493611,-0.8856613062,-0.4421862652,0.2457059393,-0.1148187379,-2.8974580089,-1.3158337103,-0.6404043216,-0.8351460514,0.1873282055,-0.4278217836,-2.9644427439,-0.9372957205,-0.0423739275,-1.5300770523,-1.6853938528,-0.5631035007,0.3372367432,-0.9094264612,-0.2216452641,-0.6703607195,-0.9616801414,0.2485488125,-0.6008592505,0.1116249428,-0.8922515975,-1.0979077725,0.3143688223,-0.9496825053,-0.8144182255,-0.844689109,-0.3534472887,0.1599915243,-0.1211062312,0.177007573,-2.6875516595,-1.2977480344,0.2151165091,0.2102012797,-2.0325197596,0.050727347,-0.9633701768,-0.0528609686,-0.8709743371,0.1388177352,0.1325833979,-0.4177557158,0.2656562002,-0.7407243461,-1.631923613,-0.6835384258,-0.9714397058,-0.9050696643,-0.6694969363,-0.8059568225,-0.0005935062,0.1574196343,-1.4434128915,-1.6036452219,-0.2172674334,-0.9936347528,0.0988163425,-0.4559995632,-3.3359097823,0.0625146623,-0.7759963563,-0.3627755487,-0.7569016897,0.1281944634,0.3578958746,-2.5618442571,-1.0809230127,-0.770611105,-0.2864448118,0.2109023519,-0.0670784921,0.4033643629,-0.7437343268,-0.8159035128,-0.2435687678,-1.1601580033,-0.2151572665,-0.2730073099,-0.0097446711,-1.8208295728,-1.1548097629,-0.0337053001,0.1552016721,-0.6030679937,-0.7307244066,-0.4143073276,-0.6316329319,-0.6286867156,-1.4396874313,-0.7856560254,-0.9799305656,-0.1933778351,-0.5157659876,-1.8426999649,-0.287519963,-0.4474336788,0.2081008216,-0.8747417165,0.4142972734,-0.5142912959,-0.1685281718,0.2438245614,-2.3820645789,-0.3521406511,-0.9628988068,-2.5523433128,-0.0972797543,-0.6740978206,0.1502800129,-0.1420465489,-1.9107475632,-0.5094715029,0.1130436077,0.3004934778,-0.7962842447,-0.2232486553,-0.1263862582,-0.2976285726,0.319822999,-0.3289394517,-0.2963771237,-0.2616205725,-0.1838175998,-1.2353279522,0.1318190006,-1.9505236948,-3.3845079263,-0.9819793039,-1.8796632154,-0.0239275053,0.3560981357,-0.3662080381,-0.1902037055,-0.6105330824,-0.2894554822,0.1048535579,0.1992069585,0.3540758345,-0.6687363342,-0.8767641804,-0.5523313587,-0.6683304434,-0.3849597117,0.3807954521,-2.3037044343,0.153622615,-0.4469719201,0.2276779968,-2.1822790684,-0.2273983675,0.203882872,-0.7275055499,-0.0996639714,-1.5618135158,-1.5255516997,-0.7707364998,0.2561463564,-1.4689784324,-0.4210450239,-0.5421137405,-1.9684778715,-0.4988377714,-1.6884942783,-0.528296326,-0.5967025998,-0.039881219,-0.1437903022,0.1579257073,-0.9323677302,-0.2755018257,-1.194360757,-0.9316533568,-0.1292883136,-2.051604581,0.337685449,-2.4570375185,-2.1475769949,-0.6126671065,-1.245124908,-0.9046683551,-0.2072278693,-2.3539526282,0.3186663287,-0.5613942171,-0.6804961312,-0.0172264566,-3.1182781726,-2.109253752,-0.4419736268,-0.4823332178,-1.1563683551,-0.9116829945,-0.4267849115,-0.9182259188,-1.1799679613,0.3604508534,0.3012379183,-2.1623531138,0.386162421,-0.2347200656,-1.4964606525,-0.3736601632,-1.2353140298,-0.3058679584,0.249095178,-0.7094203645,-1.6820482873,-0.6238279655,-2.0837353416,0.1971269441,-0.4248967037,-0.0911912868,0.3451908158,0.1245313089,-2.6198215123,-0.3156678783,-2.1715373449,-1.7716424602,-1.2811239239,-1.1932107157,-1.7916032554,-1.5210269476,-0.1596917557,-2.3839148687,-0.5261119016,-0.9362530868,0.2990628636,0.2677931841,-0.8639730515,-0.5470506214,0.0715760551,0.1787089685,-0.0158058015,-0.9749112474,0.1828881689,-0.1098636657,-2.0532156803,-0.5950143113,-0.4115648369,-0.5912704098,-0.2201019408,-0.3878724105,-0.6337124599,-0.5625105346,-0.6909532398,-0.5584663006,-0.9748633992,0.3663395232,-2.6021235201,-1.8501766295,-2.4637313545,-0.4726791777,-0.2777611892,-0.336293822,-0.8284289104,-0.2601686512,-0.4605698645,-1.3135560029,-1.0229642651,-0.2208367322,-0.425019661,-0.6001877405,-2.1838766877,-0.0406954963,-1.8423990307,0.2175123022,0.081140555,0.2565598436,-0.0143954105,0.06903935,-0.0078560324,-0.0917766853,-0.8990604078,-0.6585068324,-2.1329443408,-0.6160652886,-0.4801417658,0.1883570147,-0.7242904253,-0.6699363615,0.3637811738,-0.3707060963,0.2068649837,-0.3725133457,-0.9255503707,0.3664369048,-0.0939110028,0.1554277381,-2.1783311283,-3.2873703226,-0.1929472306,-0.3278367066,-0.9395556046,-1.6219484394,0.353710342,-0.7028692917,-0.6696754085,-0.0138889935,-2.5144931056,-0.3371523094,0.3676245863,-0.5733973235,-0.6283497763,-0.6445004625,-0.2646163618,-1.9322802037,-0.0414565913,-0.7944963294,-0.3289234041,-0.1719714207,-0.1020587219,-0.5715972037,-0.1483110835,-0.247936952,-1.5434571396,-0.1857798473,-0.952310824,-0.8686896684,-0.7128659236,-0.0512366209,-0.2140394305,-2.8380563668,0.0435633551,-0.4951089619,-0.6230756015,-2.399151579,0.1209611599,-2.9407343834,-0.9354535691,-0.5022465387,-1.98769156,-0.5407965794,-0.4680720909,-1.3477710258,-0.1431413521,-0.4051325882,-0.7388488007,-0.9780711646,-0.7046250045,-0.7694089017,0.3610790807,-0.3515113583,-0.9877799441,-0.337184831,0.3857832096,-0.1363606397,-0.1404931311,-1.3576379605,-0.1110269253,-0.0338098945,0.2627441955,0.1938558134,0.3946625295,0.2041746567,-3.4340895011,-0.87061749,-0.1815255679,0.0184183093,-0.5111277724,0.1338434435,0.0464883852,-0.4441863492,-1.7482454246,0.2470068647,-2.1226473952,0.1843570255,-1.5411337637,-1.016518268,-0.6974801986,0.2280583066,-0.7361430991,-0.5955155308,-2.0180159674,-0.418348671,-0.7894857565,-1.6751363024,-1.0154948715,-1.2839379445,-2.2111684779,0.0337894975,-1.1359586236,-0.8053952401,-0.9328537618,-2.8474494352,-0.0291090229,0.0033667582,-0.1262400565,-0.189375919,-0.2491639787,-0.2829338037,-0.2149919862,-2.4514509795,-0.4849860772,-0.227246992,-0.4879133637,-2.486331815,-1.8069583469,-0.249155858,-1.0836065823,0.2510405971,-0.782600728,-0.4364465193,-0.6922553413,-0.1197218516,-0.9001656528,-0.4153947796,-2.7847383576,-1.5427269453,-1.404013951,-0.3533209845,-0.9451897911,-0.4096790868,0.2650835157,-0.9168580537,-0.5596581728,-1.7654149133,-0.4135385312,0.0525082334,-0.4992902764,-0.2743388139,-0.1421763335,-0.2331288811,-2.4496739469,-1.5433829517,-2.7122190386,-2.7318698813,-0.0661610224,-0.2504938272,-1.0360097033,-0.933943808,-0.9781939984,0.0491486895,-0.4924426898,-0.1142504022,-1.3993430079,-2.1041908557,-0.3746781475,-0.9459780126,-1.7402292533,-2.3240517284,-0.2336875942,-2.1204075809,-1.0111619272,-0.6340243293,-0.4093852627,-1.2089217315,-2.1463290006,-0.416691924,-0.0372954794,-0.127225646,-1.9323840073,-0.4807795077,-0.3895481409,-1.2435081625,0.2974050577,0.1669870772,-0.0005899165,-0.6499211333,-0.6708773276,-2.778490345,-2.7377424078,-0.105214647,-0.3967032672,-0.3408242597,0.0165112109,-1.049186863,-1.1789683028,-0.978018643,-0.9224008504,-2.2425785205,-2.7609067125,0.1471047712,-0.886601464,-0.9710257972,-0.6497366231,-1.5476111837,-4.48403041,1.0231491107,9.3008666469,0.2503377318,0.0408463201,0.8153876019,-1.0373022479,0.1199038988,0.5256063492,0.0156310611,0.0160526637,13.6502104213,0.7373720049,12.4652198369,0.2755730115,-0.7055666928,-0.637395388,-0.1092735535,-0.1003783976,2.4708478711,4.6898809966,0.7995012342,0.2897973127,1.1824876191,-0.6664586619,0.3539857533,-1.5108137061,-0.4703951318,-1.8647649236,14.1020115532,-0.3146511951,-1.1526456181,-0.6668568863,22.3863659236,0.1906311821,2.5099748099,0.9048686246,1.3347282112,0.4162359799,2.04987669,0.4764681505,1.6887746365,0.1695517665,-0.3214567758,1.2162502732,-1.6459596835,13.1790545937,-0.2075689154,-0.4624197806,-1.2971949055,-0.3914080077,0.8090452218,0.256296348,0.6160878584,0.987084937,1.7409327203,0.6210734023,-1.9233104508,0.7706506161,-0.014485857,1.6953816218,-1.1574912172,0.4081045397,-0.3545563912,0.5873589692,-0.2599849203,0.157286952,0.0253758609,0.6101141943,0.2654321424,0.1449176024,-0.5318899145,-1.0664764952,-0.0879420944,-0.4053827847,-0.0654187556,0.2878270679,-1.7601022865,1.0478060017,0.4686897859,-0.4834727177,1.1351806609,-1.2170261004,-0.10297611,0.3791036814,-0.8057343735,-1.0230469629,-0.0602220312,0.7704276767,0.2575801139,-1.8062225539,-1.3224215462,1.5608598376,1.0574750762,-9.4184873816,-0.2940173654,1.1113829545,-1.4738719935,-0.7350606723,0.7979161796,0.5676528941,-0.5829562957,0.1565051258,0.8510408215,-0.0670066135,-1.140048828,0.176159236,-0.9321777294,-0.3348652324,-0.7594980116,-0.853770491,-0.853921131,-0.1856712398,-0.2122695351,-1.1152751554,0.3864530527,-0.00931824,-0.2076389975,0.5015849936,-0.9593130772,1.9000981208,-0.699609099,0.5620417791,-1.4660770335,0.8325259808,0.4293225441,-1.5405299123,-1.4732594021,-2.1634518852,-0.1679567216,-2.0893649053,-2.8256387598,-3.2157956292,2.1393000392,-0.1836030914,-1.627449104,0.7545524471,-0.3215154357,7.7946142305,-0.7293515443,-0.6103332366,-0.8402573851,-0.6091172879,-0.5528381516,1.960907586,-0.3728045672,0.7943458542,-0.998229002,-0.3000638588,-0.5879987048,1.1440695464,0.7450085703,-2.8104999739,-0.4366708561,-0.75991173,-0.4457263069,2.2531083788,0.2127199159,-0.1819488406,-0.3654005804,-0.4524551113,0.2414362337,0.2772995637,0.9359836741,-0.9872895854,0.3262567821,0.181192514,-1.4901946271,-0.435873107,-0.1476029863,0.2840766764,-0.7500374794,-0.8975326421,2.0895487028,0.650664418,2.7189192415,0.7409034902,-0.6987580488,1.0053329814,-0.2187500835,0.7339295683,0.399447957,1.3302067099,-0.4272839726,-0.7472345767,0.5053072187,0.0841358897,-0.588330773,-2.14053785,-0.039091806,0.3326266473,0.4940811342,0.052203393,-0.7108562633,-0.4921481731,0.8451415879,6.4449206328,-0.7509828019,-0.4235809229,-0.7605616057,-0.6044930493,1.4395649596,-1.0947431738,-1.6569235505,0.079517579,0.1700294021,-0.1712467751,0.073203452,0.5747498586,12.7897445745,-0.560219232,-0.3997154469,-1.0745835056,-0.1931245471,-0.2533712102,-1.6852550961,0.6263691337,4.919028264,1.1066895607,-0.5327524362,-2.3759310804,-0.6982741728,0.0404901296,0.8946003832,0.3552673745,0.234820102,-0.3446604221,-0.526561459,0.3314046192,-1.8510703799,-0.151497117,-0.5871607004,1.2646387186,-0.1698921427,0.6326328979,-0.4856864664,0.2330011542,0.222857536,-0.8511812993,-1.0234918557,-0.6356462707,0.049715582,-0.0659413221,1.1679482216,-0.1311661964,-0.7350239584,4.5106181397,0.2109708179,-7.7219554274,-0.6306951478,0.3432977642,-0.3046947294,-0.5763364974,-0.7097209617,0.0818975979,0.3836919554,-2.3584242966,-0.2176819262
